nep3 6 Mg Ni Zn Co Cu O 
cutoff 8.4 3.9 260 28
n_max 10 9
basis_size 12 12
l_max 4 2 0
ANN 60 0
 -4.9602795e-02
  1.0841250e-01
 -3.5941266e-02
 -1.0372439e-01
  1.2908062e-01
  4.4167545e-02
  4.6121854e-01
 -6.7141551e-01
  1.8062964e-01
  2.5613165e-01
  2.3063567e-01
 -1.8673289e-01
  7.0767459e-03
 -7.3350690e-02
 -1.4407414e-01
 -5.3049654e-01
 -4.4089600e-01
 -7.2637498e-02
  2.7016944e-01
  1.8297847e-01
 -1.8700249e-01
  4.2494109e-01
 -1.8814498e-01
 -2.0718519e-01
  9.2929900e-02
  8.0148593e-02
  8.7959923e-02
  1.9394401e-02
 -4.2268485e-01
 -3.5895184e-01
 -4.7573555e-01
  1.1898006e+00
 -3.4777761e-01
  1.9820549e-01
  2.5630452e-02
 -7.0638275e-01
 -3.8988632e-01
 -1.0175527e-02
  1.0062522e+00
  3.1643745e-01
 -3.9943942e-01
 -1.4297496e-01
  4.6460465e-01
  7.5714409e-01
 -2.5783134e-01
  5.4673117e-02
  2.3927772e-01
  4.7620019e-01
 -1.6184275e+00
  9.2876941e-02
 -1.7198774e-01
 -7.5627327e-01
 -1.3334368e-01
 -6.5033615e-02
  1.3901477e-02
  2.6506364e-01
 -3.1303346e-01
  9.3949929e-02
  1.4048779e-01
 -1.1204259e-01
  2.7079341e-01
 -5.8224505e-01
  1.1551369e-01
  1.0303492e-01
  4.8745591e-02
  2.3883843e-01
  9.4327189e-02
  4.9866086e-01
  9.0000547e-02
  1.2169167e-01
 -4.0437795e-02
 -7.2449386e-02
 -6.7120239e-02
  5.5342531e-01
  2.8683892e-02
 -6.9239415e-02
  1.1944969e-01
  5.2669175e-02
  6.6120875e-01
  9.5821634e-02
 -1.7685881e-01
  3.6245075e-01
  7.2430962e-01
 -6.7790814e-02
  3.2947487e-01
  2.9936838e-01
  9.3556190e-01
  6.7679143e-01
  8.5573268e-01
  3.1713836e-02
 -1.3257341e+00
  4.0614432e-01
 -1.1918495e-01
  3.1707016e-01
  2.4017969e-01
  5.7388252e-01
  1.1012811e-01
 -3.0983248e-01
  8.6049682e-01
 -1.2370282e+00
  1.9631723e-02
  3.3750066e-01
 -3.5007209e-01
  3.1994081e-01
 -5.6058371e-01
 -1.6278028e-01
 -1.9803517e-01
 -2.4151254e-02
 -1.4095151e-01
 -2.8713605e-01
  7.9778209e-03
  3.0505556e-01
 -3.4312956e-02
  5.9124278e-03
 -1.1215232e-01
 -3.5060781e-01
 -3.5810988e-02
 -1.3723773e-01
 -6.8147665e-01
 -1.8988015e-01
  2.7874130e-01
  1.8115738e-02
  2.8717187e-01
  4.9997398e-01
  3.2963184e-01
  1.4748919e-01
 -1.2197337e-01
 -6.8709618e-01
  5.9487969e-01
  6.8120286e-02
  6.1715815e-02
 -7.9309016e-01
 -9.1686442e-02
  8.0438614e-02
  1.1475671e-02
 -7.1668953e-01
 -3.3993569e-01
 -1.9666183e-01
  1.8491458e-02
  8.7160900e-02
  4.9228376e-01
  2.9805994e-01
  2.0110686e-01
  9.1135496e-01
  2.2315752e-02
  9.1971822e-02
  3.4827527e-01
  3.0759156e-01
  2.2826150e-01
  3.1759736e-01
 -5.9061933e-01
 -1.4853649e-01
  5.6541204e-02
  2.2636007e-01
 -1.2413952e-01
 -1.7023642e-03
  1.5799113e-01
 -1.9059272e-01
 -6.0600955e-02
  1.5896682e-03
  1.5615582e-02
  5.4970765e-01
 -4.0919511e-03
 -7.3361933e-01
  2.0886885e-01
 -3.4212658e-01
 -3.6082143e-01
  7.9596156e-01
 -1.2969977e-01
  1.1564959e+00
 -1.9024013e-01
 -2.3124354e-01
  3.5134384e-05
  1.9902559e-01
 -1.0186836e-01
  6.2785149e-02
 -3.1204790e-01
 -3.7324820e-03
 -1.6997717e-01
  7.2573796e-02
 -6.7039984e-03
  3.6644414e-01
 -3.2847825e-02
 -7.9142585e-02
 -3.6220118e-01
 -1.0868467e-01
 -2.1774400e-02
  4.2988889e-02
  9.9427235e-01
 -1.0953496e-01
 -1.5128709e-01
 -3.8617495e-01
  4.9854541e-01
 -1.7483550e-01
 -2.0028594e-01
  8.0144787e-03
 -3.5386929e-01
  1.4052890e-01
 -9.7304744e-01
 -1.1414519e-01
  4.2470461e-01
 -4.4873223e-02
  6.5516561e-02
  3.3691001e-01
 -2.0352280e-02
 -5.6341577e-02
 -4.9553588e-01
 -3.2676872e-02
 -7.8985117e-02
  3.1804778e-02
  5.1044766e-02
  1.8870690e-01
  1.0275375e-02
 -2.3104294e-01
  9.6603918e-01
 -2.3932551e-01
 -2.0682120e-01
 -8.0182247e-02
 -8.5731752e-02
 -2.3480773e-01
 -1.1163031e+00
 -3.4316665e-01
  8.3513752e-02
  6.8801097e-03
 -4.5791543e-01
 -7.5488645e-01
  4.7686420e-02
 -1.3453004e-01
  3.8401861e-02
  3.6164261e-02
 -6.7687929e-02
  1.3963737e-01
  3.5457123e-02
  1.3190036e-02
  8.9683004e-02
  1.2349269e-01
 -2.3915961e-01
 -3.7434831e-01
 -2.9784638e-01
 -2.4413057e-01
  1.6782394e-01
  6.0937833e-02
  1.3873842e-01
 -2.1113215e-01
 -2.7157821e-02
  3.2509989e-01
  5.6637693e-02
 -2.1933492e-02
 -6.8247281e-03
  7.1536951e-02
 -2.4085201e-01
  1.1517135e-01
 -5.9616803e-03
 -6.5544352e-02
  5.5720445e-02
  7.7045448e-02
  5.3179525e-02
 -1.5400463e-01
 -5.5236589e-02
  1.2429756e-01
 -2.4067996e-02
 -1.1021405e-02
  1.6721362e+00
 -6.7106563e-01
 -2.7658039e-01
  5.6258816e-01
 -7.4124706e-01
  3.9539245e-01
 -1.1449733e-01
 -1.1784611e+00
  5.7937813e-01
  1.8478716e-02
  1.7383684e-01
 -1.6046052e-01
  1.7694965e-02
  1.8228687e-02
  1.4491394e-02
  8.2877465e-02
 -4.2868635e-01
  5.1372129e-02
 -1.8106078e-01
 -5.2695042e-01
  2.2418599e-01
 -8.2734114e-01
  1.4085695e-01
  6.5055710e-01
  1.3000386e+00
  5.8679473e-02
  9.4777197e-02
 -4.4311383e-01
 -1.1426985e-01
  3.5236669e-01
 -3.4088203e-01
 -2.8479511e-01
 -7.6998699e-01
 -9.6909069e-03
 -1.4718334e-03
 -6.0671800e-01
  6.2967443e-01
 -3.0376983e-01
 -1.4060588e-01
 -3.1193754e-02
  2.0667721e-01
 -1.9901197e-03
 -2.5940746e-01
 -7.6614261e-02
 -2.3130323e-01
  3.9501444e-01
  4.6570934e-03
  3.0734733e-02
  1.1102106e-01
  2.2586559e-01
  5.5717367e-01
 -4.8191166e-01
 -9.3684591e-02
  2.8170916e-01
 -9.8495923e-02
 -1.4710958e-01
 -2.8398218e-02
  1.7953613e-01
  4.8440132e-01
 -9.0036295e-02
 -4.0659529e-01
 -7.3915698e-02
 -2.8469628e-01
  1.4544861e-01
 -9.0154064e-01
  2.4957490e-01
 -5.4490805e-01
 -2.8674158e-01
  2.7117065e-01
  2.5773667e-02
 -7.3716319e-01
 -4.2530385e-01
  5.0371426e-01
 -1.6613854e-01
  3.7461005e-02
 -9.2997730e-02
 -3.9502210e-03
 -6.1957812e-01
  1.3380789e+00
  2.8220561e-01
  1.6398191e-01
 -1.9231783e-01
 -8.3072789e-02
  6.2833607e-02
 -1.7224057e-01
  1.6000631e-01
 -1.4255123e-01
 -1.7716345e-01
  4.2870369e+00
  1.8244636e-01
 -7.1741384e-01
  1.9560084e-01
  1.4125015e-01
 -5.9090394e-01
  2.6613948e-01
  1.5228112e-01
 -2.8249528e-02
 -3.9285216e-01
 -4.3745589e-02
  4.9116451e-02
 -1.7813250e-01
 -1.5194410e-02
 -1.6572105e-02
  1.8370962e-02
 -1.0681895e-01
 -8.2407877e-02
  2.0322071e-02
  3.2317534e-01
 -6.1735015e-02
 -3.7133895e-02
  4.7462981e-02
  1.7257780e-01
  3.7088430e-01
 -2.8470591e-01
 -4.7149524e-01
 -9.3390323e-02
  3.7622195e-01
  7.1668819e-02
  1.0867450e-01
 -3.4124974e-02
 -1.0355970e-01
  5.7598222e-02
 -1.7663078e+00
  4.2034370e-01
  2.4772532e-01
  3.8821709e-01
 -1.1963017e-02
  6.3965388e-02
 -1.3159873e-01
 -9.1985725e-02
  6.4310454e-02
  4.6936922e-02
 -6.8848914e-01
 -6.5057710e-02
  2.6062432e-01
  2.9383752e-01
  3.5756996e-01
 -4.0884626e-01
  3.1820869e-01
  1.2445947e-01
 -3.2298690e-01
  1.7622687e-01
 -2.0563956e-01
 -1.6905355e-01
  7.2610074e-01
  1.9377396e-01
 -5.3196943e-01
 -2.1888378e+00
 -8.8547863e-02
 -4.9180558e-01
  5.2575767e-01
 -6.7383289e-02
  1.1715801e+00
  1.0568262e+00
  8.5531467e-01
  2.8950913e-02
 -6.2658221e-02
 -1.8515185e-01
 -4.5504928e-02
  1.9906065e-01
 -7.2116710e-02
  7.6901913e-03
 -2.5851029e-01
  8.2619771e-02
 -6.1030611e-03
  6.8356454e-02
  2.6440918e-02
  3.5732172e-02
 -5.8694988e-02
  2.9561009e-02
 -1.6960922e-01
  8.8733718e-02
  1.6282726e-02
  3.1045791e-02
 -1.2015168e-01
  1.5908556e-02
 -1.2874147e-01
 -2.6176500e-01
  2.5938341e-01
  2.2719161e-01
  1.8325809e+00
  4.7709322e-01
  2.0379709e-01
 -1.5839601e-01
 -2.1163096e-01
 -9.0830040e-01
  2.9546048e-02
  3.8123671e-03
 -8.6634308e-02
  1.3014492e-01
  1.0442039e+00
  8.4015988e-02
 -1.2525478e-01
  7.5061144e-03
 -2.7794260e-01
 -4.3761498e-01
 -6.3928014e-01
 -1.0951374e-01
  3.2599643e-01
 -2.3702940e-01
  1.5818156e-01
  7.0370984e-01
  2.1754789e-01
 -8.8822347e-01
 -4.3190777e-01
 -3.3659503e-01
  2.7993876e-01
  2.2398596e-01
  9.5880133e-01
  2.1484198e-01
  5.1553881e-01
 -9.2128402e-01
  1.5004313e+00
 -7.4718453e-02
 -1.2177677e+00
  6.3122171e-01
 -4.0064983e-02
 -1.7934797e-02
  2.5614031e-02
 -1.2218025e-01
 -2.7266017e-01
  2.3420321e-02
 -6.2310774e-02
  2.7733526e-01
  9.7072013e-02
  1.2057574e-02
  7.1706283e-01
 -6.9180036e-01
  1.6171449e-01
 -1.1348546e-01
  4.7601487e-02
 -6.9369370e-01
 -4.7877026e-01
  6.3326830e-01
 -3.6932859e-01
 -2.1400988e-02
  7.6658958e-01
 -2.6968533e-02
 -5.4358846e-01
 -2.8290638e-01
 -1.7891948e-01
  1.4472619e+00
 -3.5274568e-01
 -1.5256336e+00
  3.1898990e-01
  1.7542642e-01
 -7.3936954e-02
 -7.3996383e-01
 -9.5124459e-01
  1.7529728e-01
 -6.1107516e-01
  1.1318523e-01
  2.1322029e+00
  1.7586939e-01
 -1.3248093e+00
 -9.3080121e-01
 -1.2601371e-01
 -4.5043010e-01
 -1.2681289e-02
  1.0973059e-02
 -8.5478462e-02
  1.6322488e-01
 -1.3458061e+00
  1.1180883e-01
 -5.2485850e-02
  2.9834138e-02
 -2.0612095e-01
  9.0510130e-02
 -8.2761474e-02
 -1.0079730e-01
  4.3983290e-01
 -3.0453867e-01
  1.5246431e-02
 -1.4194520e-01
 -2.9726177e-01
  5.5122457e-02
 -9.4796017e-02
  1.4742285e-01
 -2.1863902e-01
  1.3842171e-01
  2.3094141e-01
 -1.0247805e-02
 -1.4998460e-02
 -2.6463524e-01
 -2.2970614e-01
 -1.8422022e-01
  4.6160575e-02
 -1.9776805e-03
  3.0100461e-02
 -2.1392813e-01
  9.9747196e-02
  1.2153471e-01
  5.0007010e-01
 -2.9876204e-02
  1.8270521e-01
 -3.6473550e-02
  1.4599410e-01
  1.8973121e-01
 -1.3518302e-01
  1.2746030e-02
  4.2854449e-01
 -7.3961771e-01
  2.4510215e-01
 -4.8997767e-02
  1.0606135e-01
  3.8178846e-01
  8.8458359e-01
  2.2057451e-01
  1.6996901e-01
 -1.4702022e-01
 -5.5036479e-01
  5.8755612e-01
  7.0855491e-02
 -2.7735189e-01
 -4.2773348e-01
  8.0103230e-01
 -6.4037514e-01
  2.3574920e-01
 -1.8381362e-01
  4.3996349e-01
  7.0808388e-02
  3.3973526e-02
 -1.4741174e-02
 -2.7336802e-02
 -6.2569743e-01
  4.1980523e-01
  1.0710206e+00
  5.6309009e-01
  6.8217134e-01
  1.3087505e+00
 -1.1848015e-01
 -4.7570825e-02
 -5.7241409e-03
  5.7011794e-02
 -3.0112797e-01
  9.7825244e-02
  4.4599649e-01
  2.5824481e-01
  5.5352192e-02
  2.5020543e-02
 -3.5809168e-01
  1.2268282e-01
 -3.9618317e-02
 -7.0677556e-02
  1.6153729e-01
  2.1537696e-01
  1.6128333e-02
  7.7412151e-02
  1.0085590e-02
  4.9097171e-01
  1.7851876e-02
  3.3363940e-03
 -3.9926082e-02
  7.9297650e-01
 -1.7832993e-01
 -2.4343051e-01
  2.8296533e-01
  1.5106242e+00
 -2.9205891e-01
 -2.3563798e-01
 -1.0015415e+00
 -1.9094990e-01
  4.8478374e-01
 -1.5110376e-01
  4.3830127e-01
  1.0235718e-02
 -1.1835936e-01
  3.3605349e-05
 -2.0634177e-01
 -2.5806844e+00
 -2.5726354e-01
  5.6497079e-01
  4.4384062e-01
 -7.4775591e-02
 -4.2865518e-01
 -4.9124992e-01
  5.2264921e-02
  3.8721231e-01
 -2.3978475e-01
  1.4160757e-01
 -4.7357938e-01
 -8.3027101e-01
  1.0374890e-01
 -7.5217015e-01
  3.7522408e-01
 -5.1402307e-01
  5.1427257e-01
 -1.1764503e+00
  2.6074299e-01
  1.3464771e-01
  1.2986102e+00
 -1.1985294e-01
  2.4768181e-01
 -5.0447530e-01
 -3.0504447e-01
 -3.6605474e-01
  1.4333860e+00
 -1.2667857e+00
  3.3469945e-02
 -1.5836991e+00
 -5.3766918e-01
 -3.6551420e-02
  5.5217490e-02
 -2.4729164e-03
  1.7108320e-01
  3.3156961e-01
 -9.9597732e-03
  2.7276950e-02
  4.5939628e-02
 -1.4501490e-02
  6.9862291e-02
 -2.3691404e-01
  2.6829336e-02
 -7.4552961e-02
 -1.4185116e-01
 -5.8725815e-02
  3.2188565e-01
  1.0769603e-01
 -6.1870534e-03
 -4.1656393e-01
  1.5851778e-01
  4.8058403e-01
 -2.0258971e-01
 -3.1265515e-01
 -3.7345085e-01
 -3.1452138e-02
 -9.0294379e-01
 -9.8139457e-02
 -9.5118381e-02
  2.0944262e-01
  1.5015557e-01
 -1.5967964e-01
 -3.9491199e-02
 -4.3603045e-01
 -7.2416508e-01
 -1.0219105e-01
 -1.0540108e-02
 -1.1831839e+00
  6.3915521e-01
  9.7608328e-02
  2.7884766e-03
  4.0487787e-01
 -1.1495122e-01
 -4.0889036e-02
 -1.4615791e-01
 -1.4134717e-01
 -1.3074984e-01
  2.0127156e-01
  1.8943746e-01
  6.0055709e-01
  1.3889434e-02
 -6.4044133e-02
  3.7323311e-01
 -3.2513720e-01
  4.7611868e-01
  1.1600018e-01
  2.4613050e-01
  1.2633836e+00
  9.7876089e-04
  4.4944751e-01
 -5.6165628e-02
  2.0675737e-01
 -3.2846116e-02
 -3.6864880e-02
 -1.3563112e-02
  1.4388743e-01
  5.7065076e-01
  6.4162137e-03
 -4.3005699e-01
 -1.1825290e-02
  2.8906606e-02
 -2.1173701e-01
 -6.1119512e-02
 -1.6179372e-02
 -3.3173949e-02
  8.4329182e-01
  2.8597986e-02
  3.7385628e-01
 -2.4681640e-01
  2.4844183e-01
 -7.8068604e-03
  4.0927228e-01
  1.9979893e-01
  8.4970921e-01
 -4.6817294e-01
 -3.6578473e-02
  8.6568668e-02
  4.1418970e-01
 -4.1035032e-01
  4.3967211e-01
  1.5947817e-01
  7.4967152e-01
  3.5907894e-01
  1.7021143e-01
 -1.6615720e-02
  3.1713381e-01
 -5.0290394e-01
  2.8422460e-01
  9.8723471e-01
  1.5914071e-03
  1.2911372e+00
  7.6152700e-01
 -1.2258498e-01
  1.1781875e-02
  5.2746110e-02
 -3.6206958e-01
 -2.0852450e-01
 -1.0175668e+00
 -4.3912953e-01
  7.8747922e-01
  7.6001638e-01
  3.2100920e-02
  1.0646806e+00
 -1.7734219e-01
 -7.6056927e-01
 -5.6050301e-01
  6.2284213e-01
 -8.4573638e-01
 -1.0428498e+00
 -1.0096525e-01
 -1.7657609e-01
  8.4697235e-01
  1.4268036e-01
 -2.1022171e-01
 -3.1973150e-01
  1.0880026e-01
  1.5166765e-01
 -1.2528405e-01
 -2.6933074e-01
  7.4154623e-02
 -9.3180634e-02
  2.4632603e-01
 -1.5058626e-01
  1.8871224e-01
 -5.7805140e-02
  8.5108906e-02
  8.2019769e-02
  3.7714878e-01
 -2.2289284e-01
  1.0117204e-01
 -9.2489101e-02
  1.8760824e-01
 -5.1065423e-02
 -1.7685138e-01
 -7.9687953e-04
  3.5469968e-02
  1.6067041e-01
 -4.8277178e-01
  2.2035910e-01
  2.0224690e-01
  5.6852037e-01
  1.5173389e-01
  1.3453158e+00
 -1.8096179e-01
 -6.4896703e-01
  3.8139366e-02
  1.1157359e+00
  8.9330155e-01
  2.6301134e-01
  2.2817758e-01
  3.1244976e-02
 -3.2464728e-02
  1.2358183e+00
  3.3517051e-01
 -2.1965075e-01
  7.3636593e-03
 -9.6005037e-02
 -2.9640383e-01
 -9.8788202e-01
  8.7960476e-01
  4.2532492e-01
 -4.3956928e-02
  2.4428760e-01
  3.3124715e-01
  2.9985258e-01
  2.4414708e-01
 -9.1297321e-02
 -2.7282429e-01
  1.6938800e-01
 -7.1671033e-01
  2.6126945e-01
 -3.0626732e-01
 -6.6520214e-01
  4.4144116e-02
 -1.9593467e-01
 -1.2030336e-02
 -1.5632813e-01
 -2.7451435e-01
 -3.7397773e-03
 -4.9617738e-01
  2.0130418e-01
 -3.8233107e-01
 -1.7917794e-01
  7.3371708e-02
 -4.3542546e-01
 -2.3099747e-02
 -6.2489188e-01
  9.8854005e-02
 -2.6788893e-01
  1.4937052e-01
  1.9041102e-01
 -1.6987922e-02
  2.9207456e-01
 -7.8276402e-01
 -2.2685903e-01
  1.7794958e-01
 -2.8810430e-01
  4.9468398e-02
  2.3286146e-01
 -2.0745157e-01
  1.1886786e+00
 -2.9828373e-01
  3.5754389e-01
 -3.7169313e-01
  1.6002402e-01
 -3.8788337e-01
  3.4213680e-01
 -5.1660765e-02
  1.4579371e-01
 -3.2921575e-02
 -1.3990371e-01
  2.1058431e-01
 -1.9636323e-01
 -4.8728448e-01
 -3.9827205e-02
 -6.8771265e-02
  1.2491114e-01
  2.0041929e-03
  9.9151814e-01
  1.4491904e-01
 -3.7912365e-02
 -1.4038323e-01
  1.2543742e-01
  8.6045378e-01
  6.0804707e-01
  1.0125549e+00
  2.8221681e+00
 -6.4164631e-02
 -1.4843263e-01
  4.5902970e-01
 -2.7746434e+00
 -1.5531561e-02
 -3.6266220e-01
 -2.7302846e-01
  2.1033910e-01
  2.8784129e-01
 -2.7642692e-02
  2.0301069e-01
  2.2268727e-02
 -1.3674467e-03
  7.7350169e-02
  1.2290476e-01
 -5.5714425e-02
  4.0415410e-02
  2.7759698e-01
 -5.3864539e-02
  1.6755524e-01
  2.1653007e-01
 -1.2037572e-01
 -8.3004490e-02
 -7.6597176e-02
  5.8499541e-02
  5.4097068e-02
  1.2629813e-01
  3.1688802e-02
  2.3664194e-01
  1.3578455e-01
  9.0280406e-02
  2.9092298e-03
 -6.1362386e-02
  3.4744121e-02
 -1.1396138e-01
  3.5598287e-01
  1.7628845e-02
 -1.3715295e-01
 -1.4150669e-01
 -7.5998574e-02
  1.1198822e-02
 -4.8952073e-02
 -1.9250876e-01
  3.5168964e-02
  1.9703381e-01
 -1.8536458e-02
  5.9806794e-02
 -2.6263422e-01
  3.9058649e-03
  1.5587962e-01
  8.4274992e-02
  1.3711002e-01
  5.1557845e-03
 -1.1898599e-01
 -1.3607597e-01
 -3.5281669e-02
  2.4853159e-02
 -7.9651766e-02
 -1.2663233e-01
  9.0979032e-02
  1.0921831e-02
 -1.0561299e-02
  1.6054490e-01
 -9.9922121e-03
 -1.3287159e-02
  1.3944694e-01
 -1.9756319e-02
 -1.8618795e-01
 -7.9125054e-02
 -1.5380644e-02
 -3.3653575e-01
 -8.9480309e-03
 -7.9555839e-02
  3.2059655e-01
  2.0496588e-02
  1.2294227e-01
 -3.2659248e-01
 -2.0928321e-02
 -5.9949592e-02
  1.7387436e-01
 -7.4713290e-01
 -3.9610988e-01
  3.5661717e-03
  8.9572847e-02
 -4.3731067e-02
  6.9119501e-01
  5.6552923e-01
  6.4039212e-01
 -8.5259117e-02
 -1.5792094e-02
  7.1036792e-01
  5.1683873e-01
  1.3397871e-01
 -4.8784441e-01
 -9.1574472e-01
 -4.1765306e-02
 -1.2265165e+00
 -4.8277971e-01
  2.0954441e-01
 -3.5096791e-01
 -2.9737875e-01
 -5.4031163e-01
  8.5855412e-01
 -3.3879858e-02
  1.3578324e-01
 -7.1844083e-01
 -7.8825301e-01
  2.0946837e-03
 -7.6857343e-02
 -1.4714073e-02
  1.6966598e-02
  5.1464964e-02
  2.6517648e-01
 -1.3491632e+00
 -4.5811066e-01
 -1.8145512e-01
  1.0098763e-01
 -5.1166471e-03
 -2.7511772e-02
 -6.9104099e-01
  9.1544978e-02
  1.4995946e+00
  4.3679881e-01
  8.7587661e-01
 -9.5743462e-02
  1.1576539e-01
  6.0180418e-02
  3.6743349e-01
  6.6786289e-02
  1.0300866e-01
  1.8251082e-01
 -1.7765866e-01
  4.7333241e-02
  8.8844635e-02
 -1.0621456e-01
 -1.5541930e-01
 -1.5722707e-01
  1.9060344e-01
 -3.3336196e-02
  3.1969476e-01
 -3.7538379e-01
  3.2730389e-01
  1.5649451e-01
  1.0210586e-01
 -3.4139505e-01
 -3.4495942e-02
  3.0290413e-01
 -1.5710579e-01
 -1.3117431e-01
  6.4629269e-01
 -2.4616365e-01
  8.3180763e-02
  2.5825754e-01
  7.9858410e-01
 -2.1954961e-01
 -2.0230645e-01
  4.5985377e-01
 -3.6351767e-01
 -5.9252328e-01
  9.5104404e-02
  2.3675458e-01
  2.8745967e-01
  5.3900436e-02
  5.0312686e-01
  9.3300372e-02
  3.6759716e-01
 -6.6525614e-01
  2.6347432e-01
 -3.9904207e-01
  7.6540746e-03
  2.8428727e-01
 -6.7297125e-01
 -4.1448465e-01
  3.2506153e-01
  1.0377558e-01
  1.3423881e-01
 -1.8014005e-01
 -1.6389741e-01
 -1.2938200e-02
  9.9567242e-02
 -2.1746866e-01
 -4.8303735e-01
  4.4530141e-01
 -3.5443851e-01
  5.3528613e-01
  6.2659520e-01
 -3.2441453e-03
 -2.0608993e-01
 -9.9000409e-02
 -3.6265954e-02
  2.5857377e-01
 -9.1839083e-02
 -5.7132369e-01
 -8.2759209e-02
  1.7040220e-01
 -3.4612704e-02
 -3.9260802e-01
  3.6078575e-01
 -1.4360760e-01
 -6.5548509e-01
 -9.1667366e-01
 -1.0788585e+00
 -5.5714810e-01
  2.1861495e-01
 -1.0130580e-01
  3.9704222e-02
 -1.2699109e-01
 -2.5297901e-01
 -1.9546336e-01
  1.8035787e-01
 -2.0522950e-02
  1.4911315e-01
  7.3083426e-04
 -3.9238590e-01
 -2.7889264e-01
  7.6465487e-02
 -2.3745973e-02
  2.8557502e-02
 -1.3476717e-01
 -1.8098755e-01
 -8.5894883e-02
  6.5251514e-02
 -1.4507566e-01
 -9.7253817e-01
  5.8995835e-02
  1.0415722e+00
  3.5927555e-01
 -5.1183838e-02
 -6.5674216e-02
  8.5878424e-02
  1.0665721e-01
  1.8264627e-01
  5.7452285e-01
  3.8499898e-01
 -2.8985357e-01
 -1.9167204e-01
  4.5035490e-01
 -3.6791688e-01
 -1.4356889e-01
 -2.0047095e-02
  5.5406070e-01
 -1.2994098e-02
 -1.7243019e-01
 -1.5978467e-01
  2.3616076e-02
 -1.8060796e-02
 -2.0792758e-01
 -5.4444782e-02
 -4.9423036e-01
 -4.4197343e-02
  3.3737909e-02
  5.1072919e-01
  5.6449063e-03
 -7.6538332e-02
  4.3396510e-02
  1.9956449e-02
  8.4537551e-02
  2.5518915e-01
  1.6961060e-02
 -1.8651599e-01
  3.7611324e-01
 -3.8744184e-01
 -5.6152630e-01
 -1.3405921e-01
 -2.5168878e-01
 -3.0691752e-01
 -1.1690608e-01
  4.7359076e-01
 -2.4718727e-01
  6.8832666e-01
 -1.1869337e-01
 -2.2195438e-01
 -9.5131350e-01
 -5.1122792e-02
  5.3451157e-01
 -1.2373443e+00
  6.5036720e-01
  6.7641854e-02
 -2.2124361e-01
 -1.0087762e+00
 -3.9021581e-01
 -4.0965086e-01
 -3.8363025e-01
  5.9802816e-03
 -1.6156232e-01
  8.7360814e-03
 -5.7537224e-02
 -5.5633754e-01
 -1.1591362e-02
 -2.4088065e-01
 -3.7313238e-01
 -1.2098359e-01
  3.8202927e-03
 -3.2507107e-01
 -2.8987372e-01
  5.3572828e-01
  4.9497882e-01
 -7.1744359e-01
 -1.4374612e-01
 -3.1741880e-02
 -6.5698397e-01
 -2.2526608e-01
  6.4206213e-01
 -3.4436884e-03
  1.0241581e-02
  4.1475061e-02
 -1.9359073e-01
 -3.2764561e-02
  3.9154923e-01
 -2.1382785e-01
 -2.0966741e-01
 -6.4286500e-02
  5.2695304e-01
  3.3779892e-01
 -2.6908968e-02
 -9.3717769e-02
 -1.1441930e-01
  3.4327336e-02
  2.7039033e-01
 -3.5132352e-01
 -1.6263792e-01
  3.1853101e-01
  1.9099450e-01
  1.8715240e-01
  1.1233645e-01
 -6.2997445e-02
 -3.8014373e-01
 -6.6370450e-02
 -2.1554291e-01
  1.2512970e-01
  9.8900229e-02
 -1.1019164e-01
 -4.2341414e-01
  5.9164500e-01
 -7.6577044e-01
 -6.4342606e-01
 -3.7018546e-01
  1.0663378e+00
  2.4369916e-01
 -2.9210526e-01
 -1.0612161e-01
  1.0254289e+00
  1.5316044e+00
  4.0042218e-02
  6.7180447e-02
 -4.3124342e-01
 -5.4328781e-01
  5.4223293e-01
  3.3307824e-01
 -3.7517411e-01
  3.2015184e-01
 -2.6774973e-01
  1.8436145e+00
 -4.0792149e-01
  1.7473936e-01
 -7.2542554e-01
 -5.9031892e-01
  4.7245714e-01
  5.5192888e-01
 -1.5629612e-01
  9.8812497e-01
 -6.6733956e-02
  4.4301584e-01
 -4.0452865e-01
 -3.2315820e-01
  2.8967506e-01
 -7.2529417e-01
 -2.7622083e-01
  1.9911528e-01
  1.4325796e+00
  1.0440904e-01
 -3.4072220e-01
  9.0688005e-02
 -1.2160436e-01
 -2.8787312e-01
  1.3140772e-01
 -3.3668244e-01
 -7.0924453e-02
  1.7814526e-01
  2.5602213e-01
  6.2090345e-02
 -2.5514793e-01
 -5.2572107e-01
  4.4086918e-01
  9.5380833e-03
 -3.4411529e-01
 -4.4933371e-02
 -1.3714309e-01
 -2.1228898e-01
 -5.5319363e-01
 -5.5583671e-02
 -7.2306412e-01
 -1.7769945e-01
 -1.7871235e-01
  2.4023125e-01
 -4.1399813e-01
  3.1038830e-01
 -9.1463914e-03
  2.7243379e-01
 -3.5904518e-01
 -3.1818381e-01
  5.2095133e-01
 -3.2037705e-01
  2.8719345e-02
  1.0027952e-01
 -8.9574046e-02
  4.7600061e-01
  1.5059873e-01
 -5.4421514e-01
  2.8583506e-01
 -5.1636589e-01
  7.0130265e-01
  1.6632119e-01
  3.2635507e-01
 -5.7024068e-01
 -6.5558147e-01
  6.9749251e-02
 -2.6707953e-01
  1.4155456e-01
  3.0661625e-01
  4.7561193e-01
  1.0679255e+00
  1.7165942e-01
  8.6822718e-01
  4.4528243e-01
  1.1271555e+00
  5.8069235e-01
 -4.1392529e-01
  1.9637133e-01
 -3.3130273e-01
 -7.0189160e-01
  3.7599280e-01
 -3.2954273e-01
  4.0537145e-02
  4.4372857e-02
  2.7211212e-02
 -1.8291394e-01
 -1.9405116e-01
  2.2201926e-01
 -8.3840102e-02
  4.4491002e-03
  1.0413432e+00
  4.0222648e-01
 -7.4229561e-02
 -7.9136550e-02
  1.1749738e-02
 -2.7264634e-01
  1.8794196e-02
 -3.6659619e-01
  6.4778827e-02
 -2.4339557e-01
 -1.0674529e-01
 -9.4638318e-01
  5.4070470e-03
  1.0909203e-01
  7.4070275e-02
  7.0126532e-03
 -7.6036289e-02
 -2.3367471e-01
 -5.9083951e-01
  5.6977934e-01
  9.1326788e-02
 -7.5373048e-01
  4.0269253e-01
  3.6348218e-01
 -7.0202500e-02
 -6.0286963e-01
 -3.3802718e-01
 -1.1469090e-01
  1.4329055e-01
  1.2217615e+00
  3.8707408e-01
 -2.3345120e-01
 -1.1586261e-04
  1.5044214e-01
  1.0694343e-01
  4.3292138e-01
  5.9111190e-01
 -5.2219695e-01
 -4.8922113e-01
  5.6959637e-02
 -8.0905177e-02
 -1.7806248e-01
  1.2548760e-01
 -1.0935178e+00
  1.0364927e+00
 -1.0049701e+00
  1.6334352e-01
  4.3669153e-02
  1.6173665e-01
  1.0373735e+00
  6.0881841e-01
 -1.4856364e-01
 -1.0630327e-01
  1.5537067e-01
 -2.8685177e-02
 -1.8883875e-01
  5.3656768e-02
  1.4576735e-01
 -1.2298667e-01
  1.0124675e+00
 -1.4059949e-01
 -9.1505451e-03
  6.2425283e-04
 -1.3218024e-01
  4.5660010e-01
 -9.4106533e-02
  1.2193262e-02
 -3.9083904e-01
  2.5014746e-01
 -9.2811726e-02
 -3.1338292e-01
  4.2804286e-01
  1.9253895e-01
 -5.3782910e-03
 -4.6144739e-01
 -1.5625161e-01
  4.7558445e-01
 -6.6953975e-01
 -2.7069105e-03
  1.8758188e-01
 -7.1582422e-02
  1.6793576e+00
  3.7839329e-01
 -2.2425617e-01
 -2.4960324e-01
 -5.5624846e-02
  7.4840538e-02
 -4.1241115e-01
 -1.9770403e-01
  2.6888877e-01
  2.3726658e-03
  1.0297388e+00
  2.7916354e-01
  8.2845457e-02
 -6.5101855e-03
 -1.0510243e-01
  6.6925567e-01
  5.5112380e-01
  2.8695317e-02
  4.6886966e-02
  1.6710876e-03
  1.0982002e-01
  4.7571930e-01
 -3.4002697e-01
  4.1722310e-01
  1.7203491e+00
  1.8219898e+00
  4.8492927e-02
  6.0018963e-01
 -9.9341661e-01
  4.2690060e-01
 -4.7222376e+00
  2.0658422e-01
 -1.0933241e+00
 -3.8329473e-01
  8.8680033e-03
  1.2139346e-02
  2.4784712e-01
  1.9285344e-01
 -8.1820264e-02
  1.2666943e-02
 -1.7593322e-02
  1.1599193e-01
 -7.6563321e-02
 -4.7157858e-02
 -1.1330692e-02
  3.6716366e-01
 -2.4908592e-01
 -1.4175193e-01
  3.5451680e-02
 -1.4671230e-01
  1.1946544e-01
 -5.5459809e-02
 -6.8454206e-02
  1.1959410e-01
  1.2703700e-01
 -3.1118160e-01
 -6.7484684e-02
 -4.2304197e-01
  6.5506881e-01
 -1.0114168e-01
  2.4325073e-01
 -1.3761806e-01
  1.6774753e-01
  8.8390373e-02
 -2.8470635e-01
 -5.5335999e-02
  3.0195564e-01
 -3.4140959e-01
  9.2588437e-01
 -3.9230645e-02
  5.3614599e-01
  9.1270410e-02
 -4.5623183e-03
 -1.0436174e-01
  1.0016737e-01
  3.8796362e-02
  2.4538316e-01
 -6.2977701e-02
 -2.7823639e-03
 -6.8172909e-02
 -1.6084701e-01
  3.3631688e-01
  4.4616544e-01
  5.8716867e-02
 -7.9220343e-01
  6.6974497e-01
  1.1835480e-01
 -3.7657145e-01
 -2.7098811e-01
 -4.9635759e-01
 -7.5827926e-01
 -4.4540817e-01
 -2.2167176e-01
 -1.5071164e-01
 -4.2216685e-02
  1.6115846e-01
  4.3679103e-01
 -2.3673393e-01
 -8.4115542e-02
  2.5040868e-01
 -3.4094909e-01
  4.3212259e-01
 -1.6923487e-02
  4.8042051e-03
  5.6727335e-02
 -7.8215905e-02
 -1.4837509e-01
  7.9823218e-02
  2.3679923e-02
 -9.1047905e-02
  8.6018518e-03
  1.1314965e-01
  8.5998468e-02
  3.9410826e-02
 -4.6756480e-02
 -2.5398770e-01
  5.4986554e-01
  7.5252581e-01
  1.1206363e+00
  1.7331520e-01
  7.4353570e-01
  1.5756595e-01
  9.4844842e-01
  1.8506689e+00
 -9.6289855e-01
  1.2069847e-02
  1.5473974e-01
  2.2658086e-01
  9.1259432e-01
  1.3164594e+00
 -8.7143935e-02
  7.5337291e-01
  9.9254632e-03
  2.1389630e-01
 -6.7025945e-02
 -1.4008987e-01
 -3.0303630e-01
 -6.7850006e-01
 -1.9214402e-01
 -3.1826174e-01
  1.4030504e-01
  9.0560627e-01
 -4.6192354e-01
  1.0819522e-01
  7.7009690e-01
  1.7879654e-01
  9.0641600e-01
  1.4912172e-01
  9.0426348e-02
  1.0719829e-01
 -8.6446673e-02
  6.8229371e-01
 -1.0897583e-01
 -1.0716680e-01
  2.2327689e-02
 -2.6777384e-01
 -4.8995964e-02
 -5.7992679e-01
 -1.2428151e-02
 -7.1507432e-02
  1.6327927e-01
  1.2550884e-01
 -1.0627000e+00
 -1.0546566e-01
 -5.4401177e-01
 -2.8155071e-01
 -6.6848129e-02
  6.3185275e-02
  4.5775411e-01
  1.8541928e-01
  3.6230814e-01
 -2.2132210e-01
  6.9802850e-02
 -1.7700589e-01
  3.9016783e-01
 -1.6396406e-01
 -2.2009100e-01
  6.8362758e-02
  2.9427007e-01
 -4.5762026e-01
 -1.1349446e-01
 -7.1154244e-02
 -2.5214871e-02
  3.5430717e-01
  2.4568306e-01
 -2.3133913e-02
 -8.7254733e-01
  1.4257026e-01
 -1.3390906e-01
  1.3368084e-01
 -2.9499117e-01
 -6.2416863e-01
 -1.4960237e-01
  2.1514302e-01
 -4.7095794e-02
  8.5450053e-02
  5.0996784e-02
 -2.6501727e-01
 -2.3407273e-01
  1.8594557e-01
 -4.3237376e-01
  4.7939581e-01
  7.5566985e-02
  5.7411384e-02
  1.0817115e-01
 -3.3799744e-01
 -1.7869584e-01
 -4.9890816e-02
  3.4167916e-01
 -1.4389846e-01
  6.2916674e-02
  1.6515468e-01
  5.1811957e-01
 -7.3337615e-01
  2.5527608e-01
 -7.3155528e-01
  1.5743069e-01
 -1.1293633e-01
  1.8738197e-01
  1.5104716e-02
  2.1044340e-02
 -1.2719932e-01
 -1.7181850e-03
 -3.6933371e-01
  2.4588932e-01
  1.5719327e-01
  7.8407183e-02
 -1.8602934e-01
 -1.7821281e-01
 -2.0395237e-01
  1.9135996e-04
  7.2142857e-01
  2.1753007e-01
  3.7236339e-01
 -1.9874457e-01
  5.4219699e-01
 -1.8390764e-01
  5.1772840e-02
  2.0099901e-01
 -1.3973670e-01
  6.0235012e-01
  1.4511046e+00
  2.2714950e-01
  1.2492419e+00
  7.0639318e-01
 -6.1854895e-02
 -4.2919375e-02
 -8.4664339e-01
 -3.2491878e-01
 -6.7824088e-02
  1.9207795e-01
  4.3881792e-01
  5.3241348e-01
  6.0761225e-01
  6.3823261e-03
  5.5155349e-01
  2.7811944e-01
  4.0985757e-01
  1.7572209e-01
  5.9196752e-01
 -1.5874003e-01
  8.2593900e-01
 -6.1061502e-01
  2.4933819e-02
  1.5192601e-01
  3.1661004e-01
 -7.3658220e-02
  5.7502374e-02
  4.8922561e-02
 -4.7257805e-01
 -2.7267739e-01
  6.7333186e-01
  1.6085678e-01
  2.3845719e-01
 -2.7000758e-01
  1.6159239e-01
  5.6351919e-02
  8.4132485e-02
 -2.0045474e-01
  1.4268848e-01
  2.3557873e-02
 -8.1146747e-01
 -1.6666533e-01
 -4.1654363e-02
  3.4767362e-01
 -9.4085880e-02
 -1.7421608e-01
 -5.6690395e-02
  3.3696923e-01
  7.8937463e-02
  4.8369352e-02
 -4.7551540e-01
 -4.3944802e-02
  3.8172770e-02
 -1.1957666e-01
 -7.2887078e-02
 -1.2457348e-02
  2.7036646e-01
 -7.8761026e-02
 -3.6353466e-01
 -5.9135601e-02
  4.2047814e-01
  7.1135223e-02
 -4.1618096e-03
 -8.4049247e-02
  1.9347027e-01
 -3.9436102e-02
 -9.9187505e-01
 -5.2562815e-01
  6.2266227e-02
 -3.4627661e-01
  1.2655707e-01
  2.3831762e-01
 -4.8587272e-01
 -6.1253077e-01
  2.6619264e-01
  5.3306872e-01
 -2.2472244e-02
  2.1213728e-01
 -5.2701142e-02
 -1.1372922e-02
  5.6290311e-01
 -5.8480259e-03
 -2.6189792e-01
  1.9536210e-02
 -4.6987715e-01
 -5.4669552e-02
 -7.3961896e-01
  7.4381518e-01
 -1.7068343e-01
  2.1678610e-02
  4.2668262e-01
 -8.5746143e-03
 -4.6509811e-01
  4.4905019e-01
 -1.2479211e+00
  2.5977266e-01
  1.3291423e+00
  3.4434798e-01
 -2.7813511e-02
  8.4266692e-02
  3.9032298e-01
 -1.6287541e-01
 -2.9965919e-02
 -2.9411152e-01
 -2.7669066e-01
 -2.8580841e-01
  1.9204436e-01
  3.2771647e-01
  4.1242499e-02
 -7.2204083e-02
  3.7512869e-02
 -1.0950906e-01
  2.0450085e-01
  2.5101593e-01
 -1.9781159e-01
 -3.3971984e-02
  6.9184238e-01
 -1.0628209e-01
 -3.5602514e-02
 -2.2402917e-01
 -3.9475527e-01
  1.5318853e-01
  7.1983910e-01
 -2.0295627e-02
  3.8310632e-01
  1.2498065e-01
 -4.5919186e-01
  1.8876126e-01
  1.5073191e-01
 -2.5271046e-01
 -1.0132749e-01
 -8.9515708e-02
  3.0360731e-01
 -3.7541088e-01
  3.2718387e-02
  1.9542763e-01
 -5.1695693e-02
  2.2963288e-03
 -8.3593071e-02
  1.9573410e-01
 -4.7042772e-01
  8.4374174e-02
  1.5118191e+00
 -1.4547087e-01
  6.2469381e-01
  1.3200936e-01
 -4.2374131e-01
 -2.9436743e-02
 -1.1470604e-01
 -1.7807074e-01
 -7.9919320e-01
 -3.9047506e-01
  6.8926626e-01
 -3.5631891e-02
  8.7405366e-01
 -1.0292114e+00
 -3.4582764e-01
  2.0414820e-02
  5.5540656e-03
  2.4733571e-03
  4.3245003e-02
 -1.4956506e-02
  1.3325516e+00
  2.3483075e-02
 -1.4889209e-02
  6.6109546e-02
  2.1322012e-01
  4.7564052e-02
 -2.3824258e-02
 -9.4433621e-02
  1.0784361e-01
 -6.2005494e-02
 -1.1911663e-02
  1.8035600e-01
 -1.5017869e-02
  2.1178970e-01
 -6.2410906e-02
  2.0665333e-02
 -4.0718626e-02
  6.0222857e-02
 -3.5088903e-01
 -1.6588015e-02
 -2.2156616e-01
 -5.8339274e-01
  5.7936281e-02
 -1.2722361e-01
  2.5723232e-02
  1.0716227e-01
  1.5767924e-01
 -8.9788038e-01
 -2.0039992e-01
  2.4578869e-01
 -5.4012680e-01
 -1.9041753e-01
  1.3560510e-01
  3.6254652e-02
 -1.0277497e+00
  2.3229145e-01
  1.0594268e-01
  2.7928653e-01
 -6.8510614e-02
  3.6477467e-01
 -1.0057617e+00
  3.2256463e-01
 -2.8118113e-01
 -1.3682690e-01
  1.6078441e-01
 -1.3622442e-01
  9.2671144e-01
  4.8764899e-01
 -3.9631253e-01
  2.2043550e-02
  1.1952168e-01
 -1.2089828e-01
  9.9177063e-02
 -3.4837327e-03
  7.6997720e-02
  4.9604781e-02
  1.3380924e+00
 -8.4309220e-02
  1.0948825e-01
  6.2943107e-01
  3.1175250e-01
 -5.0805643e-02
  3.6968321e-01
 -3.7851073e-02
  8.5653933e-03
 -1.1121823e-01
  4.2383397e-01
 -4.5865667e-03
  2.9873526e-01
  6.5452591e-02
 -9.4602592e-02
  7.5997144e-02
  1.7287171e-01
 -7.0579894e-02
 -2.7862623e-01
 -1.9854131e-01
  2.1158746e-01
 -1.9495338e-01
 -9.2910148e-02
  7.5515717e-01
  8.2181245e-02
 -1.1086649e-01
 -7.3245609e-01
 -2.1589270e-01
  1.8427353e-01
 -4.1167685e-01
  2.5799680e-01
  8.7872423e-02
 -1.0359509e-01
  3.4966338e-01
 -7.9902846e-01
  1.1675579e-02
  1.7153935e-01
 -9.5592864e-02
  5.3884351e-01
  3.1812352e-01
  6.3730764e-01
 -6.2127758e-02
  2.6382783e-01
 -7.2082423e-02
  1.4569557e-01
 -4.6312144e-01
 -3.4945007e-02
 -4.3009061e-01
  3.7406328e-01
 -1.2700851e+00
 -2.5919217e-01
  3.8002428e-02
 -2.8825083e-01
  3.7559167e-01
 -5.8086924e-02
  1.2509345e-01
 -2.1095827e-02
 -4.1230969e-02
  7.1831059e-01
  8.7415941e-02
 -5.1346388e-02
  1.2106414e+00
  3.1485084e-01
 -2.8154364e-01
 -4.5715767e-01
 -2.5181222e-01
 -1.3681059e-01
  1.6892383e-02
  2.0973961e-01
  2.2322999e-02
  6.2385577e-01
 -1.8155798e-01
 -2.1309789e-01
 -2.5561459e-02
 -1.8419582e-02
  6.2129810e-02
  2.0395027e-01
 -1.1537991e-01
 -2.6642087e-01
  8.4689856e-02
 -1.1568724e-01
 -4.5533508e-01
  4.9417306e-02
 -1.8605474e-01
 -1.3697014e+00
  6.8378299e-01
  1.4511913e-01
 -1.9772397e-01
 -2.4030836e-01
  6.9818467e-01
 -4.8095047e-01
  3.8720042e-01
 -5.6189811e-01
 -2.0102046e+00
 -2.2084121e-02
  3.6280808e-01
  3.9707437e-02
 -6.1012763e-01
  1.5487468e-01
 -1.0230692e-01
  2.2514811e-01
  6.7339385e-01
  1.2276893e-01
  3.2655540e-01
 -1.0868161e+00
 -6.3121450e-01
  1.3377039e-01
 -1.1232109e-01
  9.1094255e-01
 -2.8282228e-01
 -1.1885171e+00
 -1.7868949e-01
  4.6193904e-01
 -3.5199898e-01
  1.9056612e-01
  1.0899521e-01
  1.2476508e-01
 -8.4722579e-01
 -8.6118400e-01
 -6.6942841e-02
  1.3094504e-01
 -4.6641804e-02
  1.6768277e-01
 -3.5393906e-01
  1.1109589e-01
  1.3900462e-02
  1.8863995e-01
  1.3670208e-01
 -1.7952789e-01
  1.4024641e-02
  1.9575900e-01
 -3.2025922e-02
  1.9622807e-01
  1.3978980e-03
  1.0175175e-03
 -2.9527652e-03
  1.1927681e-02
 -8.7307539e-04
  1.6786559e-02
 -2.6955835e-03
 -3.3170457e-03
  4.5391386e-03
 -1.4865652e-02
  8.4246980e-04
  5.7054095e-02
 -4.1179708e-03
 -1.1859845e-01
 -1.8064947e-01
 -5.9289950e-01
 -7.9285301e-02
 -1.2208456e-01
 -1.1417238e-01
 -1.0638194e-01
  5.7346106e-01
  1.7157967e-01
 -5.4763597e-02
 -1.5650254e-02
 -1.9139570e-01
 -3.4985635e-01
 -3.9426252e-02
 -1.0160505e-01
 -7.8793406e-02
  1.9458301e-01
  1.3116881e-01
  3.6134027e-02
 -8.2207106e-02
  2.2153022e-02
 -1.2156452e-01
 -7.2130084e-02
 -1.8330371e-01
 -4.1849542e-01
  2.1470962e-01
  1.9584554e-01
  3.2086429e-01
  9.9537522e-02
 -4.3651047e-01
 -2.5722548e-01
 -2.2724147e-03
  1.2671641e-01
  1.2466485e-01
 -9.5513064e-01
 -1.9376406e-01
  3.5367185e-01
  9.7905897e-02
  6.8613142e-02
 -3.1652236e-03
 -2.1228872e-02
  3.1299140e-02
  1.2894773e-03
  7.5673306e-04
  1.3159843e-03
  1.8455544e-02
 -3.4541462e-02
 -1.5133804e-02
 -4.5549330e-01
 -9.1381408e-02
  4.3406092e-02
 -3.1749982e-01
 -6.8756603e-03
  6.8189809e-03
 -7.5626217e-02
 -4.4965965e-01
  9.6001714e-02
 -3.5497430e-01
  2.0966459e-02
 -4.8078489e-02
  3.3479379e-03
  5.3162660e-02
 -9.7329579e-02
  3.0602634e-02
  7.8624174e-02
  1.0817412e-01
  5.1603105e-02
 -1.1572530e-01
 -3.0706498e-01
  2.0371097e-01
 -1.4167823e-01
 -1.0347739e-01
 -2.8939087e-02
 -1.2868525e-02
  2.1271421e-02
  6.5309411e-01
  7.5933382e-02
 -5.7458907e-01
  7.8477643e-02
 -1.1882909e-02
  4.6638846e-02
  5.5544871e-01
  2.7962873e-02
  7.0452911e-01
 -2.9819182e-01
 -4.4421963e-03
  1.0454667e+00
 -2.0364319e-01
 -2.9110673e-01
 -9.5865476e-01
 -6.3693273e-01
  2.1955124e-01
  1.1219560e-01
  3.6005538e-02
 -9.9831760e-02
  1.4147641e-01
  9.1966987e-02
  5.8223629e-01
  4.0350971e-01
  3.5899900e-02
  1.8675759e-01
 -1.5672432e-01
  2.9108714e-02
 -2.8175011e-01
 -3.9602920e-02
 -9.1068231e-02
 -1.4467773e-01
 -2.4456830e-01
 -3.0352950e-01
  1.8692350e-01
 -1.4706144e-02
  2.8910775e-02
  1.1295205e-01
 -2.0523381e-01
  1.2021582e-01
 -6.8741806e-02
  5.9558194e-02
 -1.0562617e-01
  5.4399032e-02
 -4.4690210e-01
 -8.5030389e-01
 -6.8910964e-02
  1.3224678e-01
 -6.3714838e-01
 -9.5144967e-03
 -2.2290638e-01
 -1.0635503e-01
 -2.4553348e-01
 -6.8918544e-01
 -7.4223179e-01
 -3.5347536e-01
  1.6240740e-01
 -5.9658068e-01
 -1.2128922e-01
 -3.6304516e-01
  1.4607370e-01
 -8.0524318e-02
 -2.0789394e-01
 -2.2102278e-05
  2.9627922e-01
 -1.8375932e-01
  1.7770277e-02
  5.1818274e-02
  4.8490215e-02
 -6.8476069e-01
  2.2306924e-01
 -1.2669024e-01
  5.3626392e-02
  2.2422212e-01
  1.1156782e+00
  1.5184414e-04
  4.1336027e-01
  1.4487341e-02
  4.8149499e-01
  6.1716431e-01
 -3.2875270e-02
  4.2343318e-02
  6.8631327e-01
  2.5776026e-01
 -2.7663866e-01
  2.3969774e-01
  2.9934001e-01
 -1.8863541e-01
  2.1724725e-01
  1.2482872e-01
 -1.3846353e-01
 -2.7497482e-01
 -9.5971696e-02
 -2.7985579e-01
  6.7827947e-02
  1.8815476e-02
 -3.7982620e-02
  2.0447536e-01
 -3.5867530e-01
  9.2678905e-02
 -1.0921196e-02
  1.7633562e-01
 -1.2143370e-01
 -8.6451165e-02
  2.4879616e-01
  4.2324567e-01
 -7.5092451e-03
 -4.3612029e-02
 -2.2851424e-01
  6.1537921e-01
 -7.8846741e-01
 -4.2602775e-01
  3.5288051e-01
  1.3361268e+00
  5.0681781e-02
 -2.4888203e-01
  4.9225181e-01
 -1.1275475e-01
  9.8529339e-02
  1.6815436e-01
 -7.5639385e-01
 -1.5266310e-01
  6.7359120e-02
  2.2803235e-01
  7.6053753e-02
  3.8153630e-02
 -7.8703696e-01
  7.5209476e-02
 -2.2622393e-01
 -4.9483415e-01
  2.3745133e-01
 -8.2405008e-02
  3.3461574e-01
  1.7943992e-01
 -5.7519808e-02
  5.1817024e-01
  2.3557059e-01
 -3.8171239e-02
  3.0338812e-01
 -8.3313048e-01
 -2.7466375e-01
 -1.1583768e+00
  2.6681426e-01
 -1.1752809e-01
 -7.8957701e-01
 -1.3918045e+00
 -5.9829708e-02
  4.9512189e-02
 -2.5585085e-02
  6.7091472e-02
  1.1338814e+00
 -8.8621736e-02
 -7.3200293e-02
 -3.8168368e-01
  1.1962110e-01
 -1.2541457e-01
  1.1654199e-02
  5.8079217e-02
  1.3681135e-01
 -1.7440256e-01
 -4.1483295e-01
 -1.0592786e-01
  1.9425656e-01
 -4.7360536e-01
  2.4470268e-01
 -3.6524785e-01
  4.2706963e-01
  1.0159381e-01
 -1.5890926e-01
  2.4664659e-02
 -3.0657073e-02
 -1.1650403e-01
 -3.9207369e-02
  7.1235076e-02
 -2.9605708e-01
 -1.3056058e-01
  1.6839880e-01
  1.2792559e-01
  4.7778878e-02
 -7.8436032e-02
  1.3198875e-01
 -5.5982918e-01
 -6.0133659e-03
 -1.2726035e-02
  1.3878566e-01
  1.7944467e-01
  1.6200255e-01
 -7.7444706e-03
  5.5080909e-02
  2.0314252e-01
 -3.7062427e-03
 -2.3593698e-01
  1.2584472e-01
  1.2539117e-01
 -4.6285581e-02
  3.6543104e-01
 -3.4517828e-01
 -2.0687035e-01
  1.9905251e-01
  1.6508816e-01
  3.1924918e-01
 -8.2611167e-01
  5.7834625e-02
  1.5783614e-01
 -2.5448918e-01
  1.5645219e-01
 -1.0233604e+00
 -9.7545750e-02
 -8.0175027e-02
  1.7300251e-01
 -1.7793415e-01
 -2.9059693e-01
  3.7077460e-02
 -4.7819400e-01
  4.8118014e-02
  1.0753200e-01
  3.1571975e-01
  1.5846545e-02
  1.3011661e-01
 -1.7960969e-01
  4.8064739e-03
 -1.7803174e-01
 -2.7092928e-01
  1.0365067e-01
 -3.2063520e-01
 -6.3658386e-02
 -1.3959725e-01
 -4.2851912e-03
  3.2612833e-01
 -9.1536783e-02
 -8.1436321e-02
  3.0583254e-01
  1.7624722e-01
  1.4642188e-01
 -1.5708350e-01
 -1.4746763e-01
  7.6031733e-01
 -1.7035040e-01
  6.3947785e-01
 -1.6874905e-01
  4.8819959e-02
  1.2587655e-01
  1.8863745e-02
 -7.5379536e-02
  3.7713480e-01
  5.3148050e-02
  9.1742612e-02
  2.7831480e-01
 -1.3183528e-02
 -1.9179513e-01
  1.3537779e-01
  1.4417695e-01
 -1.5189651e-01
 -1.0205378e-01
 -2.9468615e-02
 -6.6550940e-01
 -2.3834163e-02
  4.8435861e-01
  1.7400195e-01
 -1.5071428e-01
  5.5542880e-01
 -5.7674896e-02
  2.3132635e-02
 -2.4608387e-01
  1.3278581e+00
  6.6447072e-02
  2.9376015e-01
 -3.7836871e-01
 -2.5329721e-01
  3.0548286e-01
  5.9102535e-01
  3.2441732e-02
 -8.7680578e-02
 -6.8938680e-02
 -1.0435149e-01
  2.6931119e-01
 -1.6829143e-01
  2.3577981e-02
  1.5064470e-02
  4.6016090e-02
  3.7890944e-01
  6.6062880e-01
 -2.5826558e-01
  8.8278055e-02
 -1.1972246e-01
  9.6052647e-01
  7.6536253e-02
 -3.5750800e-01
  4.7593138e-01
 -7.9454765e-02
  1.6369060e-01
 -1.1423816e-01
  9.3151636e-02
 -3.7512574e-03
  4.7833383e-02
  9.4128862e-02
  8.2018919e-02
 -8.1790960e-01
  5.2391338e-01
  7.5026238e-01
  4.2881063e-01
  1.0727960e-01
 -1.4260592e-01
 -9.0372825e-01
  1.8285258e-01
  7.4743211e-02
 -1.0214851e-02
 -2.9140281e-02
  2.2171988e-01
  3.8378286e-01
 -5.4608684e-02
  5.7452124e-02
  2.1359675e-01
  1.2370647e-01
 -3.3581042e-01
 -5.9095949e-01
 -1.7304717e+00
  1.0216966e-01
 -1.9102617e-03
 -1.9346554e+00
 -2.6301569e-01
 -1.8498493e+00
 -7.8651987e-02
 -2.3775072e-01
  2.1672384e-01
  3.7010815e-02
  1.3757016e-01
 -6.5395635e-01
 -3.0345935e-02
  8.2114315e-01
 -8.2898792e-03
 -3.7567228e-01
  3.3679599e-01
 -1.3833736e-01
 -6.1556667e-02
 -2.0989656e-01
 -1.9272551e-01
 -9.6194051e-02
 -7.7925533e-02
 -2.6646042e-01
  2.0182265e-01
 -1.4752834e-01
 -3.2915989e-01
  1.8782368e-02
  9.4061077e-02
 -3.7114316e-01
  4.9270827e-02
 -3.1335777e-01
 -5.4710474e-02
 -2.0717312e-01
 -1.6489465e-02
  1.0311497e-01
 -2.4953763e-01
  3.7658415e-03
 -5.0877225e-01
  5.6242093e-02
 -9.1294624e-02
 -2.5260806e-01
 -1.6160814e-01
  2.4869436e-01
  8.5355952e-02
 -2.2878638e-01
  2.1432747e-01
  4.4401125e-03
  3.9663813e-01
 -4.2575136e-01
  3.2359478e-01
  5.0049674e-02
  3.7281847e-01
  4.7690728e-01
 -1.4608277e-01
 -1.2772990e-02
  3.5259935e-01
 -2.4505898e-01
  3.8206246e-01
  9.8736584e-02
 -1.9382907e-02
  7.5655234e-01
  7.9586029e-01
 -3.4740310e-02
 -1.6540025e-01
  4.2899379e-01
 -1.0255658e-01
  3.8064241e-01
  3.8165170e-01
  6.4975864e-01
 -7.6031101e-01
 -4.4364220e-01
 -4.8584929e-01
 -8.3318222e-01
 -1.0690599e-01
  4.8895851e-02
  1.3077916e-01
  1.0139783e-01
  5.7394511e-01
  7.6208860e-02
  8.0479138e-02
 -1.4345345e-01
 -8.6182043e-02
 -2.6756090e-01
 -2.4679911e-01
 -1.6021360e-01
  1.5474868e-01
 -9.2101358e-02
 -5.6332922e-01
  1.9165050e-02
 -2.2713376e-02
 -3.2429919e-01
  2.8469837e-01
 -2.8379029e-01
 -1.2249941e-01
 -4.7295630e-01
 -1.7873472e-02
 -1.3175733e-01
 -3.2969230e-01
  9.8978138e-01
  4.6225065e-01
  5.3092796e-01
  5.9881583e-02
 -2.0063679e-01
  3.4744915e-02
 -1.9895825e-01
  8.2281455e-02
 -1.1635154e-02
 -2.4151605e-01
  1.8299279e-01
 -1.1887754e-01
 -1.2110855e-01
  7.1761942e-01
  1.8191217e-01
  1.2986654e-01
  1.3718803e-01
  7.3084563e-01
  2.1603672e-02
  4.7026870e-01
  1.7602058e-01
 -6.0177710e-02
 -3.4702636e-02
  5.2737272e-01
  8.0911145e-02
  1.6205697e-01
  1.1457890e-01
  1.2337150e-01
  8.1860803e-02
  3.2079592e-01
  1.0119015e-01
  1.2671378e-01
  2.0671321e-01
  3.9826673e-02
 -3.0283740e-01
  1.5783060e-01
 -3.5204124e-01
 -8.2619324e-02
 -4.4680402e-01
 -9.8828122e-02
  2.2475219e-01
 -9.4316691e-02
  2.7165318e-01
  2.3748931e-02
 -2.8705698e-01
  4.6812586e-02
 -6.4301133e-02
  9.6891731e-02
 -4.3170560e-02
  1.5106857e-01
 -1.1241437e-01
  4.1551709e-02
  2.1493599e-01
  7.4206859e-01
 -3.3460173e-01
  3.0331412e-02
 -5.8083445e-02
 -1.9463408e-01
  4.7436640e-02
 -5.1147079e-01
 -2.4943796e-01
 -6.3033747e-03
  1.5338288e-01
  5.9425198e-02
  2.2338033e-01
 -9.7204447e-02
  1.4566179e-01
  2.5749698e-01
  8.4035778e-01
 -5.7695347e-01
  2.7826044e-01
 -1.4783840e-01
  6.6330099e-01
  1.5069250e-02
  8.5547850e-02
 -1.6029873e-01
  8.4005028e-02
 -1.5418068e+00
  1.4256774e-02
 -2.8739806e-02
 -3.3175282e-02
 -4.1270414e-01
 -6.8339735e-01
 -2.3550366e-01
 -2.3503402e-02
 -4.9440403e-02
 -1.7209804e+00
  2.3877840e-01
 -1.3010885e-01
  8.0156013e-02
  7.9468898e-02
 -2.8613144e-01
  3.3210568e-02
 -2.8529171e-02
 -1.2406656e-01
  4.0024367e-01
 -2.4605866e-01
  3.3953935e-01
 -2.3766011e-01
  1.0725253e-01
  1.2491170e-01
  1.1698654e-01
 -6.0046428e-01
  1.6805604e-01
 -3.3871572e-02
 -4.2942174e-02
 -2.2401178e-02
  3.3161666e-02
 -3.1181854e-01
  3.0129761e-01
 -6.5831296e-02
  1.5906230e-02
  5.0923306e-02
 -5.5119231e-02
  2.8662810e-01
  5.5956367e-02
 -1.3100035e-01
  1.2214503e-01
 -2.0068662e-01
  2.2407968e-01
  3.8709395e-02
  2.3861276e-01
 -1.2352985e-01
  1.4259875e-01
 -8.1253342e-02
 -9.1871265e-03
 -3.0102086e-01
 -1.7133281e-02
  6.2014329e-01
 -2.2794679e-01
 -2.2766694e-01
  2.2781773e-03
 -5.5429685e-01
 -4.8530290e-01
 -6.2090504e-01
  8.2354344e-02
 -2.0991002e-01
  6.0923713e-01
 -3.3292842e-01
  2.2059217e-01
 -7.7092022e-02
  3.7020847e-01
 -5.1024449e-01
  9.3541928e-03
 -7.2642195e-01
  1.1111595e-01
  6.2487847e-01
  1.0175648e-01
  7.2562218e-02
 -7.6974940e-01
  1.5255430e-01
  1.9580433e-02
  6.5915219e-02
  1.2044605e-01
 -2.1021491e-01
  2.8707695e-01
  1.6964927e-01
 -2.6363707e+00
  1.0707039e-01
 -3.6352327e-01
 -1.7911790e-01
 -5.1256835e-02
 -3.1785145e-02
  1.0873127e-01
 -1.0735238e-01
 -2.3546398e-01
 -1.7338276e-01
 -1.0828743e-01
  2.2011960e-01
 -3.2594255e-01
 -1.6732328e-01
  1.2278212e-02
  2.7914780e-01
 -2.6391807e-01
  3.9341141e-02
  3.0506894e-01
 -5.4900187e-01
 -1.7650807e-01
 -1.2709780e-01
  5.9031602e-02
 -2.6981470e-01
 -4.5730945e-01
 -1.3300192e-01
  9.6575099e-01
  3.8311759e-01
  3.6659265e-01
  7.1716416e-01
  5.9666789e-01
 -6.9647682e-01
 -5.5062860e-01
 -3.0392095e-01
  2.5023863e-01
  1.7372330e-01
 -1.2171375e-01
  1.1617439e-01
  2.2682403e-01
  9.2269772e-01
 -6.3324049e-02
  5.2036881e-02
 -4.6238940e-02
 -9.8602366e-01
  1.0181754e-01
 -2.1574740e-01
  2.2885133e-02
 -1.1886626e-01
 -2.4488795e-01
  1.1786314e+00
 -7.0426226e-02
 -3.5330224e-01
  5.4148334e-01
 -4.2789227e-01
  1.2445594e+00
  5.6096065e-01
  5.6632556e-02
 -3.4937385e-01
  5.0636516e-03
  5.0157923e-01
  2.3903413e-01
 -1.4495891e-01
 -5.2025163e-01
 -2.6878080e-01
  3.0406201e-01
 -1.3261577e-01
  1.3887550e-02
 -1.1800984e-01
  2.6324490e-02
 -3.3564907e-01
 -1.5076046e-01
  3.4355730e-01
  4.2280030e-01
  8.9216240e-02
 -1.4576073e-01
  3.4245932e-01
 -2.4333771e-02
  5.8885206e-02
  1.2527916e-01
  3.7946615e-01
 -3.7200239e-02
  1.5338270e-01
  9.1893829e-02
 -1.1844649e-03
 -1.0757993e-01
 -2.9600552e-01
 -8.8164085e-01
  1.6770571e+00
  1.8872771e-01
 -5.9228901e-02
 -9.4038501e-02
  5.7655877e-01
  7.5938487e-01
 -2.9525235e-02
 -2.0037849e-01
  1.0518978e-01
 -6.1786110e-03
 -5.3742774e-02
 -1.7576978e-01
 -9.7857110e-02
 -1.0439459e-02
 -1.0867640e-01
 -3.6588348e-02
 -3.1984615e-01
  3.7945279e-01
 -3.6623591e-01
  5.1724958e-01
 -9.9835135e-03
  3.3677846e-01
 -3.3069476e-02
 -4.8632469e-02
  2.6697339e-03
 -1.7113930e-02
 -2.2730736e-01
 -1.1711777e+00
 -1.3475206e-01
  1.9099614e-01
 -3.2195196e-02
  4.0075538e-01
  9.6160394e-01
  2.6415920e-01
  1.8046016e+00
 -2.2647362e-02
  3.8339058e-01
 -7.2503400e-01
 -2.8446600e-01
  7.2232860e-01
 -1.6438621e-01
  3.9793417e-01
  2.3573667e-01
  8.8212565e-03
  6.5925285e-02
 -1.0625883e-01
 -4.5166039e-01
  5.4877722e-01
 -3.1074065e-01
  3.8305543e-02
  5.9000537e-02
  4.1093372e-02
 -2.0511727e-01
 -4.9979627e-02
  3.6890721e-01
 -3.4517908e-01
 -2.8573643e-02
 -1.2948452e+00
 -6.6411510e-02
  5.2831000e-01
 -1.9495865e-02
  2.3655589e-01
  1.2871084e-01
  6.9312036e-01
  2.6036325e-01
 -1.4483280e-02
 -3.3198971e-01
 -6.2447423e-01
  2.7750048e-01
  1.1319291e-01
 -6.0378980e-02
 -3.3669472e-01
  8.0056906e-02
  1.2132810e-01
  2.1246043e-01
 -2.4024297e-01
 -5.3624249e-01
  8.5550624e-01
  6.9932759e-02
  4.2242827e-03
 -1.2028875e-01
 -1.5179609e-01
  4.4884348e-01
  3.6114141e-01
  3.3799235e-02
 -2.8056771e-01
  1.4969522e-01
 -3.3849230e-01
  4.7038458e-02
 -1.2155606e+00
 -2.0983027e-01
  1.0159567e-01
 -2.6270029e-01
  1.1967633e+00
 -7.2739220e-01
 -1.4651778e-01
  3.0548101e-02
 -5.8185047e-01
 -3.1389716e-01
  1.6786692e-01
  2.6340416e-01
 -1.9547665e-01
 -2.2870235e-01
 -3.7765393e-01
  2.4356821e-01
 -1.3804761e-01
 -3.8150877e-01
  1.8326539e-01
 -8.9923546e-02
 -7.8230299e-02
 -1.2353291e-01
 -2.4092844e-01
  4.7900084e-01
 -1.2967117e-01
  2.2493917e-01
  1.2502244e-01
  8.7947541e-01
  3.8972199e-01
  8.2134373e-02
  1.6733858e-01
  1.3727615e-02
  6.4191714e-02
  3.7348825e-01
  1.0531070e-01
 -2.4785531e-01
  1.4721352e-01
  7.3354393e-02
 -3.2490709e-01
  2.8836256e-01
 -1.5314120e-01
  3.5953739e-01
 -4.4651996e-02
 -6.8273127e-01
 -1.7638373e-01
 -3.3979762e-01
  2.9066929e-01
  2.3051846e-01
  3.9574139e-02
 -3.8723394e-01
 -1.5459153e-01
  1.5054376e-01
 -4.4533488e-01
 -3.2544512e-02
  5.8017798e-02
 -3.2355878e-01
  2.3647140e-01
  9.3508199e-02
  2.3087014e-01
 -5.2389586e-01
  7.7325940e-02
  1.0890418e-01
  2.2771554e-02
  1.1545508e-02
 -1.5871853e-02
 -5.1645398e-01
 -8.6932741e-02
 -1.4362226e-01
  3.1251186e-03
  4.8701528e-02
 -9.0458505e-02
  3.1783651e-03
 -1.3581768e-01
  9.4166711e-02
  6.4332433e-02
  3.0565685e-01
  1.9509839e-01
  4.8103496e-01
 -8.4293792e-03
  1.3659722e-01
 -3.4924093e-01
 -8.1699550e-02
  5.8016366e-01
  1.7182052e-02
 -1.1911967e-01
  1.5320180e-01
  1.0487521e-01
 -3.2627404e-02
  1.5730430e-01
  1.5210842e-01
 -1.4617853e-02
 -2.4454758e-01
 -1.9224112e-01
 -1.0786287e-01
 -3.0878121e-01
 -9.9297110e-03
 -5.6158447e-01
 -1.1788833e-02
 -2.8356522e-01
 -1.2351935e-01
  3.8925937e-01
 -4.1947237e-01
 -4.5210335e-01
  1.8568325e-01
 -9.7410448e-02
 -1.6940542e-01
  1.8354361e-01
  9.0464270e-01
 -7.4242644e-02
 -4.5083031e-02
  4.7123894e-02
 -1.2850155e-01
 -1.4779763e-01
 -6.3091822e-02
 -1.1391241e-01
 -2.7578345e-02
  9.7956650e-02
  2.5070760e-01
  2.1635434e-01
  4.5547854e-02
  5.5866402e-01
  3.9828399e-01
  6.9153279e-01
  5.0797117e-01
 -3.9341217e-01
  2.8329257e-02
 -4.7046375e-01
 -9.3020514e-02
 -3.9643161e-02
 -6.1179150e-02
  1.1380130e-01
 -2.2966719e-01
  2.8473961e-01
 -6.9384910e-02
 -1.5904073e-02
  8.4387079e-02
  8.6705476e-02
 -3.0586090e-02
  1.2082167e-01
  7.9668768e-02
  1.8124989e-01
 -2.1511370e-02
  2.4937320e-01
 -4.9537256e-01
 -9.4540440e-02
 -1.1500233e-01
  3.3774203e-01
  5.7503170e-01
 -5.4695147e-01
  1.3659908e-01
 -3.0146864e-01
  3.8239688e-01
  2.5997607e-02
  3.9493605e-01
 -9.7512715e-02
 -6.4309484e-01
 -5.0218159e-01
  1.6569835e-01
  6.4108247e-01
 -4.3545604e-01
  7.2066671e-01
 -2.8180515e-02
 -2.3085104e-01
 -4.8414680e-01
  6.1681442e-02
  4.6328556e-02
 -2.4048273e-01
 -3.8688508e-01
  7.3954815e-01
  9.3831968e-01
  2.4255046e-01
  1.8816872e-01
 -1.1068045e+00
  7.1426012e-02
 -2.1951434e-01
  1.7142253e-01
  1.2763492e-02
 -3.3721575e-01
 -2.6539680e-01
  3.1269390e-02
 -2.2961015e-01
 -1.0165118e+00
  4.3619654e-01
 -1.0486921e+00
 -3.8517138e-01
 -1.2185292e+00
  2.5819650e-01
  8.3368450e-01
  6.0058272e-01
 -6.5365724e-02
  8.0752119e-02
  3.0625084e-02
 -5.4774925e-02
 -3.0369848e-01
 -2.9665861e-01
  6.6012494e-02
 -1.6740742e-01
  1.0730311e-01
  8.1537807e-01
  6.6416842e-01
 -5.5945888e-03
 -2.5120268e-02
  9.8225847e-03
  1.7600581e-01
  1.2313491e-02
  1.1142712e-01
 -3.5328038e-02
 -3.0180318e-02
 -5.0457978e-01
 -1.9224789e-02
 -6.1583692e-01
  2.1381064e-01
  1.6292933e-01
 -6.0008699e-01
 -4.1740024e-01
 -8.0658540e-02
 -1.4135377e-01
 -1.0113825e-01
  2.6241311e-01
  8.5905023e-02
  1.8711013e-01
  1.8050475e-02
  5.1478612e-01
  3.0822369e-01
 -2.7432960e-01
 -3.4833014e-02
 -2.0632069e-01
  9.0773022e-01
 -8.0450866e-03
  2.9748407e-01
 -5.6885427e-01
  5.8804695e-02
  1.6541220e-01
 -1.6900596e-01
 -1.0406654e-01
  2.0840065e-01
  8.3511151e-02
 -2.6869482e-01
  1.6456991e-03
  1.5319318e-03
  5.4273385e-01
 -1.1239868e-01
 -3.1055042e-01
 -8.4159207e-03
 -3.7023523e-01
  7.7688776e-02
  1.8968416e-02
 -1.0520342e-01
 -4.1154496e-02
  1.4926766e-01
  1.2198024e-01
  2.4386254e-01
  5.4707646e-02
  4.7351841e-02
  4.7542650e-02
 -1.5010345e-01
  3.2718007e-02
 -4.4781700e-01
 -1.1345686e-02
 -3.8074550e-01
  8.9061009e-03
  3.2998461e-02
  6.1186505e-03
  1.2244444e-01
  4.4355008e-01
  1.8610938e-01
  1.2243254e-01
  4.8764769e-02
  1.6193129e-01
  3.4425533e-01
 -5.9696674e-01
  1.8583992e-01
 -1.9381656e-01
  1.0226800e-01
 -2.3763114e-01
 -5.0357306e-01
  4.1107768e-01
 -1.4085604e-01
 -5.0052035e-01
 -1.0066672e-01
 -7.4967042e-02
 -1.4512293e-01
  2.4167500e-01
 -4.9345944e-02
 -1.0682036e-01
 -1.8151788e-01
 -5.7668921e-02
  3.5285851e-01
 -5.8743256e-01
 -6.6721952e-01
 -5.3191400e-01
 -3.4496233e-02
 -1.4284842e-01
  4.0313947e-01
 -1.5500838e-01
 -4.4843388e-01
 -7.9562628e-01
  6.2255386e-02
  3.6186269e-01
 -1.4286928e-01
  3.2566175e-02
  5.9541970e-01
  1.9206418e-01
 -4.9209565e-01
  4.2225635e-03
  5.6742877e-01
  1.2094245e-02
 -1.7841133e-01
 -3.2318425e-01
 -2.5903904e-01
 -2.6281980e-01
  6.7545034e-02
  5.4531419e-01
 -3.1821325e-01
 -1.9613267e-01
  1.4297031e-01
  2.4029525e-01
  5.1710945e-02
  9.1451555e-02
  1.8699402e-01
  1.0692319e-01
 -2.8084084e-02
 -2.8536078e-02
  5.4126378e-02
 -5.8488667e-02
 -4.8323002e-01
 -1.0898852e-01
  2.9167596e-01
 -2.3683967e-02
  1.0339636e-01
 -2.8623980e-01
 -2.4739726e-01
  3.0337927e-01
  1.6008896e-01
  3.1919867e-01
 -4.7210376e-03
 -1.3170069e-01
 -3.1593361e-01
  1.9158538e-02
 -5.3383421e-02
 -4.2910996e-01
 -4.6553880e-01
  1.2026523e-01
 -5.1848686e-01
  1.9989088e-01
  1.6693807e-01
 -2.5617814e-01
  3.4179422e-01
  1.5734164e-01
 -1.9295971e-01
 -5.4263675e-01
 -6.9091511e-01
  9.0549761e-01
 -3.7779459e-01
  3.2133672e-01
  1.1061607e-01
 -6.6405082e-01
 -1.9232374e-01
  2.2858369e-01
  1.5193932e-01
  9.0158373e-02
  1.1960702e-01
  6.7844786e-02
 -1.3189495e-04
 -7.5887042e-01
  2.0741507e-01
  1.3051932e-01
 -1.9639653e+00
 -5.5502709e-02
  1.2426329e+00
 -2.1362196e-01
 -2.8376320e-01
 -2.8035836e-03
  3.0893251e-02
 -2.6726913e-01
 -5.5431197e-03
 -2.2063138e-01
 -9.2912521e-03
 -5.8231700e-02
 -7.1490720e-02
 -1.3228734e-01
 -3.7329823e-01
  7.1938500e-02
  1.8077698e-01
  2.0282710e-01
 -2.0580110e-01
  2.5874284e-01
  1.3320625e-01
  3.7066528e-01
  3.6523368e-02
 -1.3207509e-02
 -3.1312937e-01
  1.9833322e-01
  1.9990605e-01
  2.3617940e-01
 -1.1130475e+00
 -4.9215056e-02
  1.2742561e-01
 -2.9141632e-01
  6.3204509e-01
  1.7739807e-01
 -2.0876193e-01
 -9.7045280e-02
 -7.6963045e-03
 -2.8746208e-02
  1.8214580e+00
 -9.2566229e-02
  1.9908640e-01
  3.7742680e-01
  1.3256067e+00
 -3.3361453e-01
  2.2871459e-02
 -5.0014871e-01
 -7.0105612e-01
  8.4315902e-01
  7.3949778e-01
  3.5452124e-02
  2.3449056e-01
  2.6536790e-01
  7.1989751e-01
  3.2012627e-02
 -2.8512374e-02
 -1.7275386e-02
  3.1373039e-01
  3.1359145e-01
 -4.0674555e-01
 -4.1387528e-01
  3.8003874e-01
  3.4286323e-01
  7.8297235e-02
  9.8602839e-02
 -2.8337225e-01
  7.0530158e-01
 -5.2721047e-01
  4.6143094e-01
  5.5907375e-01
  8.5891299e-02
  2.3383005e-02
  1.7600710e-02
  4.3871751e-01
  2.9206619e-01
 -9.8106153e-02
  5.3151269e-03
  1.8433724e-01
 -9.9350370e-02
 -3.3467963e-02
 -1.6396537e-01
 -3.1352216e-01
 -2.4972308e-01
 -1.2241478e-01
 -7.5400686e-01
 -5.7827190e-02
 -1.8655366e-01
  2.6634987e-02
 -1.4000508e-01
 -2.6033357e-01
 -6.8607891e-01
  1.8983339e-01
 -7.3026948e-02
  1.7125267e-01
  2.3082191e-01
 -1.0936534e-01
 -1.0007028e-01
 -5.5892831e-01
 -1.3847890e-01
 -5.0151950e-01
  9.5890248e-03
  2.4646883e-01
 -9.9610746e-01
 -2.9178429e-02
 -5.0023299e-01
  3.7833851e-02
  1.5592907e-01
 -1.1343971e+00
  1.7765652e-01
 -5.6062400e-02
 -1.3812949e-01
 -2.7765459e-01
 -3.5928693e-01
 -2.2734297e-02
 -5.5430228e-01
 -2.3499958e-02
  4.1077679e-01
  9.3763745e-01
  1.2387029e+00
 -1.7405422e-02
  4.3692339e-02
 -3.6909401e-02
  1.8153061e-01
 -8.5361220e-02
 -1.7065805e-01
 -9.0089105e-02
 -1.0511077e-01
  3.3080393e-01
  1.8659754e-02
 -1.7479177e-01
  1.9089556e-01
 -1.3851720e-01
 -7.3981822e-01
  2.6059611e-02
 -2.2760227e-01
 -3.9403591e-02
 -1.1157498e-01
 -1.3949705e-02
  1.0558799e-01
 -1.3161322e-01
 -1.2241500e-01
  6.0161641e-03
 -1.7016292e-01
  3.2299820e-02
 -2.3383659e-01
 -1.7346218e-01
 -2.1145287e-01
 -5.2244723e-02
 -1.6021515e-01
 -2.2839588e-01
  2.3966748e-01
  8.6621664e-02
  5.0062127e-02
  1.0778522e-01
  4.7948092e-02
 -3.2770264e-01
  2.9385519e-01
  3.0818614e-01
  3.8486864e-02
  6.4455815e-02
 -3.9033517e-02
 -1.2896153e-01
 -2.0653483e-01
  6.3923210e-01
 -1.9346494e-02
 -9.7306418e-01
  5.4578644e-01
 -1.3900256e-01
 -3.5580486e-02
  3.8163638e-01
  2.9816513e-03
  9.5150150e-02
 -3.2611126e-01
  5.2139139e-01
 -4.0753730e-02
 -3.4375381e-01
  1.7231905e-01
  6.8674874e-03
 -1.1611010e-01
 -9.1418132e-02
 -8.8526128e-04
  9.9528745e-02
 -1.4469844e-01
 -6.1109044e-02
  3.6065078e-01
  6.3567495e-01
  1.6914840e-01
 -1.1112182e-02
  4.8492953e-02
 -7.2150670e-02
  2.2093053e-03
 -4.3342289e-02
  2.2506370e-01
  2.4897511e-01
 -1.3803481e-01
 -3.5268748e-01
 -1.5347438e-01
 -2.4301122e-01
  5.7167180e-02
  2.0819400e-02
  6.2530503e-02
 -1.4617510e-01
 -1.8118818e-03
 -3.9543121e-04
  4.6118817e-01
  2.6109476e-02
  3.9745411e-01
 -1.9211812e-01
  2.1054339e-01
 -1.2902138e-01
  1.0828044e-01
  2.1194357e-01
 -4.3081096e-01
  1.8845303e-01
  2.9520316e-02
  1.3798927e-01
 -5.9306246e-01
  9.0661146e-02
  1.6228788e-01
  2.2728603e-01
 -1.8845351e-01
  7.9057026e-01
 -6.9878618e-03
 -1.0953540e-01
 -3.0681884e-01
  1.4648831e-01
 -6.7455053e-02
  1.3388970e-01
  2.5171304e-02
  2.0001607e-01
  2.7722681e-01
  1.7136548e-01
  5.0088946e-02
 -5.8384687e-02
  3.2212389e-01
  2.7149695e-01
 -2.3420396e-01
  3.9765909e-02
 -3.9643873e-02
  3.1183717e-01
  5.6595892e-01
 -9.7602934e-02
  1.2537058e-01
  1.1188234e+00
  1.4660770e-01
  1.1395828e-01
  8.3819009e-02
  8.2930222e-02
  1.6651279e-01
  8.3681124e-01
  4.7927061e-01
  9.9718219e-01
  1.3138774e-01
  3.6999803e-02
  7.0259631e-02
  7.7116109e-02
 -3.5891958e-02
  1.1785737e-01
  1.1448882e-01
 -3.5846624e-01
 -2.8983736e-01
  3.5841152e-02
  6.9018014e-02
 -2.7802631e-02
  9.8359741e-02
 -4.8767354e-02
  3.2642359e-01
  2.2643828e-01
  2.1596326e-01
  2.0657472e-01
  6.5346175e-01
 -1.0180694e-01
 -1.0286617e-02
  3.3469364e-01
  3.5358787e-02
 -4.2069843e-01
 -3.6351123e-01
  5.1625043e-01
 -2.5216088e-01
 -7.6686248e-02
 -7.2759911e-02
  4.4600829e-01
  7.4732351e-01
  2.4291763e-01
  1.0592225e-01
  4.1716045e-01
 -1.6458412e+00
 -2.7266955e-01
  2.1036465e-01
 -6.1525249e-01
 -5.1071562e-02
  1.6017576e-01
  2.1609975e-01
 -7.6376066e-02
  4.0408406e-02
  4.5222870e-01
 -3.7229800e-01
  1.1908885e+00
 -3.2310113e-02
 -2.5500092e-01
  1.8343149e-01
 -3.9690354e-01
 -7.7712727e-01
 -1.2335607e+00
 -3.4178725e-01
  8.7803416e-03
 -2.2932610e-01
  9.1410980e-02
 -3.9018205e-01
  2.5946578e-02
  7.9395324e-03
  1.5937041e-01
  2.0515585e-01
  1.2123463e-01
  4.8651330e-02
 -1.8130925e-01
  2.4265413e-01
 -1.8637146e-01
  2.6185511e-02
 -5.9499495e-02
 -5.0557739e-01
  7.1437195e-02
  1.9938789e-02
 -1.7760616e-02
 -1.5701279e-01
  2.3490641e-01
  1.0339338e-01
 -6.8726130e-02
 -2.1446949e-01
  2.4346713e-02
  1.6520952e-01
 -4.7035199e-01
  1.0604298e-02
 -2.1430892e-01
  1.2465090e-01
 -1.3602273e-01
  1.7414798e-01
 -2.4417405e-01
 -3.0830461e-03
 -1.7819017e-02
  9.4903767e-02
 -1.7321976e-02
  4.0480167e-02
 -6.8159795e-01
 -2.3198062e-01
 -1.0380419e-01
 -6.9929183e-01
  7.2885133e-02
 -4.9439749e-01
 -8.8468611e-02
 -1.1979985e+00
  8.0503181e-02
  9.1513537e-02
  1.1169127e+00
  5.7768812e-03
 -2.7661985e-01
  2.6934987e-02
 -4.2096220e-02
 -1.0019568e+00
 -5.1022343e-02
 -1.1749011e-01
  1.6020575e-01
  6.8089373e-02
 -1.1625907e-02
 -1.2075002e-01
  1.1896894e-01
  5.4898728e-02
 -7.7580206e-02
 -1.1965637e-02
 -2.5816029e-02
  1.7497447e-01
  9.2844987e-01
  1.6389392e-01
  5.5975445e-02
  8.0737852e-02
  3.5522856e-02
 -4.1337557e-02
  6.8150930e-02
 -1.3117015e-01
  4.1097131e-02
 -1.6151109e-01
  1.1174653e-01
 -1.6389197e-01
 -1.1668672e-01
 -3.7161902e-01
 -1.2957149e+00
 -4.9808976e-01
 -4.4155782e-01
  9.7229826e-01
  1.4428549e+00
 -2.1976735e-01
  5.7882673e-01
  1.4510073e-01
  2.2735231e-01
 -8.1886582e-02
  4.9165115e-01
 -4.4184262e-01
  4.2611432e-01
 -1.0558958e-01
  1.1912774e-02
 -7.0343621e-02
  1.3435361e-01
 -1.6608423e-01
  1.6286767e-01
  1.1055784e+00
  5.8927214e-01
 -1.9613175e-01
  5.6121838e-01
 -5.8619574e-02
 -3.4712136e-01
 -2.8822282e-01
 -6.1443213e-02
 -4.6804914e-01
  2.4221592e-01
  4.1066039e-02
 -5.3966716e-02
  1.7515336e-01
  1.6603801e-01
  3.7595016e-01
 -1.4705555e-01
 -6.4797950e-01
 -3.4606105e-01
  6.5861642e-02
  6.6155349e-03
 -5.2041674e-01
 -7.1708131e-01
  1.0229175e+00
 -1.8499368e-01
 -2.1260773e-01
  4.8400488e-02
  3.9430495e-02
 -3.4618360e-01
 -4.5337418e-01
  4.0327492e-01
  1.8770975e-01
  3.6621172e-02
  4.0749300e-02
 -1.5636548e-01
 -2.0586756e-01
  3.9566746e-01
 -1.9105916e-01
  3.5987508e-02
  1.1067542e-01
 -2.5396192e-01
 -6.5395527e-02
  8.9880466e-02
 -2.6408646e-01
  2.6092073e-01
  1.7607167e-01
 -4.9121842e-02
  1.1234851e-02
  1.5286566e-01
  6.9648612e-01
  5.2888107e-01
 -4.0511471e-01
  1.1776719e+00
 -2.0030826e-01
 -5.4833752e-01
  5.8748919e-01
 -9.4138021e-03
  2.4118638e-01
  8.7609932e-02
  2.5213400e-01
  4.5223322e-02
  3.7052371e-02
 -1.6894072e+00
 -1.1308976e-01
 -6.1289090e-01
 -6.2387389e-01
 -1.5386407e-01
 -1.1929749e-01
 -1.9519409e-02
 -4.0393060e-01
  8.9446150e-02
  2.7942342e-01
 -5.0551340e-02
 -2.7922562e-01
  1.6929652e-01
 -5.7496578e-01
 -6.7161992e-02
 -1.9743094e-01
 -1.6724263e-01
 -4.2073745e-01
 -2.9153770e-02
  1.6725734e-01
 -3.4136009e-01
  2.9892656e-01
  1.6661236e-01
  2.5979858e-02
  2.2860494e-01
 -3.2246858e-02
  8.5844295e-03
 -1.2555735e-01
 -3.0102779e-03
 -5.9096934e-03
 -8.2198955e-02
  2.3308536e-01
 -7.3743001e-02
  3.8148391e-01
 -6.4050776e-01
  1.8802522e-01
 -4.5563194e-01
  4.6813691e-01
 -2.1217917e-01
 -1.7799438e+00
  1.6530782e-01
  2.1445490e-01
  9.0477027e-02
 -3.6145106e-01
 -7.0182241e-02
 -9.6910670e-02
 -5.6756586e-01
  3.1120154e-01
 -2.3158414e-02
  1.1326635e-01
  7.8734174e-02
  2.2717153e-01
 -2.0988004e-01
 -2.4752994e-01
 -3.0394882e-01
  2.3278601e-04
 -3.3824194e-02
 -1.0938704e-01
  1.7957458e-02
 -8.6657941e-02
 -5.4983968e-01
  2.1252072e-01
  2.2933960e-01
 -3.8374433e-01
  1.3213965e-01
  3.5137676e-02
 -3.2218811e-01
 -1.5012604e-01
  3.1426078e-01
  4.7295758e-01
  1.1682497e-01
  4.6859127e-02
  1.7377843e-01
 -1.4039150e+00
  2.5371337e-01
 -1.5341060e-01
  1.7388472e-01
 -3.2708356e-01
 -2.9927427e-01
  1.2113156e-01
 -3.4904569e-01
 -1.4323667e-01
 -7.9021147e-03
 -1.4079680e-01
 -1.0384538e-01
 -5.0297707e-02
  6.5621531e-01
 -2.4773887e-01
  2.2886063e-01
 -1.0339235e-01
  3.1836219e-02
 -8.1318021e-02
  1.8898754e-01
 -3.6121035e-01
 -1.2433654e-01
 -9.1900289e-02
 -1.9992037e-01
 -1.5676069e-01
 -1.7791085e-01
 -2.1145824e-01
  4.8223295e+00
 -2.0920375e-01
 -3.3934620e-01
 -5.4367356e-02
  2.5657590e-02
 -3.4043592e-01
  3.6296552e-01
  3.5186288e-01
 -5.2560762e-02
  5.7408494e-01
  4.0847650e-01
 -5.3538512e-02
 -2.5914413e-01
 -6.8468004e-01
 -6.1282438e-01
 -3.1461781e-01
 -6.3879496e-01
 -7.4773997e-02
  3.3130401e-01
 -1.3112323e-01
  4.6293452e-02
  1.0515080e-01
 -3.2784644e-01
  1.9564508e-01
  1.7907672e-02
  2.5039828e-01
 -1.7762227e-01
  3.2693225e-01
  6.1765160e-02
 -3.6559319e-01
 -2.6226476e-01
 -2.4185379e-01
  6.3705131e-02
  4.6694770e-02
 -3.9827877e-01
 -3.7637389e-01
 -2.4079556e+00
 -3.2193166e-01
  1.3713112e-01
 -4.9865715e-02
 -1.7986690e-01
 -2.5265768e-02
 -9.3491638e-01
 -7.2897516e-02
  1.2958507e-01
 -6.4671449e-02
  4.0532380e-02
 -7.4843355e-02
  1.4346289e-02
 -1.1922984e-01
 -6.0949065e-02
 -2.0336466e-02
 -9.8237298e-02
 -6.2264852e-02
  5.5460888e-01
 -2.2621983e-01
  2.9263111e-02
 -5.3483617e-02
 -6.7243737e-01
  3.5702094e-01
 -2.0393501e-01
  7.3228419e-02
  8.9192122e-01
  7.9409359e-04
 -1.9590820e-01
 -5.5010491e-03
 -2.7462932e-01
 -4.0205631e-01
  9.4358269e-03
  2.0217014e-02
  4.3234870e-01
  1.1253956e-02
  9.9556543e-02
 -2.2900376e-02
  3.3854954e-02
  5.0218290e-01
 -4.7849879e-02
 -2.7902374e-01
  1.9552895e-01
 -3.6416050e-02
  7.6148748e-02
 -8.0389353e-03
 -1.1565374e-01
 -1.4321322e-02
 -4.4474041e-01
  2.6855133e-02
  8.4427744e-03
  2.3068459e-01
 -4.2355950e-03
  3.3633777e-01
 -5.2051020e-01
 -6.3665487e-02
  9.0770572e-02
 -4.2171530e-02
  5.0861571e-02
 -4.4298168e-02
  6.9467492e-02
  2.0552948e-02
  1.6544090e-01
  1.0554514e-01
  2.4791883e-01
  4.9133482e-03
  1.7413065e-01
 -4.2456705e-02
  3.3732063e-01
 -8.4266588e-02
  2.2102591e-01
  2.5220534e-01
 -9.6526998e-01
  2.3095589e-02
  4.3228321e-02
  1.0365019e-01
 -2.4062943e-01
  3.1862713e-02
 -5.8321208e-01
  7.4937975e-01
 -2.6582301e-01
  3.0821037e-01
  2.9511243e-01
 -1.0045746e-03
  7.4654162e-02
 -5.5393204e-02
  6.4483635e-02
 -2.3154849e-02
  4.4008084e-02
 -2.3345016e-01
 -2.6320186e-01
 -1.1127732e-01
  4.8176665e-03
  1.3022655e-01
  3.5708158e-03
  5.7906091e-01
 -3.9301863e-01
 -2.4320795e-01
 -6.4267665e-02
  4.2238325e-02
  8.8575579e-02
  8.2774825e-02
  1.1282342e-01
 -1.9011116e-01
 -1.3340116e-01
 -1.0556259e+00
  8.0566794e-02
 -5.0051779e-02
 -1.0383121e+00
 -5.7097435e-01
  1.8856978e-01
 -2.0184986e-01
 -4.5288324e-01
  3.6675966e-01
 -1.6695347e+00
  6.2429690e-01
  8.4657386e-02
 -1.5425464e-02
 -3.1503677e-02
  6.7671120e-01
  2.4655399e-01
 -5.1102751e-01
 -5.7525909e-01
 -8.1292421e-01
 -5.2120733e-01
 -2.1062143e-01
  6.0464233e-01
  1.8103519e-01
  5.5678684e-02
  2.7311796e-01
  1.9191705e-01
  1.9070037e-01
 -3.5916281e-01
  2.7055842e-01
  4.5222059e-01
  1.8285690e-01
  5.1148671e-01
  3.8417377e-02
 -1.6384819e-01
  1.7222434e-01
  1.2428314e-01
  3.9095715e-02
  1.3529967e-01
  5.8063783e-02
 -8.0012637e-01
  6.9884043e-03
  5.6556035e-03
  1.9920933e-01
 -5.4554693e-02
 -1.2566370e-01
 -1.3793387e+00
  1.3428715e-01
  2.1715445e-02
  4.3768525e-01
 -4.9830461e-03
 -1.0920918e-01
 -4.5173040e-01
 -2.2962508e-01
 -6.2273127e-01
 -5.1373738e-01
 -2.2122267e-01
  4.7297723e-04
 -3.9842090e-01
 -2.8763005e-01
 -1.7643441e-01
  4.5413029e-01
  3.1513408e-01
 -4.4361252e-02
 -8.0740988e-01
  6.0394460e-01
  3.7964293e-01
  2.1494181e-01
  2.8072837e-01
  5.3877366e-01
  3.7571990e-01
  3.3648789e-01
  1.0694329e-01
  3.6272749e-02
 -8.7946199e-02
  8.9137189e-02
 -4.3068680e-01
  1.7123397e-01
 -8.1028782e-02
  8.3660454e-02
 -1.4997099e-01
  1.0197049e-02
 -7.1807724e-01
  1.1318098e-01
 -1.0592438e-01
  5.0199050e-01
  1.0583038e-02
  2.5949294e-02
 -2.3943488e-01
  5.7665776e-03
  1.0782459e-01
  3.5734545e-02
 -3.6532458e-02
 -8.1538953e-02
  1.7554776e-01
 -2.4435598e-01
 -3.9535022e-01
 -4.9488118e-01
 -1.0103561e-01
  1.9112433e-01
 -9.6014202e-01
 -1.3624042e-01
  1.3629758e-01
 -7.2902471e-01
 -1.1730198e-01
 -2.0488502e-01
 -1.6633280e-01
  6.3430503e-02
  1.7625400e-01
 -1.6228995e-01
  7.1442294e-01
  5.9401506e-01
 -2.9745257e-01
 -7.9390991e-01
  1.7094124e-02
 -3.3720082e-01
 -1.1144884e-01
 -3.3191264e-02
 -1.1244337e-02
  5.4838312e-01
  1.9047944e-01
  7.0607144e-01
  3.6406323e-02
  9.6167976e-05
  3.0862150e-01
  2.1396663e-02
 -4.0030524e-01
 -1.4603321e-01
 -7.4941985e-02
 -1.7061340e-02
  5.1829718e-02
 -3.5617319e-01
  2.7418813e-01
  9.4838455e-02
 -1.4683315e-01
  3.9200076e-01
 -2.6178917e-01
  1.9564947e-01
 -3.0033920e-02
  5.8616947e-02
 -1.6960287e-01
 -6.8577516e-01
  1.7842124e-01
  2.8612229e-01
 -2.7795255e-01
 -6.1408740e-02
 -4.6382499e-01
  4.3042537e-02
 -9.8005044e-01
  4.2460310e-01
  2.2375333e-01
  3.4553146e-01
  7.2435069e-01
 -2.6198992e-01
 -3.5771975e-01
  2.1735720e-01
 -3.6961246e-02
  6.0803056e-02
  1.1932760e-01
 -4.3424174e-02
  5.6461517e-02
 -4.5793438e-01
 -6.6510445e-01
 -9.0887839e-01
 -6.2353325e-01
 -5.1974702e-01
 -8.2011901e-02
  1.5610478e+00
  4.2910710e-01
  3.9641970e-01
  1.9751497e-01
  2.0895042e-01
  1.6387361e-01
  6.7255497e-01
  7.1408994e-02
  3.2790104e-01
  1.3703470e-01
 -1.0886950e-01
  2.6015809e-01
 -5.2785528e-01
  1.3244383e-01
  4.6798330e-02
 -5.8950007e-01
  2.8982481e-01
 -6.2630512e-02
 -1.2108490e+00
 -9.2569411e-02
 -8.2072186e-01
 -1.5902716e-01
 -4.9407366e-01
  4.6004984e-01
  5.4889858e-01
 -2.0860912e-01
  2.4409284e-01
 -2.5533894e-02
  7.4090928e-02
 -1.6012156e-01
 -4.5330167e-01
 -6.1209649e-01
 -6.8470186e-01
 -5.7874632e-01
 -5.3010233e-02
  2.8142318e-02
 -4.7075745e-01
  3.9699692e-02
 -1.4876441e-02
 -4.2943904e-01
 -2.6855052e-01
  1.9003054e-02
 -4.5250889e-02
 -2.4898097e-01
  8.8575497e-02
 -1.9159608e-01
 -2.5860397e-02
  8.1939125e-01
  2.1249509e-01
  1.3167703e-01
 -3.8378012e-01
  3.3727014e-01
 -4.2404510e-02
  2.9830249e-02
 -5.4173970e-01
  2.0726256e-03
 -4.5297693e-02
 -6.3194549e-01
  4.1254193e-01
 -3.8587964e-01
  4.6779773e-01
  5.5213841e-03
  6.5043569e-01
  3.1906962e-01
  1.1363724e-02
  1.7457935e-01
  1.6349182e-01
  1.8059264e-01
  8.5059099e-02
  2.6420295e-01
  1.0160347e-01
  5.0190336e-01
 -5.3828359e-01
 -2.6982605e-01
 -1.5654615e+00
 -1.7484193e-01
  5.4232225e-02
 -5.9941530e-01
  8.4628746e-02
 -7.2662108e-02
 -4.8792797e-01
 -5.3423369e-01
 -1.2179557e+00
 -9.1143566e-01
  1.7470209e-01
 -8.1030242e-03
 -2.2383913e-01
  6.3524663e-01
 -2.9990852e-01
  5.8480757e-01
  3.3206207e-01
  1.8434151e-01
 -2.2453124e-02
  5.6303883e-01
  1.6410868e+00
 -1.6136451e+00
  1.6252260e-01
  4.1194052e-02
  3.6698595e-02
 -3.1010017e-01
 -6.9484234e-02
  1.8383831e-01
 -3.7727752e-01
 -1.1098569e-01
 -2.1551061e-01
  1.9928586e-02
 -1.9490808e-01
 -8.3693713e-03
  1.3726979e-01
  3.4782085e-01
  3.5080945e-01
  4.1297907e-01
  4.3508813e-01
 -7.4484968e-01
  4.0530255e-01
 -4.8676487e-02
  4.5467961e-01
 -1.0092367e-01
 -1.3177742e-01
  4.7132790e-01
 -2.7812359e-01
 -1.8334261e-01
 -4.5778370e-01
 -2.3820497e-01
 -5.2473426e-02
 -1.9658190e+00
  6.0816848e-01
  3.6366561e-01
  5.3756636e-02
  9.7264344e-01
 -7.2777009e-01
 -1.4650172e+00
 -2.8303334e-02
 -5.3662914e-01
 -2.6503988e-02
  1.6697146e-02
 -8.7424837e-02
 -2.9033259e-01
  1.9548976e-01
 -2.6096624e-01
 -3.8092926e-01
 -1.2921166e-01
 -9.6052736e-02
 -4.1850159e-01
 -2.4844763e-01
 -2.7562079e-01
  3.5387948e-01
 -2.7676556e-01
 -1.5692914e-01
 -5.4242653e-01
  4.5834795e-01
 -1.3868441e-01
 -9.5725141e-02
 -1.4832596e-02
 -6.0655270e-02
  1.1633924e+00
 -7.2222419e-02
  8.6060882e-02
  5.2329409e-01
  3.5017531e-02
  2.5392494e-01
 -1.6391664e+00
 -8.5420340e-01
  6.4421132e-02
  3.1266078e-01
  3.8469416e-01
 -1.2715880e-03
 -3.3065435e-01
 -2.3188061e-01
 -3.5986879e-01
  5.9938617e-03
 -1.3674721e-01
  7.1121238e-02
  1.4021140e-01
  6.5990895e-01
  2.2062720e-01
  2.9914600e-01
  3.7517390e-01
  5.6508696e-01
 -4.8575851e-01
  1.2712233e-01
  7.1174294e-02
  5.6301579e-02
 -3.7095720e-01
 -1.0918154e-03
 -8.4379101e-01
 -2.3214225e-02
  4.5279416e-01
  6.4683098e-01
  3.8827074e-01
 -3.6946144e-02
 -7.3931760e-01
 -4.1434601e-01
  5.6056716e-02
  1.5179151e-01
 -1.9228457e-01
  7.4834692e-01
  6.7198271e-01
  2.9903054e-01
  4.0519530e-01
  2.9458779e-01
 -4.3292552e-02
  1.6306239e-01
 -1.7600784e-02
 -4.8318289e-02
  2.2085936e-01
  2.0241551e-01
 -7.4211493e-02
 -3.2473385e-01
  4.2500341e-01
  5.8998281e-01
  2.5036338e-01
  2.8658175e-01
 -4.9737539e-02
  6.4545339e-01
 -6.3727468e-01
  6.5413862e-01
  2.7934741e-02
  8.4750938e-01
  9.9802300e-02
 -3.2112859e-02
 -8.1521255e-01
  3.4623399e-01
  2.7067912e-01
  5.7166415e-01
  2.7008906e-01
  2.1732885e-01
  1.2351273e+00
 -1.1030577e+00
 -4.5672780e-01
 -1.5589915e-01
 -8.3301544e-01
  2.5597569e-01
  3.1362778e-01
  4.6303153e-02
  7.1399167e-02
 -2.0132612e-01
 -1.2842268e-01
  5.4437708e-02
  1.6143074e+00
 -2.5248887e-02
  3.1028482e-01
 -3.7822593e-04
  2.0262249e-01
  1.4309473e-01
 -1.2009828e+00
  4.2825721e-02
  2.2781124e-02
  1.3576899e-01
 -3.7352160e-02
 -1.3734875e-03
  3.6511716e-01
 -3.6734065e-01
 -1.0475423e-01
 -2.0562306e-01
  1.3917959e-01
  2.8258979e-01
  4.9685574e-01
 -4.0141676e-02
  2.1614896e-01
 -1.7409621e-01
 -5.5331126e-02
  3.1678894e-01
  1.3309321e-01
  1.8074942e-01
  1.0017244e-01
  4.4281922e-02
 -1.9701682e-01
 -3.3263266e-01
 -3.5756198e-01
  1.2203969e+00
 -1.7672594e-01
 -1.4314634e-01
  2.4919875e-02
 -1.1134628e-02
 -6.7213190e-01
  1.1829594e-01
 -4.0460695e-02
  1.3004646e-01
  5.2412890e-02
  5.0161030e-02
  1.3994966e-01
  8.1934959e-01
  4.1610703e-01
  5.8047581e-01
  4.9343920e-01
  1.4016432e-01
  2.2561973e-01
 -2.0562752e-01
  7.6760538e-02
  9.9038608e-02
  1.6906165e-01
  4.9504064e-02
 -2.6014271e-01
  1.3095920e-01
  1.6784161e-01
  7.4710727e-02
 -3.7902370e-02
 -7.2285876e-02
 -5.0262058e-01
  6.1547723e-02
 -8.2200110e-02
  1.8363510e-01
  4.5875911e-02
 -1.6451710e-01
  2.3484282e-01
  2.7818882e-01
 -1.6001945e-02
  2.9599771e-01
  3.6397818e-01
 -3.0937678e-01
 -1.9584293e+00
 -3.7356076e-01
 -1.6890922e-01
 -5.0866909e-02
 -1.7719137e-02
 -4.9412245e-01
  5.7126921e-01
  8.2779074e-01
  7.2916049e-01
  3.7416813e-01
  2.3029211e-01
 -5.6512766e-03
  2.8169537e-01
  4.3686295e-01
  3.4797975e-01
  5.2419640e-02
  3.3053294e-01
 -1.2430357e-01
 -9.7520936e-01
  1.6462833e-01
 -1.0397551e-01
 -2.3248962e-01
  5.2025360e-01
  2.0604255e-02
 -2.5507459e-01
 -1.4766304e-01
 -2.8215876e-01
 -3.2037029e-01
 -2.5085930e-03
 -3.6296777e-02
  5.3836662e-01
  1.0609896e-01
 -3.2587551e-02
  4.8078202e-02
  3.0847706e-02
  2.9589396e-02
 -2.6302662e-01
  5.4451115e-02
 -1.9047093e-02
 -4.5386307e-02
 -5.3991180e-02
  3.8067356e-02
 -2.2107814e-01
  3.7021798e-01
  2.2648202e-01
  3.4817442e-01
  4.5655113e-01
  2.1865046e-01
  6.8406236e-01
  2.0391135e-03
  1.5183887e-01
  3.6841810e-03
  3.5674509e-01
 -2.7459002e-01
 -1.6623544e-02
 -1.1751515e-01
  1.2058312e-01
  5.3761035e-01
  8.7709904e-02
  1.0598162e-01
 -3.5832670e-02
  1.1384013e-02
  2.0003879e-02
 -5.0702393e-02
 -1.4768933e-01
  6.2315381e-01
 -5.8496576e-02
  1.4406593e-01
 -1.7027472e-01
  1.2156486e-01
 -3.7884998e-01
  5.4047119e-02
 -9.2376018e-01
 -8.9679591e-02
 -1.2250321e-01
  2.9951420e-02
 -7.8789003e-02
 -3.6832152e-04
  2.8207311e-02
 -1.3135330e-02
 -1.8448859e-02
 -1.5462201e-02
  1.4287232e-01
  5.0531924e-01
  3.0857953e-01
 -2.3654039e-01
  2.9572871e-02
 -2.3459861e-02
  1.7336667e-01
  3.5063708e-01
 -4.9029827e-01
  1.7302138e-01
  3.4543073e-03
  7.3316079e-01
  3.6213034e-01
  2.1167506e-01
  1.8730775e-01
 -1.8271241e-01
 -5.5942488e-01
  2.2297194e-02
 -2.2038922e-01
 -8.9753181e-02
 -5.7148099e-01
 -8.4667459e-02
 -3.6023282e-02
  7.4818082e-02
  2.0141548e-01
 -4.7788468e-01
 -5.6628782e-01
  2.5918141e-02
 -1.6849335e-01
 -9.6863426e-02
  1.3487583e-01
  6.4137086e-02
  3.6410671e-01
  1.8768267e-01
  1.7791714e-01
  6.4144599e-01
  6.0729623e-01
  4.1799918e-01
 -5.4218197e-01
 -1.2795790e-01
 -3.8548417e-02
 -1.3504690e-01
  9.8767154e-02
  8.1882738e-02
 -1.6419422e-02
 -3.4827906e-01
  1.2083922e-01
  2.7475047e-01
  1.5076181e-01
  3.5560924e-01
 -9.3171394e-01
  9.6905924e-02
 -4.8065268e-02
 -2.8116718e-01
 -6.5239495e-01
  2.4423771e-01
  2.3312135e-01
  6.7402983e-01
  5.0763708e-01
  7.4911857e-01
  9.3246371e-02
  5.2451931e-02
  4.7789577e-02
  1.2571728e-01
  8.9357890e-02
 -4.3559939e-02
 -1.9276811e-01
 -2.9435536e-01
 -8.0794227e-01
  4.2538732e-01
  1.9464728e-01
  9.7132242e-01
  5.4766273e-01
  8.1158523e-03
  1.9773465e-01
  3.9137107e-01
  1.5639795e-02
  3.0838543e-01
  5.7640499e-01
 -4.8980031e-02
  9.6234400e-03
  7.3102633e-03
  3.7197283e-01
 -1.3477412e-01
  6.0433787e-01
  9.0144509e-01
 -9.8957300e-01
  2.0113653e-01
  1.2850857e-01
  4.6688724e-01
  2.3633732e-01
  5.9643006e-01
  1.5909259e+00
  6.3154273e-02
  8.3963060e-01
  4.5609677e-01
  6.5829456e-03
 -3.3426133e-01
 -3.7494960e-01
  3.2729395e-02
 -6.8956435e-01
 -7.3537007e-02
 -2.3804076e-01
 -5.6098342e-02
  2.0640214e-01
  8.3076370e-01
  5.9427458e-01
  5.9189814e-01
  6.3809586e-01
 -1.4135864e-02
  1.8976058e-01
 -1.2469511e-01
  3.2042748e-01
  1.0399813e-01
 -1.2143322e-01
  3.1266645e-01
 -1.3343272e+00
  1.3201776e+00
  3.2092562e-01
  3.5269466e-01
  1.9159433e-01
 -5.0685400e-01
  9.5551074e-01
 -9.1380253e-02
 -4.5130265e-01
 -1.4356473e-01
 -2.2997458e-01
  1.3680941e-02
  2.8215107e-01
 -3.0984926e-01
 -5.3504454e-03
 -4.6771098e-02
  4.3104574e-02
  1.2242222e-01
  3.1764305e-01
  4.0417990e-01
 -1.8260781e-01
 -2.2279397e-02
 -2.3039535e-01
 -8.8120028e-02
  8.8869488e-01
 -3.1426716e-01
 -4.6007419e-01
 -2.0713018e-01
  4.1335147e-02
 -4.7195591e-02
 -1.7148225e-01
 -1.4440665e-01
  1.7622481e-01
 -2.6520560e-02
  5.3675607e-02
  7.6505882e-03
  1.9048749e-02
 -1.2109058e-01
  2.2766247e-01
  4.1110370e-01
 -9.7017542e-02
  2.9953215e-01
 -5.5906884e-03
 -9.3118888e-01
 -1.0129704e+00
 -9.0354753e-01
  2.3291361e-02
  4.4577789e-02
 -1.4653096e-01
 -1.3273233e+00
 -2.0990431e-01
 -6.0863111e-02
 -3.7485613e-03
  1.0193759e-01
 -1.1931144e+00
  2.6975837e-02
 -2.1394531e-01
 -1.9363894e-01
 -3.1374446e-01
 -1.2986177e-01
  1.1851005e-01
  2.9013392e-01
  1.0292278e-01
  5.8529860e-01
  3.1089738e-01
  1.9417317e-01
  2.4914162e-01
  7.8744069e-02
  2.3570135e-01
  3.7336940e-01
  2.9948276e-01
 -1.8687214e-01
 -7.6452458e-01
 -1.6882285e-01
  2.3833671e-01
 -4.1932099e-02
  1.7633656e-02
  9.0430796e-01
 -8.0200934e-01
 -7.1354076e-02
 -2.9339954e-01
 -2.1622971e-01
 -4.7520855e-01
 -8.5223265e-02
  1.3859655e+00
 -2.5304031e-01
  1.9933547e-01
  2.2635873e-02
 -2.4159874e-01
  6.7714103e-02
 -1.5053193e-01
 -4.0277380e-02
 -2.3425853e-01
 -1.6259907e-01
  1.1357166e-01
  3.5100886e-01
 -1.5251476e-01
  1.6994761e-01
  1.0383299e-01
  1.1728261e-01
  2.3111556e-01
  7.6328713e-01
  4.6003306e-01
 -1.3328414e-01
 -4.0470624e-01
 -3.1748426e-01
 -5.1569092e-01
  3.2830316e-01
 -1.6961373e-01
  1.3555305e-01
  4.4816059e-01
  3.4843899e-02
  1.3891481e+00
  1.4127925e-01
  1.5932274e+00
  2.8844835e-02
  2.6388207e-01
 -2.6855797e-01
  5.3605530e-02
 -1.0621224e-01
  8.7073487e-01
  3.5054600e-01
  3.6508527e-01
  2.8567401e-01
  2.5462598e-01
  4.0054286e-01
  9.1523029e-02
 -3.2175358e-02
 -4.4205850e-01
 -1.2295422e-01
 -5.8858331e-02
  2.7716509e-01
 -4.5402971e-01
 -1.0073065e-01
 -2.6929319e-01
  8.3702192e-02
  1.5426263e-01
 -3.2031184e-01
  1.1781787e-02
  8.6004116e-02
  1.0306283e-01
  1.0621270e-02
  6.1980587e-01
  9.6462168e-02
 -5.3001100e-01
 -4.1994295e-01
  3.2748748e-02
  1.5355811e-01
  3.3794454e-01
  1.9321424e-01
 -1.0158868e-01
  9.1741621e-02
 -3.2658674e-02
  3.9523196e-01
  1.8505552e-01
  3.1898236e-01
 -2.3123370e-02
  1.2793063e-01
  8.2414553e-02
  1.3490877e-01
  5.8440852e-01
  4.0798602e-01
  2.7230406e-01
  6.7816064e-02
 -5.8447454e-02
 -8.9726940e-02
 -8.1887819e-02
  4.4962171e-02
  4.1981030e-01
 -2.0667917e-01
 -2.9713104e-02
 -2.4182159e-01
  4.2428296e-02
 -1.0051154e-01
  3.6497243e-02
 -2.4029646e-02
  9.6370198e-02
 -1.8798006e-01
 -6.2353358e-02
 -1.5715591e-03
 -2.4153288e-01
  6.9517039e-02
  6.9866079e-01
  6.5152355e-02
  2.2608730e-01
  1.6242949e-02
 -2.0651832e-02
  1.6309330e-01
  1.4701286e-01
  9.5890146e-03
  5.8899954e-02
 -1.5737393e-01
 -4.6312845e-01
 -3.5740347e-03
  1.4990881e-01
  1.4976475e-01
 -1.2223714e-01
 -3.0591869e-01
  8.1220388e-01
  9.5956765e-02
  4.2932335e-02
  3.7735870e-01
 -5.5552159e-02
 -1.1116176e-01
  1.7683676e-01
  1.7347844e-01
  2.6565855e-02
  1.9638751e-01
  1.4446263e-01
 -1.0095359e-01
  7.3678873e-02
  2.5872365e-01
  5.1189616e-02
  1.1725894e-01
 -1.1094485e-01
 -6.9713439e-03
  9.1406518e-01
 -1.3948277e-02
  6.8418205e-02
 -1.1876703e-01
  3.2654056e-01
  1.3654235e-01
 -5.3875670e-02
 -3.6386648e-01
  6.1614413e-02
  4.5825463e-02
 -1.1358844e-01
  3.9847174e-01
  4.3975490e-01
 -2.9328501e-01
  1.1888930e-01
  1.4498955e-02
  2.5808105e-01
  9.3901700e-01
  1.2738448e-01
 -2.2445872e-02
  1.6702162e-02
 -2.1884117e-02
 -1.0714082e-01
  2.5467512e-01
 -5.8637488e-01
  4.3394197e-02
  9.8494388e-02
  2.1847072e-01
  3.7245166e-01
 -9.0987182e-01
  5.0725117e-02
  7.1326301e-02
  9.3318170e-01
  2.5660795e-01
  7.8774476e-01
 -6.5794304e-02
 -3.5530590e-02
 -1.2842514e-01
  1.5494572e-01
  1.1584361e+00
  1.3301031e-02
  2.5575614e-02
  2.3572925e-01
 -1.3690737e-01
  1.1043879e-01
  1.0203711e-01
  8.9055426e-02
  2.1960478e-01
  6.8736840e-03
  6.6487706e-01
 -2.9473253e-02
  2.6372210e-03
  7.0804811e-01
  1.0248550e-01
  5.6042198e-02
 -2.7478131e-02
 -3.2110736e-02
 -1.8521813e-01
  1.4304049e-01
  9.2967677e-01
  1.4322215e-01
 -1.1335200e-02
 -1.0855962e-01
 -2.4444585e-01
 -1.5781993e-01
 -7.1746975e-02
  1.1694809e-01
 -2.8401585e-03
 -9.0680905e-02
 -8.6658532e-03
  3.4607226e-01
  1.9640329e-01
 -8.1632454e-03
 -1.7938383e-01
  2.4275873e-02
  4.2909745e-02
 -2.6207805e-01
  1.1423534e-02
 -1.0482683e-01
  5.5744803e-01
  7.9346769e-02
  5.9403609e-03
  8.2295394e-01
 -5.3180707e-01
 -1.4987715e-01
  5.4463053e-01
  3.2924780e-01
  1.0956290e-01
  5.8888417e-01
  3.2424012e-01
  2.5838742e-01
  1.0064737e-02
  1.9942622e-01
  3.3023041e-02
 -1.5598541e-02
  3.1882115e-02
 -2.6278490e-01
  4.0898945e-02
  1.5316264e-01
  6.4834277e-03
  7.0448801e-02
 -1.6014847e-01
 -1.6340656e-02
  5.9962951e-02
  7.8484029e-02
  3.7727225e-01
 -5.4272741e-02
  1.7112719e-01
  3.7899676e-01
 -4.0819281e-01
  1.7060860e-01
  5.8061939e-02
  1.4834064e-01
 -1.4713879e-01
  4.6534815e-01
  2.3601830e-02
 -9.6504100e-02
  9.1268264e-02
  8.6821996e-02
  1.0913835e-01
 -6.9047220e-02
 -2.5412068e-01
  4.2066988e-02
  2.1838253e-02
 -6.6208526e-02
 -2.2476738e-02
  4.3193230e-01
  5.7482082e-01
 -1.1757373e-01
 -1.0609280e-01
 -2.1330123e-01
 -1.6367044e-01
  3.1628567e-01
 -2.5594966e-02
  4.6387100e-01
 -1.4718873e-02
  3.6213264e-01
 -1.0918359e-01
  4.7267407e-01
  3.1208378e-01
  4.8600148e-02
  1.5930022e-01
 -3.9333482e-03
  7.2215617e-02
  2.2319122e-01
  1.2613684e-01
  2.1687420e-02
  1.1353324e-01
  1.1484596e-01
  6.2786490e-01
  1.5872878e-01
  1.1806183e-01
  8.1021525e-02
 -1.3283136e-01
  7.3093764e-02
  2.6829696e-01
 -6.6915691e-02
  1.1782009e-01
  9.1362149e-02
 -1.6392013e-02
  2.1141669e-01
 -2.8374901e-02
  2.9639950e-01
  3.0497935e-01
  1.9382356e-01
 -6.0085557e-02
  3.4252325e-01
 -1.3172903e-02
  3.1250438e-01
  3.7325892e-01
  5.3922299e-02
  2.9081208e-01
  5.3341597e-01
 -2.0604464e-01
 -1.0850644e+00
  1.1078234e-02
 -5.3598937e-02
 -3.8791191e-02
  8.5416429e-02
 -1.2805885e-01
  4.0098628e-01
 -6.9116071e-02
  3.0488536e-01
  8.1637837e-02
  1.8886900e-01
  5.4426815e-02
 -5.4164767e-01
  6.8494730e-02
  4.5947596e-01
  3.0070311e-01
  3.2884592e-01
 -4.2844963e-01
  2.3029125e-01
  4.4583681e-01
  6.1471105e-01
  4.9925163e-01
 -2.6756180e-02
  1.3221794e-01
 -9.1994539e-02
 -1.9484299e-01
 -1.3896476e-01
  8.1649132e-02
 -2.4679524e-01
  9.3360446e-02
 -1.2018737e-01
  3.6718693e-02
 -3.0447283e-01
 -3.7231615e-01
  4.5344800e-02
 -2.9070750e-01
  1.4276236e-01
  3.7318733e-01
  6.8327606e-01
  5.2769061e-02
  2.4302792e-02
  3.9431769e-01
  3.4855548e-01
 -2.3862763e-01
  2.2908287e-01
  4.1677850e-01
 -1.9827459e-02
  1.6952530e-01
  7.8047979e-01
 -7.6905057e-02
 -1.0426607e-01
  1.9288892e-01
  1.4349200e-01
 -2.1890587e-01
 -7.0618093e-02
  5.1947194e-01
  8.1343335e-01
  3.3974412e-01
 -3.2509496e-03
 -2.0273663e-02
  1.9785795e-01
 -1.2398072e-01
  4.2787841e-01
 -6.4947367e-02
 -1.9964091e-01
 -5.7139486e-01
  3.9915599e-02
  4.8059535e-01
 -1.5872146e-01
 -1.2364480e-01
  1.0436060e-01
 -2.7734773e-02
  3.3027336e-01
 -1.2456752e-01
  5.9492648e-02
  3.4867525e-01
  1.3856947e-01
 -1.5659986e-01
  1.6730030e-01
 -4.8026514e-01
  6.1007612e-03
 -2.0157608e-01
 -6.9866973e-01
 -8.3740193e-01
 -6.7931168e-02
 -5.0626379e-02
  2.7659747e-01
 -9.7552600e-04
 -5.3450506e-02
  6.5432809e-02
  2.2313659e-01
  2.6742836e-02
  7.2183058e-02
  7.1046837e-02
  2.0745853e-01
  9.7818792e-02
  1.5618229e-01
  4.0017474e-01
 -8.8094048e-02
  8.3928937e-01
  4.0298483e-01
 -1.2587589e-01
  5.4199949e-02
  4.4898996e-01
  2.4065068e-01
  2.1170150e-01
  7.7579595e-02
  3.6745857e-02
  3.8493854e-01
 -1.9021170e-02
 -6.4086819e-01
  1.6814785e-01
  3.8664231e-01
  4.9289674e-02
  9.3571573e-02
 -4.4198158e-01
  4.0673134e-01
 -2.0946866e-01
  1.1252889e-01
  6.7681301e-01
 -3.8246874e-02
  5.3021044e-01
  3.4609154e-02
  8.2116127e-03
  3.7215039e-02
  4.4727826e-01
  3.1702733e-01
  1.1558306e+00
  2.3739997e-01
  4.1858324e-01
 -1.9668683e-01
  1.1903492e-01
 -5.5170286e-01
 -4.6408637e-03
 -7.0033908e-02
 -1.1902123e-01
 -4.1031178e-02
  4.1369513e-01
  4.0981376e-01
  8.8536717e-02
 -2.7125057e-02
  4.7662705e-02
  1.2435479e-01
 -8.8956036e-02
 -1.5804206e-01
  1.5785156e-01
  4.5333788e-02
  1.9454142e-02
  1.7018279e-01
  3.5251993e-01
  1.0290961e-01
  1.8345283e-02
  8.9647239e-01
  7.0558089e-01
  4.5319197e-01
  4.7214601e-02
  3.6037609e-01
  2.3817118e-02
  2.7098501e-01
  3.5551038e-01
  8.7483257e-02
 -3.7586752e-01
 -3.0972362e-01
  1.7157896e-01
 -1.1993685e-01
  9.6448600e-02
  5.1378912e-01
  1.1861120e-01
  7.6572925e-01
 -2.2923985e-01
 -3.8716424e-01
 -3.1267324e-01
 -3.9389774e-02
 -1.0030792e+00
 -6.1752260e-01
  3.6562064e-01
  3.5982558e-01
  2.5354198e-01
  4.6738062e-02
 -1.4210165e-01
 -4.0455276e-01
  7.7794719e-01
  5.6911278e-01
  2.1107875e-01
 -7.4187022e-01
 -3.5983548e-01
  9.8579161e-02
  2.4724285e-01
  1.0456441e-01
 -2.0038393e-01
  2.7315645e-02
 -5.0071979e-01
 -8.4227480e-02
  8.2626738e-02
  3.0204138e-01
 -2.1696886e-02
 -3.2441956e-01
  1.8486640e-01
  7.9522550e-02
 -1.5840571e-01
 -2.1481363e-01
 -2.2794724e-01
  1.4359750e-02
 -6.6949189e-02
  9.5900176e-03
  2.8398156e-01
 -2.4343270e-01
  2.5354428e-02
  3.0523545e-01
 -2.0485479e-01
 -2.5394511e-01
  4.6962321e-02
  2.4845731e-01
 -1.6908468e-01
  1.8269080e-01
 -1.3597429e-01
 -4.4358158e-01
  4.3536834e-02
 -8.4278867e-02
  3.2613912e-01
  4.4357803e-01
 -1.8282861e-01
 -2.8944203e-01
  6.0043263e-01
 -7.6958287e-01
  7.2825950e-04
 -1.1536900e-02
 -9.7967750e-01
 -4.2378882e-01
  5.0201949e-02
  6.1531240e-01
 -5.7538867e-01
 -2.1350250e-02
  3.1802285e-01
 -6.8717146e-01
  4.9532414e-04
 -4.9780406e-02
  2.5076039e-02
  2.9205486e-01
  6.2086387e-05
 -4.8849702e-01
 -7.5456128e-02
 -2.5187304e-02
 -9.2664577e-02
 -1.2869693e-02
 -7.4590497e-02
  1.3897070e-01
 -6.0940411e-02
 -2.9746515e-01
 -9.9076733e-02
  2.6595240e-02
  6.0995001e-01
  4.0269306e-01
  2.4002673e-02
 -2.8438380e-02
  1.6650054e-01
 -5.1660734e-01
 -5.0178730e-01
 -4.1783020e-01
  8.3520740e-02
  7.9967184e-03
  1.0787340e-01
  9.1506861e-02
 -8.9731306e-02
  1.4877304e-01
 -1.9793205e-03
  1.4274293e-02
  1.7409748e-01
 -2.3721747e-02
  5.5438604e-02
 -6.1103421e-01
  2.7570415e-01
 -1.2912887e-01
  1.7990958e-02
  1.1474644e-02
 -2.6591575e-01
  3.8667433e-02
  2.3796761e-01
  1.1512835e-01
  1.5015112e-01
 -3.5979472e-02
  2.4682343e-02
 -6.1471060e-02
  4.9017992e-02
  3.5080738e-02
  1.6761955e-02
 -1.8192047e-01
 -7.0327125e-02
  5.8529079e-02
  4.7132331e-03
 -3.5507798e-02
  3.0388916e-01
  7.1850948e-02
  1.2370782e-01
 -5.6160256e-02
  4.0893340e-01
 -7.0867062e-02
 -1.0442697e-01
 -1.3076917e-02
 -3.9332826e-02
  2.3772398e-01
  1.7049949e-01
 -9.6282028e-02
 -2.5569955e-03
  1.5872581e-01
 -9.1282770e-02
  3.2705808e-01
  8.5708410e-01
 -9.2081875e-02
 -2.8831152e-02
  5.4020517e-02
  8.6267106e-02
  7.9633296e-02
 -1.5453558e-01
 -1.5355901e-01
  3.6935255e-01
 -1.7845115e-01
 -4.0080830e-02
  2.5997180e-01
  1.6698150e-01
  5.2686945e-02
 -1.9285191e-02
  2.1438967e-01
 -9.0225212e-02
 -4.2299193e-01
  1.3889635e-01
  3.3773962e-01
  3.1554013e-02
  4.8402943e-02
  2.0722779e-03
 -4.6136193e-02
  1.5599735e-01
 -1.0747708e-01
 -6.1470979e-01
 -5.7817572e-01
 -9.5569022e-02
  5.4638425e-04
  1.0776891e-01
  1.2924956e-01
  2.8722104e-01
  3.9082846e-01
  2.4058035e-01
 -9.3848132e-02
 -2.3635978e-01
 -3.3145949e-02
 -2.9884377e-02
  2.5732690e-02
  1.9805135e-01
 -3.5215163e-01
 -1.9270225e-03
 -1.1322185e-01
  3.4375843e-02
  2.8085646e-01
 -6.4055246e-01
 -2.8846996e-02
  9.4439939e-02
 -9.7371943e-02
  1.4361922e-01
  3.4350615e-02
  1.0348986e-01
 -6.8128914e-02
 -2.4318829e-01
 -6.0825814e-02
 -1.1956648e-02
 -1.5672746e-01
 -4.7146633e-01
 -9.8881021e-02
  4.2858094e-02
 -1.2973960e-01
  6.7272872e-02
 -1.5647222e-01
  1.3513966e-01
 -8.1438601e-01
  6.1683393e-01
 -2.4732020e-01
 -4.5271695e-02
 -1.3891579e-01
 -9.1567226e-02
  5.2639157e-01
 -1.0353947e-01
 -1.1588065e-01
  3.6662173e-02
 -5.2344378e-02
  1.8822335e-02
  7.2997129e-01
 -9.9272095e-02
  5.4914486e-02
 -2.0528838e-02
 -5.7898259e-01
  1.9550040e-01
 -3.4442836e-01
  1.5783671e-01
 -2.2478931e-01
  5.4678798e-01
 -2.0798454e-01
 -4.6217762e-02
 -5.2172571e-02
 -2.6849376e-02
 -2.8855404e-01
  1.0392561e-01
  4.2162967e-01
  3.2466841e-01
 -6.9869034e-02
  6.2606436e-01
 -3.9681472e-02
  3.1233725e-01
 -2.2540130e-01
 -4.1711256e-01
  6.8282685e-03
  2.1942912e-02
  6.0558427e-02
 -2.6714511e-02
 -3.0636123e-01
 -7.2057475e-03
 -1.5114845e-01
  2.3017670e-01
  1.7097386e-02
 -4.3753870e-02
 -1.1834939e-01
  4.4528224e-02
 -5.0337594e-02
 -8.8944323e-02
 -4.0010750e-01
  1.3079731e-02
 -1.6362658e-01
 -4.9142409e-02
 -1.3278316e-03
  9.9364787e-02
  1.3257688e-01
 -7.0849717e-02
  1.5787998e-01
  4.8188564e-01
  3.5054797e-01
 -1.0233052e-01
 -5.1646424e-03
  2.3665181e-01
  3.0652683e-02
  5.6056523e-01
 -2.4631315e-01
  4.5770773e-01
  7.4474595e-02
 -2.7726153e-01
  7.8195054e-04
 -9.0710418e-03
  1.0329647e-01
 -4.0834323e-02
  2.2413665e-01
 -1.6226165e-02
 -1.7855217e-01
 -9.8156482e-01
  1.2667426e-01
 -1.7258485e-01
  2.2042507e-02
 -5.0393781e-03
 -3.5720766e-01
  3.1699532e-01
 -5.5885834e-01
  5.0028926e-01
 -4.0058076e-01
  2.6542735e-01
 -1.6304199e-02
 -1.9636883e-01
 -5.9673682e-02
 -3.7377082e-02
 -2.9882817e-02
 -1.4800011e-01
 -6.5792143e-02
 -3.4765083e-01
 -7.4622803e-03
 -9.2381274e-04
 -6.1271697e-01
 -1.1842148e-01
  2.5330117e-01
 -1.5740196e-01
 -6.0918790e-01
 -9.5224939e-03
  2.0334813e-01
 -2.9667971e-01
 -3.6945987e-01
 -8.0102712e-01
 -9.8993704e-02
  3.8608897e-01
 -2.7366409e-02
 -4.2389625e-01
  1.4057321e-02
 -2.0069590e-01
  3.7838140e-01
  7.2359097e-01
  4.3856829e-02
  1.2029392e-01
  3.2069913e-01
  1.0659511e-01
 -3.8166103e-01
  2.6875062e-02
 -7.5912036e-02
  1.3272418e-01
 -1.2659252e-01
  4.1084427e-02
 -3.0084565e-01
 -7.3149341e-01
 -3.0334746e-02
 -4.4823721e-01
 -9.9628687e-02
  1.1082619e-03
 -3.8875869e-01
  3.7857345e-01
  5.5946283e-02
 -1.2739835e-02
  1.5240242e-02
  1.9580957e-02
  7.7282870e-01
  1.0415560e-02
  8.8642739e-02
  3.0382031e-01
  1.4794818e-01
 -8.3361734e-03
 -9.4206184e-01
  1.7370097e-02
  5.8285534e-01
  7.7052695e-01
  1.2303068e-01
 -1.1614388e-01
 -5.1132959e-01
 -1.6918853e-01
 -3.3292168e-01
 -9.2086092e-02
 -5.9956360e-01
 -3.1375107e-01
  6.5441477e-01
 -1.2990655e-01
 -1.8892940e-02
 -5.6876433e-01
 -5.6506568e-01
 -5.6925919e-02
 -5.1448081e-02
  3.9868289e-01
  1.1325293e-01
 -4.4043921e-02
  7.7400267e-01
  9.6158916e-01
 -3.6917806e-03
 -2.6402272e-02
  2.0718600e-01
  1.0698003e-01
 -1.7909837e-01
  8.5557468e-02
 -5.4109216e-01
  8.4459341e-01
  6.2828475e-01
  6.6019446e-02
 -4.5613626e-01
 -1.2541273e-01
  3.6885750e-01
  2.8948918e-01
 -1.8432008e-01
  7.4135047e-01
 -2.8785218e-02
  1.9131500e-02
 -1.9439084e-02
 -3.5408426e-02
 -3.1605744e-01
 -7.1314201e-02
 -4.0537983e-01
  1.6332653e-01
 -4.2669868e-01
  2.3242246e-01
 -1.7045361e-01
  3.3398110e-01
 -8.5196324e-02
 -2.0402679e-01
  3.5912818e-01
  4.7189794e-03
  1.8636934e-01
 -1.1234593e-01
  7.7205472e-02
  1.9662809e-01
  1.1053880e-01
  5.1219147e-01
  6.7183726e-02
  8.2533091e-02
 -3.6326718e-01
 -2.0996602e-02
 -2.9510796e-02
  9.9802285e-04
 -3.3630216e-01
 -4.7314796e-01
 -2.0639761e-01
 -3.4100652e-01
  7.2020650e-02
  9.0054676e-02
  1.8514428e-02
  4.2615718e-01
  2.5016108e-01
  7.6514035e-02
  3.1212777e-02
 -3.1405002e-02
  5.9541523e-02
  1.3421947e-01
  3.5126004e-01
  7.4625665e-01
 -1.8639328e-01
  5.7959624e-02
 -2.3393799e-02
 -1.1331880e-01
  3.2422823e-01
 -2.5209704e-01
 -1.2649338e-01
 -1.8789086e-01
 -4.6420742e-02
 -1.0502870e-01
 -4.3670917e-01
 -1.4090338e-01
 -4.5127046e-01
  8.6931430e-02
  7.7719383e-02
  1.2731013e-02
  5.3891563e-01
 -8.0515087e-02
 -3.1319275e-01
  4.3587616e-01
 -3.3893326e-01
 -5.4690534e-01
 -3.6548430e-01
  1.1878309e-01
 -9.5328122e-02
 -1.3548197e-01
 -3.7757173e-01
  8.8365227e-02
  3.7428726e-02
  1.5089536e-02
  3.6165228e-01
  2.0304233e-02
 -1.1383969e-01
  2.1136285e-01
  8.7844528e-02
  3.2734849e-02
 -4.0427896e-01
 -6.2160778e-01
  2.4526900e-01
 -5.9584183e-01
 -1.0246394e+00
  4.3959033e-01
 -1.2427931e-01
 -2.9413481e-03
  2.3628828e-01
 -5.8412727e-02
 -2.1520527e-01
 -2.5156133e-02
 -6.8434829e-01
  1.2700388e-04
  8.1472643e-02
  1.2442469e-01
 -1.5810754e-02
  1.2779941e-01
 -1.8868765e-01
  7.3811993e-02
  3.4731036e-01
  6.8044758e-01
  2.0566629e-01
  1.2827745e-01
  8.0939347e-01
  2.0590140e-01
  1.3374481e-01
  6.5007412e-01
  1.9828346e-01
  3.0873584e-02
  1.4334995e-01
  6.0906984e-02
  2.7944311e-01
  1.1777201e-01
  1.0621858e-01
  4.2652103e-01
 -2.8662855e-02
  1.6289446e-01
  3.7391189e-01
  5.7486776e-02
  2.5832784e-01
  5.5040874e-02
  2.5026286e-01
  5.1689661e-01
  1.6615050e-01
  3.4169257e-01
 -6.4329289e-02
  5.6095801e-02
  4.4654647e-01
 -6.3235924e-02
 -7.9668939e-02
 -1.3085650e-01
 -6.3548326e-02
 -1.1273906e-01
 -1.0466695e-01
  7.4633348e-01
 -6.1333172e-02
 -8.8677190e-02
  9.3454562e-02
  5.6346017e-01
  2.3150523e-01
 -1.6574914e-02
  4.8051581e-02
  1.2161392e-01
 -4.4438951e-02
  2.9151407e-01
 -2.5692657e-02
 -2.9995605e-01
  7.1438253e-02
  4.4633791e-02
 -1.4923486e-02
  3.0030707e-01
  1.2269571e+00
  1.0294436e-02
  1.5045246e-01
  3.1446714e-02
  9.7481996e-02
  9.0862013e-02
  1.7476171e-01
  7.1332890e-01
  1.0743477e-01
  1.2350498e-01
  3.0173589e-02
 -2.8771994e-01
  3.0024713e-01
  6.2778585e-02
 -1.5851703e-02
 -2.6423505e-02
  2.9971954e-01
  1.5886986e-01
  8.1400335e-01
  2.2193417e-05
  2.6912618e-02
  2.3928428e-02
  4.1383830e-01
  3.9384744e-01
  1.1532901e-01
  3.2343358e-01
  4.6561349e-02
  3.6936557e-01
  1.9564910e-01
  1.2689981e-01
 -1.0391505e-02
 -6.4249925e-02
  7.1768391e-01
  5.7320725e-02
  3.5236187e-02
  2.8144842e-01
 -4.6226274e-02
  1.4528200e-01
  1.3706386e-01
 -8.5526392e-02
  4.5997548e-01
 -6.9030158e-02
  8.6854595e-01
 -1.6948229e-02
  3.3969951e-01
  1.0882026e-02
  2.4076124e-01
  6.5116107e-01
  5.7699883e-01
 -1.0772746e-01
  1.3573651e-01
 -9.4720311e-03
  3.7129205e-02
 -2.6431984e-01
 -5.3327441e-01
  3.0902794e-01
  3.9406974e-02
 -4.5660261e-02
 -1.9581737e-01
 -1.1198245e-01
  1.3775799e+00
 -3.6655769e-01
  1.3760996e-01
 -1.3100523e-01
  2.2800234e-01
  2.7520019e-01
  8.3257443e-01
 -9.1366358e-02
  1.0689517e-01
 -5.0923735e-02
  1.7060762e-02
  2.0370649e-01
  1.0598189e+00
 -4.8324823e-02
  6.0156518e-01
  1.0001343e-01
  4.9464968e-01
  1.8540891e-01
  4.1134632e-01
  2.0919952e-01
  2.1591762e-01
  2.1659825e-02
  4.5496291e-01
  1.7004426e-01
  6.5016037e-01
 -3.5963405e-02
 -2.8794530e-01
 -7.5837886e-03
 -1.7395599e-02
  1.6597778e-02
  2.0299782e-01
  1.9974928e-01
  1.4674191e-01
  1.8934630e-02
  2.1293428e-02
  4.7374788e-01
  2.8618160e-01
 -1.9521901e-01
 -8.4018111e-02
  4.3220112e-01
  1.7703184e-01
 -1.2607284e-02
  3.3500877e-01
  9.8986670e-02
  7.5382903e-02
  1.5092617e-02
 -4.1645478e-02
  1.6460172e+00
  1.8740979e-01
  2.3685309e-01
  2.3136477e-01
 -5.6837946e-03
 -3.9121345e-01
  3.8783450e-02
 -1.7887250e-01
  4.6160108e-01
  3.9499730e-01
  1.1164964e-02
  2.8189369e-02
 -5.5481695e-02
  6.5406941e-02
  2.1771308e-02
  3.9738333e-03
 -9.3739718e-02
  6.0414028e-01
  4.7872686e-01
  2.0073904e-01
  2.6155797e-01
  7.1303979e-02
  5.9885513e-02
  1.0252601e+00
  1.9611724e-01
  5.3972715e-01
  3.5981748e-01
  2.8125289e-01
  7.5016111e-02
  3.7352026e-02
  5.2315521e-01
 -5.5291820e-01
  3.1331265e-01
 -2.1095946e-03
 -8.8772677e-02
  2.3404412e-01
  5.4544702e-02
  7.8753419e-02
 -2.0812584e-02
  4.1586545e-01
  9.9859938e-02
  6.0425985e-01
 -4.4734932e-02
  9.1166365e-01
  7.7818716e-01
 -7.5862468e-03
  2.4975729e-01
 -7.7006589e-03
 -6.0818833e-04
  9.8493528e-01
 -1.1134041e-01
 -1.3843250e-01
 -3.8695154e-01
 -6.6527553e-02
  1.7065901e-02
 -2.4070308e-01
  5.8444190e-01
  2.3685436e-01
 -1.0969264e-01
  5.0224638e-01
  6.2678039e-01
  8.8747782e-01
 -1.9911701e-02
 -1.8962596e-01
 -2.5254672e-02
 -1.7262982e-02
 -4.3888965e-01
  4.2349866e-01
  4.2084670e-01
  9.1829486e-03
  7.1804464e-01
  9.4737947e-02
 -9.7982269e-03
 -6.8167537e-02
  8.6100258e-02
  2.8279054e-01
  1.8370453e-02
  3.5073122e-01
  2.0256995e-01
  3.5404405e-01
  1.7609537e-01
  1.6320230e-01
  1.3321536e-03
  4.5111053e-02
  3.7420150e-02
  2.6616791e-01
 -4.9502435e-03
  5.1704757e-02
 -3.3776576e-03
  3.3788614e-02
 -1.3894551e-02
  1.8162990e-02
  3.3621398e-01
  1.6907005e-01
 -1.1910444e-01
  7.9800469e-01
  4.2237103e-01
  2.0068550e-01
  2.7667758e-01
  3.8702813e-01
 -2.5156198e-02
  5.9473123e-02
  2.6332918e-01
  1.5087846e-01
  8.3107516e-02
 -6.1659729e-03
 -1.2289423e-01
  1.1322085e-01
  3.5478309e-01
 -3.4428287e-02
  9.4264314e-02
  9.5066102e-03
  3.8072377e-02
  1.7142455e-01
 -1.1755396e-02
  2.8889048e-01
 -7.7470914e-02
  2.2833303e-02
  6.1071102e-02
  2.0893622e-02
 -5.6473839e-01
 -6.6873664e-03
  2.2076640e-01
 -4.1018289e-02
 -1.8440142e-02
  2.5224644e-01
 -6.4038134e-01
  5.2778256e-01
 -8.6091854e-02
  8.5872397e-02
  5.8502991e-02
  2.1328600e-01
  7.0686209e-01
 -4.2293306e-02
  1.3010316e-01
  4.5738137e-01
  6.2418424e-02
  4.9441111e-01
  9.6973494e-02
 -1.0530771e-01
  4.7770616e-01
 -1.5563874e-01
  2.8394231e-01
 -5.7864793e-02
  4.9952424e-01
  3.5771260e-01
  3.2747996e-01
  2.2428466e-01
 -1.5000924e-01
  1.8186980e-01
  3.2079434e-01
  4.6555489e-01
  5.9507155e-01
  3.7730694e-01
  5.1195484e-01
  5.8406156e-01
  5.9665896e-02
  5.4937005e-01
 -3.8282087e-01
 -5.5363245e-02
 -8.0036730e-02
 -3.5998625e-01
  9.1036156e-02
 -1.2922178e-01
 -2.0282616e-01
  6.8816441e-01
  2.7277714e-01
  5.0989825e-01
  1.0481750e+00
  5.4169393e-01
  5.8637153e-02
 -2.0266977e-01
 -9.4799157e-03
 -2.7337390e-01
 -2.5296414e-01
 -1.0500089e-01
  2.5604016e-01
 -2.6475552e-01
  2.9780778e-01
 -4.4973060e-02
  9.9972188e-02
 -3.7241921e-01
  1.0907861e-01
  2.3194700e-01
  8.7053113e-02
  1.0253770e+00
 -3.0737808e-01
 -2.1150003e-01
  9.2260726e-02
 -1.5590958e-01
 -4.3662038e-02
  3.9644886e-02
 -3.0172777e-01
  6.3246769e-01
  3.5853496e-01
 -1.8230657e-01
 -2.4377054e-03
  2.1776243e-01
  6.0062040e-02
 -5.2358571e-02
  2.0115730e-01
  8.5828930e-02
  4.9918368e-01
  3.1308436e-01
  4.7377542e-01
  5.0993681e-01
  2.1284892e-01
 -4.2990658e-01
 -7.7052608e-02
 -9.3141101e-02
  6.1748672e-02
 -1.6110143e-01
 -4.4625434e-01
 -2.1818569e-01
  1.7471339e-01
 -1.5551299e-01
 -9.9614374e-02
  1.8356760e-01
  1.8008681e-02
  2.6897544e-01
 -1.4340462e-01
  2.2221956e-01
 -1.0607544e-01
  5.7916272e-01
  1.8821004e-01
  2.8142812e-02
  4.2825052e-01
 -2.3105640e-02
  8.5333937e-01
  6.5332659e-02
 -3.9610234e-01
 -5.4869962e-01
 -4.8656836e-02
 -4.8029929e-02
 -6.4015426e-02
  8.4678906e-01
  3.4031680e-01
  5.2148956e-01
  1.2426291e+00
  2.0215599e-01
  5.9416336e-01
  3.0451724e-01
  2.5514078e-01
 -1.4959826e-01
  5.0835824e-01
  8.6495638e-02
  3.6525568e-01
  1.5860055e-01
 -1.7827282e-02
  6.8652183e-02
  7.9000425e-03
 -1.9503560e-02
  8.8056304e-02
  4.8847130e-01
 -2.6921767e-03
  4.2469287e-03
 -1.0431527e-02
  6.6039391e-02
  4.7702480e-02
  1.9947432e-01
  1.5686865e-01
  6.2212169e-01
  9.6401793e-01
  6.9338650e-01
  5.2126920e-01
  6.4635314e-02
 -4.7931403e-02
 -2.5935268e-01
 -2.3901373e-01
 -6.8337880e-02
 -3.5992479e-01
  3.4729259e-03
 -2.1510366e-01
  2.2547615e-01
  1.5139475e-01
 -8.2364483e-03
  3.9228940e-01
  5.3834522e-01
  4.4245654e-01
 -5.9718266e-02
  2.1227630e-02
  2.8373608e-01
 -1.6633343e-02
 -6.0586369e-01
  7.3664492e-01
  2.5483391e-01
  4.0983361e-01
  1.8271093e-01
 -4.7315478e-02
  2.8268269e-01
  1.3597153e-01
  1.1688126e+00
  1.7549032e-01
 -6.1074877e-03
  1.7966470e-02
  9.2872763e-01
  9.0069659e-02
  4.7043058e-01
  6.3014144e-01
  1.0162394e-01
 -1.7349984e-01
  2.5692111e-01
  7.1766563e-02
  4.6602193e-01
  3.9179209e-01
 -1.9559190e-01
  2.5116861e-01
  5.6031394e-01
  3.5633528e-01
 -4.0978763e-01
 -2.0243573e-01
 -4.0269904e-02
  4.2275748e-01
  9.6396768e-01
 -4.0387125e-03
  2.1039215e-01
 -2.9409721e-02
  9.7601600e-02
 -5.4648238e-01
 -4.2796573e-01
 -1.6508862e-01
 -1.1157838e+00
 -1.2326545e+00
 -3.0445620e-01
 -7.5752443e-01
  8.1192422e-01
  1.0532569e-02
  4.5198090e-02
 -1.0171428e-01
  1.1915639e-02
  4.8269638e-01
 -1.0512745e+00
 -1.1920832e-01
  5.4460201e-02
 -5.9137261e-01
 -4.5103752e-03
  1.5695275e-01
 -2.4947693e+00
 -4.8390543e-01
 -2.3472312e-01
 -4.0840682e-01
 -1.9730650e-01
 -1.4633633e-01
  9.3175095e-01
 -5.8510053e-01
 -2.4496524e-01
  1.3350275e-01
  2.8924583e-02
 -1.5483916e+00
 -2.0914689e-01
  2.6427254e-01
 -3.7339339e-01
 -6.8997431e-01
  1.5933360e+00
  7.6686315e-02
 -3.3341675e+00
 -6.4625317e-01
 -7.3197103e-01
 -1.1252497e+00
 -4.8488591e-02
  4.9674809e-02
  1.1813537e+00
 -1.8501990e-01
 -6.6049552e-01
 -2.1286504e-01
  1.8071229e-02
 -1.3909285e-01
 -1.0326634e-01
 -3.2105211e-03
 -1.6424352e-01
 -9.2412807e-02
 -8.3580561e-02
 -6.6895086e-01
 -8.9065653e-01
 -2.7985460e-01
 -6.5706916e-02
 -6.2345701e-01
 -5.5024020e-02
 -1.9404363e-02
  2.3670219e-01
 -5.2394528e-02
  3.1204164e-02
  5.6260049e-02
 -3.1854662e-01
 -8.2717918e-02
 -5.5176926e-01
 -9.6399939e-01
 -1.8470411e-01
 -6.2686071e-02
  6.3149389e-03
  1.4236374e-01
 -2.1865411e+00
  3.0265987e-01
  2.6406109e-01
  8.3369784e-02
 -1.3682106e-02
  1.4151195e-01
 -5.9035504e-01
 -2.6338892e-03
  1.8044624e-01
  4.3206755e-02
  3.0940738e-02
  2.0078528e-01
  1.9962519e-01
 -2.3692798e-02
  6.9696242e-03
 -6.1682286e-03
  7.1346596e-02
  2.0062076e-01
 -5.1013321e-01
  1.8942337e-01
  3.7566838e-01
  3.8365421e-01
  6.8134141e-01
 -3.4795979e-01
 -5.1646233e-01
  1.6195193e-02
 -7.5029649e-02
 -1.0603954e-01
 -1.4575829e-01
 -1.3607183e+00
 -9.9418169e-01
  4.9255550e-01
  1.9812605e-01
  2.1153576e+00
  4.2359123e-01
 -1.0389419e-01
  1.4982996e+00
 -8.2681388e-01
 -2.9112315e-01
 -1.6175780e-02
 -2.6479962e-01
 -8.7549847e-01
  2.7794650e-01
 -3.9542821e-01
 -2.9797125e-01
 -7.1425866e-03
  7.6524742e-02
  2.4395844e-02
 -5.7754618e-01
 -5.9880052e-02
 -1.0480835e-01
 -4.0520713e-01
