nep3 3 Mg Ni O 
cutoff 8 4 242 29
n_max 10 4
basis_size 8 8
l_max 4 2 0
ANN 30 0
  4.6553006e-03
 -1.1982727e-04
 -3.5972197e-02
 -1.2907295e-03
  5.7258406e-03
 -1.1041223e-02
  2.2181474e-02
 -2.5637576e-04
 -9.2504788e-03
  2.1600993e-03
 -3.9059650e-02
 -6.3869524e-01
 -3.1186894e-01
 -6.6722995e-01
  6.5681666e-01
 -1.2758090e+00
  2.0309587e-01
 -1.7812955e-01
 -3.5528719e-01
 -1.0386814e-02
 -5.2032328e-01
 -1.2787566e-01
 -6.0674584e-01
 -2.6968861e-01
 -1.7365929e-01
  1.6213831e-01
  8.0563641e-01
 -1.0307554e+00
  1.1935423e-01
 -6.6877805e-02
 -5.7893461e-01
  1.6495427e-01
  2.3909777e-02
  8.1341401e-02
  6.4942323e-02
 -4.5110933e-02
  1.0412216e-02
  9.5247746e-01
  8.5774712e-02
 -4.9915105e-01
  4.0507554e-03
 -1.1165068e-02
  1.1168687e-03
 -8.6104743e-02
  1.1702616e+00
  3.7925839e-03
 -1.3186208e-02
  3.8140092e-02
 -5.3008789e-01
  1.4346884e-02
  1.1216519e-02
 -7.0717737e-02
  7.1080908e-02
  3.1142625e-01
 -2.3750570e-02
  1.3019873e-03
  8.2393669e-02
 -2.3621490e-02
 -4.4598415e-01
 -3.8119529e-03
 -2.5695745e-02
  8.3303982e-03
  2.2417260e-02
 -3.1580828e-02
  1.9606739e-02
 -2.1184703e-02
  3.9595284e-02
  3.4861416e-02
 -2.4496992e+00
 -4.3977100e-02
  3.6274087e-02
 -1.4352331e-02
 -2.3569018e-01
 -1.9652487e-01
 -1.4435788e+00
 -9.3749486e-02
 -1.5579616e-01
  5.2251947e-01
  5.3794277e-01
 -6.2308359e-01
  1.0635082e-01
 -9.3420982e-01
 -4.1635120e-01
  2.5088152e-01
 -7.0289120e-02
 -4.7133628e-01
 -1.8334783e+00
 -5.2134377e-01
 -5.2931156e-02
 -4.2097088e-02
 -9.1758911e-03
 -5.4405189e-01
 -2.3339567e-01
  2.3135847e-01
 -3.5870782e-01
 -4.6167683e-02
 -1.3870212e+00
  1.0302874e-01
  1.2995570e+00
 -1.0992138e+00
 -9.9102974e-02
 -8.8376683e-01
 -3.7508732e-01
  4.2555321e-02
  1.6075243e-01
 -2.2273321e-02
 -6.7854814e-02
 -1.6985297e-01
  5.7786249e-02
 -3.3611974e-03
 -4.7986913e-02
  4.7721777e-02
 -8.5363321e-02
 -4.3700129e-02
  1.8287068e-02
  3.4031693e-02
 -4.6444435e-02
 -2.5654914e-02
  4.4312570e-02
 -4.9676642e-02
 -9.3281185e-03
 -1.2492338e-02
 -1.8653264e-02
  3.1330299e-02
  5.6109461e-03
  1.6254464e-02
 -1.0147926e-03
  1.3855446e-02
 -3.7400234e-02
  7.9022154e-02
 -3.2384958e-02
 -2.1992814e-02
  8.0841511e-02
  2.0077351e-02
  7.7852737e-03
 -2.2058144e-02
 -1.6397003e-02
 -1.0003033e-02
 -1.2509222e-03
  1.5191060e-02
  3.7209019e-02
 -7.8011803e-02
  1.4808077e-02
  1.7622869e-02
  2.2483183e-02
 -4.6786081e-02
 -2.0737708e-02
 -4.1429256e-03
 -3.1033531e-02
  4.4561077e-02
 -6.1339729e-02
  6.5478859e-03
 -2.5195046e-03
  1.2801380e-02
  5.0189216e-03
 -8.3406549e-03
  1.0665745e-02
  1.3307580e-01
  1.7890260e-02
  6.0247935e-02
  1.9772774e-02
  7.4615553e-02
 -2.5367737e-02
 -1.3070787e-02
 -6.8521569e-04
 -1.3385329e-02
  9.2321197e-03
 -6.3289204e-03
 -5.2881651e-02
  1.6631816e-02
 -7.1588601e-04
 -8.2269078e-03
 -1.9603429e-02
  1.1240313e-02
  2.9464580e-02
  6.1717372e-02
  2.8195769e-02
  5.7522975e-02
 -2.8378686e-02
 -1.5510269e-02
  2.1983450e-02
 -5.8826338e-03
  3.8794730e-02
  2.9110828e-02
 -6.7234379e-03
 -2.6380096e-02
  6.6884972e-02
 -2.0427229e-02
  1.8320180e-03
 -1.1274175e-01
 -5.1417433e-02
  9.3885493e-03
 -8.7233363e-03
  3.4256496e-03
 -2.4800863e-02
  7.1489858e-04
 -5.2056857e-03
 -6.3304625e-02
 -4.7272122e-03
  4.6734478e-02
 -1.4886870e-02
  3.0456498e-02
 -2.7439205e-02
  1.6887378e-02
  3.9376065e-02
 -1.4390683e-02
  4.9130440e-02
  3.2629913e-03
 -6.0085491e-03
 -8.0684256e-03
 -2.4074174e-02
  3.8087115e-02
 -4.0587515e-02
  3.8458988e-02
 -7.2302721e-02
  1.1046920e-02
 -4.6120688e-02
 -1.1794031e-01
  4.8443070e-01
 -1.0016354e-02
  4.7342602e-02
 -1.4995122e-01
 -1.3952065e-01
  3.5355058e-01
 -3.4774315e-01
  2.4308714e-01
  1.6952600e-01
  3.8003495e-01
 -5.8878154e-01
 -1.3657536e-01
  1.8713671e+00
  8.8887686e-01
  1.2309891e-01
 -7.3674053e-01
 -3.9916995e-01
  2.3208386e-01
  1.5596531e-01
  3.4124628e-02
  3.6203023e-02
 -8.6609298e-01
  1.1960037e+00
 -9.1440386e-01
  3.6562991e-01
  3.1033444e-01
 -2.4474254e+00
  2.1421957e-01
  8.8274610e-01
  9.5006665e-03
  3.6197877e-01
 -7.7594377e-02
  5.6797503e-03
 -7.2455093e-02
 -2.2752954e-02
  3.3588544e-02
 -2.7117026e-01
 -2.1977289e-01
  6.0228121e-02
 -2.1083936e-02
 -1.5494500e-01
  8.7220833e-02
  1.7522439e-01
  3.8114801e-01
  3.1420667e-02
 -6.9108546e-01
 -6.4609006e-02
 -3.3699781e-01
 -2.6858518e-02
  1.2127478e-01
 -3.6941081e-01
 -9.4542056e-03
 -1.1045727e-02
 -1.0312475e-02
  6.1451173e-01
 -3.8875464e-01
 -2.0002650e-01
 -6.8505337e-03
 -1.0379084e+00
  1.8184207e-01
  1.2313912e-01
  2.6990446e-01
  3.7643921e-02
 -1.4640285e-01
  1.1320489e-02
  6.6098318e-02
  1.2538552e-01
  8.3171017e-02
  3.5161745e-02
 -1.1864984e-02
  2.2354157e-01
 -4.9014273e-03
  6.8658435e-01
  7.3948540e-02
 -5.3263489e-02
 -1.8999118e-01
 -6.3272156e-02
  5.2465916e-01
  1.3442050e-01
  1.5789939e-01
 -3.6733645e-01
  1.0302782e-01
  2.6438221e-01
  4.7990039e-02
 -1.6044185e-02
  2.8746536e-02
 -2.5537354e-03
 -2.9970229e-01
  5.0655041e-02
  7.9771325e-02
  5.0674058e-02
  2.1849582e-02
  3.3762828e-02
  2.6257730e-01
 -9.7971521e-02
  1.7152952e-02
  1.0071579e+00
 -1.7854109e-01
 -8.1577096e-03
  3.9843720e-01
  1.5562548e-01
  1.6992019e-02
  1.9791974e-01
  2.0755302e-02
  1.4624330e-03
  5.0085045e-02
  9.7106937e-03
 -5.3722537e-03
 -2.7071571e-01
  1.4497376e-02
 -2.7401885e-02
  4.0403880e-02
 -1.2140409e-01
 -6.5235153e-02
  2.5868899e-01
  1.0668877e-02
 -1.2812316e-01
 -5.2450085e-03
  1.2607220e-01
  2.2089790e-04
  4.4758976e-03
 -8.4533738e-03
 -2.6786249e-02
 -5.0948546e-03
 -3.2900330e-02
 -6.3576281e-02
 -1.0033432e-01
 -8.7958947e-03
  7.4495692e-03
  4.8089851e-02
 -5.3087987e-02
  2.2099710e-03
 -2.5955984e-02
  6.8664543e-02
  4.2816363e-02
  8.6589595e-03
 -4.5091245e-02
  4.0595293e-02
 -1.3704715e-02
  1.7179480e-02
 -1.0959113e-02
  3.1848764e-03
 -1.6626467e-03
  3.0958727e-02
  1.8139631e-02
  1.3258930e-03
  1.4947760e-03
 -1.7282261e-02
 -1.2785040e-01
  7.8110103e-03
 -3.6438383e-02
  4.5063958e-02
  5.4365776e-02
 -4.5039106e-02
  3.2217111e-02
  3.6884453e-02
  6.4485967e-02
  3.2632675e-02
  6.6861225e-04
 -1.8956808e-02
  1.0597651e-02
  5.0758932e-02
 -1.2280873e-02
  1.0843609e-03
  1.7399501e-02
 -2.6698675e-02
 -1.7954839e-02
 -2.9366469e-02
  2.0053649e-02
  1.3945883e-02
 -2.9544584e-02
 -2.8589187e-04
 -5.9460513e-02
  6.1217673e-02
  1.6947992e-02
 -6.7836343e-04
  4.5482293e-02
  4.8004297e-04
 -7.4270181e-04
  2.4925824e-03
 -4.0424619e-02
  9.5457314e-03
  5.0561833e-03
 -1.2448023e-02
  2.8661106e-02
 -2.2746131e-02
 -6.8857954e-03
 -5.5540215e-02
  8.9379415e-02
 -3.7373472e-02
 -6.1393291e-04
 -3.5099678e-03
 -1.5400349e-02
 -6.4308355e-03
  1.0425799e-02
 -1.3527081e-02
  3.8331501e-02
  3.8942654e-02
  4.6135751e-03
  1.5992604e-02
  1.8387634e-02
  5.2940354e-02
  1.7940333e-02
  4.7906354e-02
 -3.2096718e-02
  1.9709619e-02
 -2.1546898e-02
 -4.3777492e-02
 -3.0362697e-02
 -1.7937880e-02
  1.8537514e-03
 -7.1910933e-02
 -9.1651129e-03
  4.7535885e-02
  1.8217787e-01
  1.8518731e-01
 -1.3193059e-01
 -1.6769890e-02
  2.2634154e-02
 -9.3185730e-02
 -2.1516353e-01
 -6.9934294e-02
 -1.4854251e-02
  2.1608405e-01
  3.9677325e-01
 -8.2272547e-01
 -4.6701029e-01
 -1.0127612e-01
  2.8440163e-01
  5.6523595e-02
 -4.8404410e-01
  2.7488779e-02
 -2.7699319e-01
  6.4007728e-03
  4.1109651e-02
  8.2984382e-01
 -1.1944301e+00
  2.2468974e-01
 -6.0896939e-03
  7.4501187e-01
  1.3734165e+00
 -2.2928624e+00
  1.1030568e+00
 -5.0521344e-01
  7.1079844e-01
  2.1619754e-01
  1.7563331e-01
 -2.1179783e-01
  1.4551011e-01
 -3.1447668e-02
 -1.0444166e-02
  2.2474103e-02
  9.9655986e-03
  1.7280409e-02
  4.4843949e-02
  1.3697221e-02
  2.9986432e-02
  2.3224369e-02
 -8.5437493e-03
 -2.5021372e-02
  2.8319859e-03
  2.9146926e-02
 -2.1319738e-02
 -2.2992318e-02
 -1.5871886e-02
  2.6494347e-02
  2.9747792e-02
  6.4172961e-02
 -5.5229012e-04
  1.9995626e-02
 -2.7168790e-02
  2.9951971e-02
 -1.9872839e-02
 -4.6292752e-02
 -3.5933387e-02
 -4.7695180e-03
 -4.3117806e-02
 -1.0900851e-02
 -8.0670081e-03
 -2.0966142e-02
  6.7275595e-03
 -5.3927819e-03
 -9.1090035e-03
 -4.2248681e-02
  9.1990875e-03
 -6.4501598e-02
  3.2993026e-02
  4.6388395e-02
 -8.0212496e-02
 -5.6141477e-02
 -6.3794777e-02
 -2.7226400e-02
 -3.4295622e-02
 -7.8871280e-02
 -5.0067287e-02
  1.7846188e-01
  1.4943169e-02
 -3.2944080e-01
 -2.5244525e-01
 -1.3964478e+00
  6.7334443e-01
 -9.6239763e-01
 -2.1575722e-01
 -4.1908848e-01
 -9.7837353e-01
 -3.1056109e-01
 -3.4074232e-01
  2.4745741e-01
 -1.1009248e+00
 -1.6683472e+00
  1.1864855e+00
  1.2972575e+00
  1.8923119e+00
 -1.3943496e+00
 -2.8493294e-01
  4.0876508e-01
 -5.7275492e-01
  5.2898008e-01
  7.1783227e-01
 -5.5685728e-03
  1.6433489e-02
 -3.2347423e-01
 -3.0085051e-01
  3.0870241e-01
  4.5528266e-01
  2.1824706e-01
 -3.5253134e-01
  1.7288361e-02
  5.8297142e-02
  2.2300545e-02
  8.1421018e-02
  2.0283419e-01
 -2.3341028e-01
 -1.6371928e-02
  2.7310950e-01
 -1.4190501e-01
  3.3703137e-02
  2.5255373e-01
 -8.4751705e-03
  4.0507045e-01
  1.2419511e-01
  1.4819676e-01
  7.6417166e-01
  1.8578558e-01
 -1.4293256e-01
  1.3310097e-01
 -8.7485768e-02
  1.2722276e-01
 -2.0578109e-01
  3.6649238e-02
  5.6122732e-01
 -5.2091092e-02
 -3.5057529e-03
 -1.1112110e-02
 -6.3020296e-02
 -5.6927860e-02
  1.2986049e-02
  5.3822803e-03
 -7.1662404e-02
 -8.3138205e-02
  4.4173956e-01
 -2.0999385e-02
  6.5777250e-02
 -1.1996565e-01
 -5.6043737e-02
  4.2265740e-01
 -1.5192269e-01
  6.0084902e-02
  9.9711418e-02
 -3.7037969e-01
  5.4864293e-01
  5.0586021e-01
  1.4340113e-01
 -2.2213143e-01
 -1.5544778e-01
  8.5448392e-02
  2.1157026e-01
  5.0480992e-02
 -3.0968288e-02
 -4.5862231e-01
  1.1252774e+00
  7.3866558e-01
 -1.8428729e+00
  2.0514585e-01
 -1.9291673e+00
 -1.1300589e-01
  4.5998335e-01
  3.5970053e-01
  9.0439826e-01
  1.0079899e-01
  1.2595649e-01
 -2.8187567e-03
  2.9983167e-02
 -8.5251983e-03
  5.4724962e-01
  1.8604944e-02
  9.1580987e-01
  3.8214439e-01
  5.0438535e-01
 -9.2508145e-02
  1.2261254e-01
  7.1796449e-03
  6.2186015e-01
  1.8243243e-01
  4.7874719e-02
 -3.7702369e-03
  4.9105763e-02
 -2.4824718e-02
  3.8886119e-02
 -2.0036098e-02
 -1.0389735e-04
 -5.6344178e-02
 -1.6707664e-02
  9.2340475e-03
  3.3267006e-02
  1.2117670e-03
  2.0212304e-02
  1.7067753e-02
  8.3342113e-02
  8.5789531e-02
 -1.1051884e-02
  1.3090224e-02
  8.9631248e-03
 -2.8598890e-02
 -1.4351659e-02
  9.6370038e-03
 -9.5728394e-03
 -1.5170231e-02
 -1.1495311e-01
  3.9297850e-03
 -4.5323259e-01
  1.0821881e-01
  9.5799184e-01
  2.4401677e-01
  7.1546413e-02
 -2.9197758e-01
  3.4826066e-02
  8.2468599e-01
 -1.9713418e-01
  7.5805224e-02
  8.1160754e-01
 -6.7401606e-01
 -1.4499632e+00
  2.7612075e-01
  3.1742450e-02
 -8.7098572e-03
 -3.0251333e-02
 -3.7424684e-01
 -2.1367227e-01
  7.5368339e-01
 -4.3977758e-01
  1.2206575e-02
 -3.7563083e-01
  2.3682784e-02
  4.0195325e-01
 -5.9326727e-02
  1.6424144e-02
 -2.5994100e-02
 -5.0519564e-04
 -5.4288511e-03
  2.1169314e-01
  5.7508338e-02
 -5.4021657e-01
  2.5947701e-02
  1.0430480e-03
  8.5600624e-03
 -2.0669091e-02
  1.4563726e-01
  9.1413200e-02
 -1.1126370e-02
  2.7780354e-01
 -1.9224102e-02
  3.7193879e-02
  6.6914141e-02
 -3.2072529e-02
 -1.5078703e-01
 -1.4632742e-01
  3.4487745e-04
 -1.2676403e-02
 -2.8169185e-02
  2.3959722e-02
 -8.8818289e-02
  1.4677252e-01
 -7.2556615e-01
  7.3596713e-04
 -3.2615464e-02
 -3.3766441e-02
 -1.9720037e-01
  4.6943389e-02
 -5.2773807e-02
  8.4419049e-02
 -6.9359116e-02
  2.4315396e-02
  1.5920158e-03
  1.5401654e-02
  4.1288961e-02
  1.9655868e-02
 -4.7076222e-02
 -5.6100570e-02
 -7.7597536e-02
 -2.8273007e-02
  8.9297426e-04
  4.5800003e-01
 -3.8808921e-01
  1.2753478e+00
  9.9449836e-02
  2.2547680e-01
 -3.1631500e-01
 -3.7670276e-01
  6.7026550e-01
 -4.8528171e-01
  1.2552436e-01
  3.2857105e-01
  8.2144968e-02
  4.9890664e-01
 -1.9336635e-01
  2.2317521e-01
  1.8203716e-01
  8.2239681e-01
 -2.2099955e-01
  1.6068277e-01
  3.6705423e-02
  4.7350645e-02
  2.9940546e-01
  2.9869673e-01
 -7.9486873e-03
  8.4866047e-02
  8.4011316e-01
 -8.1817284e-02
  1.4258889e+00
  8.0791546e-04
 -2.5231263e-01
  9.0242749e-01
 -3.0221632e-02
  5.4583573e-01
 -3.9563826e-03
 -8.5538159e-05
 -1.1283932e-01
 -6.2872344e-01
  5.2520168e-01
  5.8963586e-02
 -1.1389515e+00
 -3.1563818e-01
 -2.3888260e-01
  5.0925708e-01
 -5.2944106e-01
 -2.2357562e-01
  4.2738754e-01
 -4.5754161e-01
 -2.5769176e-03
  1.6551587e-03
 -7.7711076e-02
 -4.1502904e-02
  4.4523716e-02
  9.9659143e-03
 -1.1206955e-01
  5.2799755e-03
 -1.6216823e-01
  1.9232234e-01
  4.3696943e-03
 -4.8750311e-02
 -9.2699239e-03
  3.3110242e-02
  3.9502647e-02
  5.5339010e-03
 -9.0700112e-02
  3.4250662e-01
 -8.1037469e-03
 -2.3550738e-02
  3.1738803e-02
  6.1432306e-02
  2.8359588e-02
  3.2505024e-02
 -9.6354994e-04
 -5.2234900e-01
  3.0293649e-02
  2.3187205e-01
  1.6608648e-01
 -3.1847093e-02
  2.6229081e-01
  3.5997909e-01
  1.7435206e-01
 -5.4801337e-02
 -6.4774281e-01
 -7.6641846e-01
  4.5770937e-01
 -2.0942652e-01
 -3.3476704e-01
 -3.2972544e-02
 -5.7931304e-02
 -1.3749480e-01
  6.9259775e-01
  3.4366392e-02
 -6.0544282e-01
 -9.5972352e-02
 -1.1446925e-01
  5.9096408e-01
 -4.3049270e-01
 -2.9213514e-02
 -8.7248683e-02
 -3.8746724e-01
  4.0368024e-02
 -2.1100597e-01
  2.4225960e-02
 -3.4358528e-01
  7.4659591e-03
  1.3735461e+00
 -8.3793066e-03
 -2.6390750e-02
  1.7667843e-02
 -1.7227216e-03
  1.5372992e-02
 -5.2214432e-01
  3.9745253e-02
 -1.5442458e-01
  5.7101226e-01
 -3.1556405e-02
 -6.7641489e-02
  1.1989514e-01
  6.9459431e-02
 -8.0657914e-02
 -1.4550335e-02
 -1.0342208e-01
 -1.1444987e-02
  8.7601747e-03
  3.9071269e-02
 -5.1427815e-02
 -4.1245681e-01
 -3.0237965e-02
 -7.5868070e-02
  1.7739750e-02
  7.2377245e-04
 -2.8845856e-03
  5.5739634e-02
 -1.3203500e-01
 -1.7779477e-02
  6.7006908e-02
 -4.6591205e-03
  8.2968147e-03
  3.1953115e-02
  1.3818845e-02
 -1.6458834e-03
 -8.0398306e-02
  1.4064657e-03
 -4.9888860e-03
  2.7854852e-03
 -1.1776983e-01
 -4.8737538e-01
 -1.2723014e-01
 -3.5142176e-02
  1.0426543e+00
  3.2293245e-01
 -2.7169549e-01
 -7.3291028e-01
 -1.0327122e-01
 -2.9385015e-01
  4.7202948e-01
 -7.5822964e-02
 -8.3604060e-02
 -1.0851825e-01
  2.7399412e-01
  4.9518126e-01
 -1.5783165e-01
  3.5479948e-01
 -2.1948698e-03
  3.9471519e-01
  5.8258115e-03
  1.4369495e-01
  1.3648259e-02
 -6.2087578e-01
  1.8322319e-02
 -5.6828547e-01
  5.4137412e-02
  1.0159764e-03
 -3.4215003e-02
  3.8255882e-01
 -7.0854968e-01
  4.7609508e-02
 -3.6402050e-01
 -3.9639272e-02
 -1.2919877e-02
 -1.0398185e-01
 -1.5425455e-02
  3.7575820e-03
 -7.8412563e-02
  2.0555048e-03
 -5.3007599e-02
  6.1152071e-02
 -1.0187034e-01
 -3.0564904e-02
  2.7438675e-03
  2.1445235e-02
  9.9505097e-02
  3.1795260e-02
  8.1727766e-03
 -1.9230125e-02
 -9.1894455e-03
  1.6376504e-01
 -2.9519990e-02
 -3.0302980e-03
 -3.8146917e-03
 -6.5495181e-03
 -3.4980869e-03
  1.2572027e-04
 -2.4166442e-02
  2.6428906e-02
  1.8669879e-02
 -1.7350967e-03
  7.9199329e-02
  4.3931462e-02
 -1.8396588e-02
  1.9291060e-02
  2.5206469e-02
  2.0692978e-02
  7.5899847e-03
  2.4686465e-02
  1.4384019e-02
 -1.4536131e-02
  2.8531693e-02
  2.3081905e-01
  2.7412716e-03
  9.4421498e-02
  2.6637889e-02
  5.2858703e-02
 -2.5790855e-01
 -2.9708225e-02
  2.4123779e-02
 -2.6629797e-01
  8.6660691e-02
  1.3714670e-02
  3.2092754e-02
  5.9350944e-01
  1.6628021e-01
  8.2183254e-01
 -8.9578056e-01
  5.7422334e-01
  5.8371735e-01
  4.6139145e-01
 -3.7823405e-02
  6.5134639e-01
  7.6748258e-01
  1.2184293e+00
  5.1682258e-01
 -9.2481216e-03
 -2.4418978e-01
  6.5337457e-02
 -5.7621149e-04
  5.4734312e-02
 -1.2711235e-02
  5.7097883e-03
 -1.3604156e-02
  1.8724982e-01
  3.1230126e-03
  2.2682190e-02
 -3.3892576e-02
 -1.0578580e-01
  2.2852209e-01
  6.3479923e-02
 -4.0744099e-01
  3.8228640e-01
 -6.5639637e-02
  4.8506749e-01
 -7.7069503e-01
 -1.3865368e-01
  1.5864846e-01
  2.1054062e-01
  3.3396682e-01
 -2.3345812e-01
  1.9357841e-02
  1.5968961e-01
 -3.3332747e-01
  1.7188706e-01
 -3.3606717e-01
  3.4912843e-02
  3.7053004e-01
  3.8536873e-02
 -1.5615930e-01
 -5.6669131e-02
  1.6324948e-01
  1.8827200e-01
 -4.7263019e-02
 -1.7858519e-01
  1.4117175e-01
 -1.6783707e-01
 -7.7386767e-02
 -2.5691912e-01
  7.0550285e-02
  1.2301454e-02
 -1.0224699e-02
  1.6107123e-01
 -4.6720967e-02
 -5.4834110e-01
  7.8971028e-01
 -6.2116396e-01
  1.9297639e-01
 -6.3121438e-02
 -9.1145774e-03
 -1.4234973e-01
  1.4434321e-01
  1.9418581e-01
  5.0483465e-01
  6.3436344e-02
 -1.4897466e+00
  9.7093338e-01
 -3.2875493e-02
 -1.0821018e-01
  4.1025695e-01
  1.9378608e-01
  4.3691345e-03
 -1.8381296e-02
  4.4506544e-01
  3.1278032e-01
 -9.7643143e-01
  8.2738906e-02
 -2.9274514e-01
 -7.6939307e-02
  1.9520023e-01
 -8.2573795e-01
 -2.1460427e-02
 -7.8069441e-02
  7.3069163e-02
  3.8049850e-03
 -2.6518190e-01
  3.6285797e-04
  3.4928679e-02
  3.4799203e-03
  3.7120551e-02
 -1.4482781e-02
 -1.6313895e-03
  1.6135009e-02
  3.3715136e-02
 -4.6064962e-02
  2.7554436e-02
 -1.4341339e-02
 -9.9626139e-02
 -2.0580487e-03
 -3.4381642e-03
 -1.5782465e-01
  2.3599869e-02
  6.2268283e-03
 -4.0494066e-02
 -1.0465628e-01
  8.9135179e-03
 -1.3958234e-01
  5.5534121e-02
  5.9248161e-02
 -1.3292219e-02
 -7.6597713e-02
 -7.4172907e-02
  3.6739051e-02
 -6.9410004e-02
  6.0659487e-02
  8.6901456e-02
 -2.1297261e-02
 -3.1144936e-02
  7.3319137e-02
  1.5236834e-02
  1.6597562e-02
 -9.4144484e-03
  2.4530789e-02
 -5.6122415e-02
 -8.5309401e-02
 -1.1437552e+00
 -1.4895691e-01
 -4.5677304e-01
 -1.2598948e-02
 -5.0809821e-03
 -6.9644344e-03
 -7.0784473e-01
  8.2204245e-02
 -4.2366873e-02
 -1.3286858e-03
  2.4797179e-02
  1.9748762e-02
 -5.5684710e-01
  5.5671636e-02
  9.3266344e-01
 -1.3381827e-02
  3.0786747e-01
  1.1183825e-02
  1.3914321e-02
  3.1916317e-02
  1.5470455e+00
 -3.7677988e-01
  1.4013362e-01
  1.5287617e-03
  4.2177501e-01
 -9.3931124e-02
  1.1938056e-01
 -1.9191134e-01
 -1.2788073e+00
 -1.1331527e-02
 -9.3131912e-01
 -6.6279423e-01
  6.5344650e-01
  5.3059887e-03
  2.5534216e-02
 -1.2138413e-02
 -7.3491657e-01
  1.2439002e-01
  3.1956050e-01
  3.3393659e-02
  1.1457342e-02
  1.1373828e-02
 -3.6325231e-01
 -5.3676711e-03
 -3.7580228e-01
  4.3856308e-01
  8.3099413e-01
 -5.0873883e-02
 -3.5252616e-01
 -2.4298459e-02
  4.8407832e-01
 -6.1668146e-02
  4.8099998e-01
  5.0061028e-02
 -4.2558292e-01
  1.1161840e-02
  9.7138457e-02
 -5.7022214e-01
 -2.7161682e+00
 -1.4224185e-02
  1.8242665e-01
 -1.1241791e-02
 -5.0828539e-02
 -8.2175696e-01
 -2.9387947e-02
 -9.7006373e-02
 -8.0923736e-01
 -1.0910752e-01
 -6.8833582e-02
 -1.1084248e+00
 -4.1450273e-02
 -2.6975375e-02
  7.2830714e-02
 -1.9800819e-02
  2.3210535e-02
 -7.9401180e-02
  3.0151984e-01
 -1.3339396e-02
  8.3112545e-02
 -1.6821126e-02
 -1.1161149e-02
 -3.1352039e-02
  4.7494888e-02
 -1.1297951e-02
 -1.7937724e-01
 -1.3832831e-01
  2.2258548e-01
 -1.2172141e+00
 -8.7581547e-03
 -4.3233983e-02
 -2.3387051e+00
  1.2760179e-02
 -2.6342737e-02
 -3.4259754e-01
 -1.3386072e+00
 -4.8157179e-01
  1.0386009e+00
 -4.7634298e-01
 -4.8190638e-02
 -3.0308146e-02
 -6.0480945e-02
  3.7360672e-02
  2.2885058e-02
  1.0123599e-02
 -9.4667542e-01
 -3.8148862e-01
  8.8166483e-03
 -5.8664113e-02
  1.2604671e+00
 -2.9739991e-02
 -7.6001227e-02
 -2.6303577e-01
  8.3722186e-01
  9.6152037e-02
  1.4456849e+00
  3.2150096e-01
 -3.4337163e-01
  5.7294500e-01
  6.5774946e-03
 -8.5946150e-02
 -1.3328689e-01
 -1.3217546e+00
 -6.1857158e-01
  8.8884628e-01
  1.2238981e+00
  3.9386414e-03
 -8.4004676e-01
 -7.3984757e-02
 -2.9144185e-02
 -3.8701596e-03
  1.8412024e-01
 -5.5841070e-01
  1.1514628e+00
 -3.7421173e-01
 -1.4165178e-01
 -4.5808461e-01
 -4.7575932e-02
 -2.0839626e-02
  4.8514795e-03
 -3.4317946e-01
 -1.9508460e-01
  1.3881581e+00
  6.0649902e-01
  4.8377246e-02
 -1.0243795e+00
 -2.2686608e-01
  1.4038132e-02
 -5.5265814e-01
 -5.9227371e-01
  2.8010347e-01
 -5.1597995e-01
 -2.6490008e-02
 -6.7447554e-03
  1.7996930e-02
 -5.7892047e-02
 -3.3416454e-02
 -2.2116877e-02
 -2.0563636e+00
 -6.3303751e-01
 -3.7866175e-01
 -5.3120321e-01
  2.1329144e-05
 -1.7982133e-01
 -4.0512368e-02
  4.7934774e-02
  1.5594171e-02
  1.5719862e+00
  2.9582307e-01
 -7.4467462e-01
 -2.7377665e-01
  4.8705935e-02
 -1.0780011e-01
 -6.6967562e-02
 -2.9475060e-01
 -1.0170858e-01
 -2.9589587e-01
  4.5801842e-01
 -7.1070582e-02
 -1.8837079e-01
 -1.4908665e-02
 -2.6980397e-01
 -3.6968805e-02
  1.9874109e-02
  7.8320511e-02
 -7.4288183e-01
  1.3362224e+00
  1.1211090e+00
  7.3937215e-03
  7.2495759e-02
 -4.1568860e-01
  3.6363363e-02
 -1.7285924e-02
 -3.0290809e-01
  7.7622724e-01
 -5.2508754e-01
 -9.1606230e-01
  3.3555232e-02
  6.7313567e-02
 -8.2757257e-02
 -1.4578303e-02
 -3.5762843e-02
 -1.8687321e-01
  1.4708097e+00
  1.3900390e-01
  1.1474568e+00
 -1.7607713e-01
  2.9977378e-02
 -6.3706672e-01
  1.7241527e-03
 -8.6085960e-02
 -4.0720534e-02
  8.9094138e-01
  2.4665794e-01
 -1.8079762e-01
  3.3660091e-02
  4.8462776e-03
 -1.2902081e-01
 -3.0248094e-02
  3.8097776e-03
  1.0296038e-01
  7.0781320e-02
  8.0157644e-01
  7.7527648e-01
  1.7688055e+00
 -1.1876254e-02
  1.7615175e+00
  8.2592005e-01
  1.7789778e-01
  7.4115139e-01
  6.2115359e-01
 -3.8098508e-01
 -1.6493347e-01
  5.4108225e-02
  7.7303546e-03
 -1.8894351e-01
  4.0185158e-03
  8.0766398e-03
  1.2711704e-01
  7.5057364e-01
  7.9264230e-01
 -4.7982350e-01
 -1.6133301e-01
 -1.0818919e-02
  1.3387364e-01
  8.3224932e-03
  1.7782108e+00
 -2.9922256e-03
 -1.5605999e+00
 -7.1010488e-01
 -2.5165972e-01
  1.6199436e-02
  1.7804940e-01
 -1.0081869e+00
  1.4104149e-01
  3.5669509e-01
  7.1743652e-02
 -4.6657121e-01
 -7.1708816e-01
 -8.4982306e-02
  1.1790712e+00
  4.7658734e-02
  7.3371814e-03
  2.4889140e-01
  7.7940576e-04
  1.5218662e+00
  9.8162633e-01
  1.7809353e+00
  1.3697565e-01
 -1.5341997e+00
  3.3037732e-03
  7.3628777e-01
  3.1151637e-02
 -3.9498633e-01
  2.8069619e-02
  5.1912218e-01
  9.3517286e-01
  3.7098607e-01
 -9.8233944e-01
 -5.4130140e-03
 -2.7363881e-01
  2.4921626e-01
  1.4554222e-01
 -6.4255334e-02
 -2.9156375e-01
  8.0293918e-01
  1.4730572e+00
 -4.7389567e-01
 -1.3195650e-01
  1.1304854e+00
  1.4340752e-01
  6.2072092e-01
  1.4556951e-02
  4.8101872e-01
 -2.0395328e-01
 -7.1474677e-01
  1.2729149e+00
  5.7902221e-02
  8.9741641e-01
  4.9727604e-02
  7.0376998e-01
  2.1213872e+00
 -1.2789570e-01
  6.5003872e-02
 -8.4344912e-01
  8.4807128e-03
 -2.9704826e-02
 -8.1005702e-03
 -2.5939198e-02
  6.3319430e-02
  7.6086447e-03
  2.0193082e-01
 -5.4131126e-01
  2.3742780e-02
 -1.4322420e-03
  6.5752524e-03
 -6.5950856e-02
 -1.0608041e-02
 -2.6756451e-02
 -3.1565111e-02
 -4.8856193e-01
  2.1578584e-02
  1.4524834e-01
 -2.8517423e-02
 -8.4337167e-04
 -1.8333539e-02
 -1.0776706e-01
  1.2126036e-03
 -8.6155266e-02
  2.6868102e-01
  4.5872558e-02
 -4.0877098e-01
 -9.7747274e-02
 -1.4932245e-02
  2.9222716e-02
 -7.8322887e-02
 -7.2427534e-02
 -3.8829199e-03
  5.3122622e-01
  2.7489999e-01
  1.3082825e-01
  2.3117742e-02
  4.2580076e-02
 -1.4866957e-01
 -2.8018894e-02
 -3.2827023e-02
 -8.0816410e-02
  9.4232655e-01
 -4.9063176e-01
  2.1333890e+00
 -7.9018548e-03
 -8.0232002e-02
 -1.0603076e-01
 -1.2815298e-01
  4.4188746e-03
  3.0039351e-03
 -5.8658034e-01
  7.6001855e-03
  3.9743856e-03
 -1.8649933e-01
 -1.4486231e-02
 -7.1821973e-02
  2.1616489e-02
  1.8365677e-02
  2.6862863e-02
 -3.3874968e-01
  1.1553019e-01
  1.1094183e+00
 -4.3982413e-02
 -9.4135061e-02
 -5.2964285e-02
 -9.5351012e-03
 -8.7547585e-02
 -7.9043850e-02
 -7.1248454e-01
 -3.2010898e-01
 -2.0255330e+00
 -6.4762585e-02
 -1.0947733e-02
  6.6084236e-02
 -1.4044277e-02
 -4.0370461e-02
  2.7318675e-02
 -8.0095452e-01
 -2.7289775e-01
 -9.3670040e-01
 -1.1215012e-02
 -2.1673556e-01
 -1.0457544e+00
  4.1747824e-03
 -5.0268662e-03
 -1.3828584e-02
  8.4557258e-02
  6.3845269e-02
  3.1321412e-01
  3.3230793e-02
  8.5569508e-03
 -5.2463200e-02
 -1.2459451e-02
  3.8376044e-02
 -3.1785969e-02
 -1.1201326e+00
  1.7394918e+00
 -1.1708511e-02
 -1.0423115e-02
 -4.8661307e-02
 -1.0428228e-01
 -1.9421732e-02
  6.1343871e-02
 -6.9802806e-02
  2.1136545e-01
  1.4547324e+00
 -2.8035498e-01
  6.0582124e-03
 -1.8941149e-01
 -7.2600253e-02
  4.3262900e-03
  2.1317059e-03
 -1.0049082e-01
  2.1268752e-01
 -9.9628156e-01
 -9.9382907e-01
 -4.5369880e-04
 -6.5248616e-02
 -1.0498127e-01
 -4.4310395e-02
  5.4585706e-03
 -2.3368716e-02
 -2.5671670e-01
 -1.0134371e-01
  4.2659143e-01
 -1.3493846e-02
 -2.9293146e-02
 -1.1956417e-01
 -3.0922754e-02
 -5.9742618e-02
  2.9360983e-04
  1.1982921e+00
 -1.6811100e-03
  2.0940465e-01
  6.7953911e-04
 -1.3546880e-02
 -6.2040847e-02
  8.9354515e-03
  3.4319370e-03
 -4.6026789e-02
  3.7146884e-01
  6.7651051e-01
  1.1210779e+00
  3.2248259e-02
 -1.4977671e-01
  8.0650160e-03
 -3.0264271e-02
 -3.3428412e-02
 -7.0079416e-02
 -5.0293523e-01
 -4.7793075e-01
 -6.0346091e-01
 -2.1628568e-01
  2.5688242e-02
 -2.2154570e-01
 -4.2959660e-02
  2.9922506e-02
  2.4251979e-02
 -8.1711662e-01
  5.4817039e-01
 -4.9628225e-01
  5.1102042e-01
  1.0440705e-02
  6.0282717e-03
  1.0384579e-01
  5.9873027e-01
  2.7461153e-01
  1.0162942e+00
 -8.3582062e-01
  3.6038358e-02
  1.6068023e-03
  2.2931943e-02
 -1.3288526e-01
 -5.1138096e-02
  1.3852315e-02
  8.1904151e-02
 -1.6360613e+00
 -2.5049598e+00
  1.5978682e+00
  6.6692255e-02
  8.2722902e-03
  2.5462801e-02
  7.5616606e-02
  1.2065068e-01
 -3.1231580e-02
  1.0445364e+00
  1.1096379e+00
 -3.8443312e-01
 -1.1502955e-02
  1.7112056e-02
  2.7160181e-02
  1.9662923e-03
 -4.5982778e-02
  9.8421033e-03
 -1.4279159e+00
  1.2705693e-01
 -9.6924466e-01
  1.1268104e-01
  5.0008990e-02
 -1.1763308e-02
  7.9042025e-02
 -1.7479476e-02
 -1.2308806e-02
 -1.5285134e+00
  2.0423454e-01
  2.1114264e+00
  9.4835088e-02
  2.6012400e-02
  7.8673571e-02
  3.2237969e-02
 -1.7198697e-02
  2.8433971e-02
  3.8711604e-01
 -9.2056674e-01
  3.5445493e-01
 -2.1912335e-01
  4.0606566e-02
  5.8029339e-02
  9.3040746e-03
  1.4879785e-01
  3.3537453e-01
  1.2954026e-02
  1.2850021e+00
  1.0490733e+00
  1.9744797e-01
  3.1601638e-02
 -1.1626102e-02
 -3.3317343e-03
 -2.8788883e-02
 -3.4398966e-02
  1.0011576e+00
 -4.4500202e-02
 -5.6606907e-01
  6.2688194e-02
  5.0606631e-02
  3.7346998e-01
  1.3020584e-02
 -1.8251941e-03
  1.6444071e-01
 -3.4531233e-01
  7.1699232e-01
 -3.4024519e-01
 -3.6856389e-01
 -4.5479745e-02
 -9.0004906e-02
  5.1082511e-02
 -9.6326655e-01
  1.8798550e+00
 -3.9497450e-01
 -1.3294233e+00
  7.9779667e-01
  1.2499318e-02
  7.1454480e-02
 -9.9591041e-01
  4.1268952e-02
  4.2852121e-03
 -1.8782564e-02
 -1.1349403e+00
 -1.9490309e+00
  1.1156329e+00
  7.5697318e-02
 -5.9129274e-03
 -7.9238843e-03
  1.1925936e-02
 -2.9710385e-01
 -1.4009351e-01
  8.2538670e-01
  2.5346097e-01
  6.8187118e-01
  3.9125738e-01
  1.8088404e-02
 -5.3077084e-01
  1.1304749e-02
  1.6425864e+00
 -6.8191648e-03
 -4.4732735e-01
 -1.2685020e-02
 -9.3303818e-01
  4.3019351e-02
  1.2242825e-02
 -5.9419591e-03
 -1.4229599e-02
 -9.0325259e-02
  3.9783556e-02
  1.4823821e+00
  2.9181477e-03
 -8.0373228e-01
  3.9514744e-01
 -3.5003573e-03
 -4.6528959e-01
 -2.0763287e-02
  2.4947082e-01
 -7.9679006e-01
 -9.5404518e-01
  8.0902261e-01
  1.0674493e+00
  6.6305520e-03
 -1.5621471e-01
  8.2159907e-02
 -1.6830771e-01
 -4.3798748e-01
  8.8647082e-03
  8.5728420e-03
  1.9871110e+00
  3.1446931e-01
  9.7813332e-01
 -3.6978792e-02
  1.6611014e-01
  4.9869176e-02
 -1.2969783e-03
 -4.7215167e-01
  7.9851335e-01
  2.8498650e-01
  4.0347686e-01
 -8.4471833e-03
  1.0427932e-01
  1.9237764e-01
  3.1223761e-02
 -2.8477573e-01
 -9.4711185e-01
 -1.0480571e+00
 -2.7432412e-01
 -5.9016997e-01
 -9.0292923e-02
  7.0807785e-02
  6.7574168e-03
  1.8308325e-02
  7.4570570e-03
 -1.4546323e-03
  1.0888021e-01
 -1.4123192e-01
  3.1360839e-02
  2.6484542e-02
  5.3303447e-02
 -5.2008084e-03
  6.4094467e-03
 -2.5750389e-02
 -6.5802922e-03
  7.6471514e-01
  7.8356272e-01
  3.7212614e-02
  9.4801120e-02
  5.5703584e-02
  7.2788494e-03
  2.1570504e-02
  5.0109234e-03
 -9.6587818e-03
 -1.4540926e-01
 -2.4887909e-01
  1.0238714e-01
 -2.9735059e-02
 -8.0546420e-03
  5.0571639e-02
 -5.1433272e-03
 -1.6028745e-02
 -1.5944442e-02
  6.9938451e-02
  4.1524312e-01
 -7.3267090e-01
  7.2658151e-02
 -1.7104318e-02
 -3.1642556e-02
  5.2154213e-02
  1.2037297e-02
 -1.0406922e-01
  1.4840106e+00
  2.1653869e+00
  7.0307828e-02
 -2.2597816e-02
 -2.9863456e-02
 -2.0947766e-01
 -7.3942351e-03
  4.1369360e-02
 -5.9830192e-02
  2.0040603e+00
  5.5215967e-01
 -1.3649562e-01
 -3.0264413e-01
  7.9819523e-02
  1.9258934e-03
  2.6056608e-02
 -1.9836843e-02
  3.0980785e-03
  3.7684897e-01
  3.4163487e-01
 -1.8169161e+00
 -1.5487701e-01
 -1.6831391e-02
  4.4716939e-02
 -5.3350260e-03
 -4.9991500e-02
 -4.5231087e-03
 -1.2168394e+00
 -5.4031855e-01
  1.0799938e-03
 -2.2042062e-02
  9.6488670e-02
  7.6283380e-02
 -2.1377413e-03
 -2.5730897e-02
 -6.3587852e-02
 -1.0333046e+00
 -3.3249730e-01
 -3.7138808e-01
 -7.7431547e-03
 -4.5587096e-02
 -1.6228782e-01
 -1.0158814e-02
 -1.5744913e-02
  1.9107839e-02
 -1.6380150e+00
 -7.1285439e-01
  9.0411389e-01
  4.1859049e-02
 -1.0160752e-02
 -3.3123948e-02
  5.8279809e-02
  4.6822769e-03
 -4.4942897e-02
  1.1363858e+00
  3.2401111e-02
  3.0137188e+00
 -2.5437178e-02
 -1.3100267e-02
  8.3936304e-03
 -1.9801855e-02
 -3.2235101e-02
 -3.5869621e-03
  9.2824601e-02
  6.5360159e-01
 -1.3567882e+00
  2.2414038e-02
 -3.1587642e-03
  1.7472336e-02
 -2.0023424e-02
 -2.2397235e-02
 -4.0864367e-03
  5.2899387e-02
 -3.0340457e-01
  1.2182510e-01
 -6.0302764e-03
  5.5465966e-02
  3.6542111e-05
  3.0124888e-02
  1.4806751e-02
 -1.2406759e-01
 -1.3511845e+00
 -1.7440491e+00
  3.5561831e+00
  3.6361446e-03
  4.1726191e-02
 -1.1378787e-01
  2.0965800e-02
 -2.9389944e-02
  4.8831030e-04
  5.8563954e-01
 -1.3294343e+00
  3.1506664e-01
 -4.6044260e-02
 -1.9018212e-02
 -8.1553034e-02
 -1.9172804e-02
 -1.2047187e-01
 -9.1918342e-02
 -5.3718442e-01
 -6.6263956e-01
 -2.8119391e-01
  5.7085380e-03
 -5.3822625e-02
 -1.5108120e-02
  1.0680728e-01
 -7.2837493e-04
 -1.8953433e-02
  2.2770448e-01
  5.8832324e-01
 -4.3561047e-01
  6.5884506e-04
  2.1598136e-02
  2.6260354e-02
  1.9016532e-02
  3.3225749e-02
  8.4521035e-03
  5.5939758e-01
  1.2100912e+00
 -7.5584435e-01
  2.0625999e-02
 -9.2836529e-02
 -4.1904502e-02
 -3.2610767e-02
 -4.2403629e-03
 -2.9851708e-01
  4.6196663e-01
 -1.9292155e-01
 -1.2914082e+00
 -1.8104844e-02
  6.0085915e-03
  1.4997661e-01
 -3.8769018e-02
 -3.8613703e-02
 -1.3994448e-01
  4.2817596e-01
  6.3880450e-01
 -1.5632993e+00
 -3.6932235e-03
 -3.0199593e-02
 -5.7742652e-02
 -1.4177965e-02
 -3.0810485e-02
 -5.0289582e-02
 -2.9447657e-01
  5.7459593e-01
  2.6729813e+00
  5.1051684e-02
 -2.2599870e-02
 -1.8345248e-02
 -8.2590677e-02
 -1.9726954e-01
 -3.5008562e-01
 -1.6413687e-02
  2.2387046e-01
  4.0061170e-01
 -7.4426331e-02
 -2.6270729e-01
  2.2263308e-01
 -1.5051508e-02
 -1.8244525e-02
 -1.4245018e-01
  1.2659498e+00
  6.8103164e-01
 -2.6372981e-01
  1.8053878e-02
  8.3671600e-02
  3.9901218e-01
 -3.8508043e-02
 -5.5121560e-02
 -1.1394325e-01
 -9.5677131e-01
 -6.1865884e-01
 -1.0103598e+00
  1.2570308e-01
 -7.0846133e-02
  4.7918219e-02
 -1.2138657e-01
 -1.4581934e-01
 -8.1289954e-02
 -2.4811374e-01
  3.3172393e-01
 -8.2815289e-01
 -2.0891225e-01
 -6.2051495e-03
  1.8816406e-03
  9.8461146e-03
  9.3259729e-02
  1.8906133e-02
 -9.7693503e-01
 -1.5358579e+00
  1.1938267e+00
  2.6225632e-03
 -4.1243318e-02
 -4.6719366e-01
  1.0200429e-03
  1.4016604e-01
 -6.9334485e-02
 -8.5488753e-03
  1.1131172e-01
  9.0886605e-01
  5.5370182e-01
  2.5715840e-01
  1.7128991e+00
 -4.7930788e-02
 -2.2049422e+00
  1.6336735e+00
  1.0718926e+00
  9.1238511e-01
  3.7593162e-01
 -9.8232257e-01
 -1.7552458e-02
 -9.5095500e-02
 -7.5671910e-03
  7.6526761e-02
  6.3505167e-01
  3.3173189e-02
  1.9421282e+00
 -8.3151042e-01
  1.1225215e-01
  1.2151198e-01
 -5.0342077e-01
 -2.5032103e-02
 -4.2997700e-01
 -1.5646861e-01
 -4.1853371e-01
  2.0010358e-02
  3.3812645e-01
 -3.4796962e-01
  3.7100166e-01
  1.4393607e-01
 -4.0421283e-01
 -7.4774092e-01
  1.8075362e+00
 -4.4539563e-02
  3.6901218e-01
 -9.1937786e-01
  1.2514739e-01
 -3.9711541e-01
 -4.4613391e-01
  7.5732522e-02
  1.0486153e+00
  1.3928866e-01
  2.9589243e+00
  4.9096957e-01
 -1.0378989e+00
  4.9028608e-01
  3.5925247e-02
  9.5223762e-02
 -5.1334536e-01
 -3.4552070e-01
 -2.5127148e-02
  6.7452264e-01
 -3.6978269e-01
 -8.2555515e-01
  5.2010638e-01
  5.7678491e-01
 -7.6246542e-01
  9.3583569e-02
  2.6080370e+00
 -7.2292104e-02
 -1.0472662e+00
 -1.1131490e+00
  1.4402823e-01
  8.1437004e-01
  5.5295241e-01
  1.5964657e-01
 -7.8691728e-02
  6.0312653e-01
 -4.3628892e-01
 -1.4333936e+00
 -4.7644448e-01
  1.1560477e+00
 -2.3133680e-01
 -1.7971300e-01
  1.2182509e+00
 -7.7071935e-02
 -7.1282610e-02
 -3.0905628e-01
 -1.8104869e-01
  2.9407129e-01
  7.1062165e-01
  1.7539968e+00
  1.6729653e-01
  2.0068610e-01
  3.4455496e-01
  1.1905976e-01
  8.6606592e-03
 -8.7860629e-02
 -1.0134967e-01
  6.6184169e-01
 -1.3248871e-02
  1.6424205e-02
  1.2337490e+00
 -1.2208465e-02
  1.5454706e-03
 -2.7682695e-01
 -6.3429356e-01
  6.5822846e-01
 -2.0516798e-02
  2.7896383e-01
  8.1118442e-02
  2.9942644e-01
  6.2220689e-02
 -4.7199994e-02
 -2.1888098e-01
 -1.6783092e+00
 -1.0475376e+00
  7.5409524e-02
  2.2120206e-01
  4.8536038e-01
 -1.5542485e+00
 -2.1909744e-02
  8.5096359e-01
 -8.2416219e-01
 -6.6194308e-01
 -3.2344073e-01
  5.2964613e-02
 -3.0204627e-01
 -2.6978539e-02
  5.9566468e-01
  6.3205861e-02
 -1.5188295e-01
  1.8951550e+00
  3.6236748e-01
  1.1605862e+00
  3.5516140e-01
 -6.7148834e-01
  5.5676740e-01
 -1.4725065e+00
  3.0761677e-01
  1.0259610e+00
  3.8415605e-01
 -1.1860143e+00
 -1.0517144e+00
  1.6125472e-01
  7.1406722e-01
  3.3029535e-01
 -5.2382559e-01
 -2.1165485e-02
  1.6074078e-02
 -7.8288186e-01
 -8.7919772e-01
 -1.8258486e+00
 -9.6429132e-02
  9.4892329e-01
  8.4386641e-01
 -3.7849632e-01
  4.4206116e-01
 -1.1659896e-01
 -5.9954309e-01
 -2.7867121e-01
 -4.5594397e-01
 -4.2164421e-01
  3.0383316e-01
  4.4951206e-01
  2.6342306e-01
  1.3133599e-01
 -6.3281959e-01
 -1.0497990e+00
  2.4668027e-02
  2.5827929e-01
  2.1787906e-01
  2.1979556e+00
  1.1110107e+00
  2.8425804e-01
  1.9630578e+00
  7.9685855e-01
  1.5406042e+00
 -2.6050562e-01
 -6.1047006e-01
 -7.8940742e-02
  8.1001312e-02
 -7.6901889e-04
  4.4927871e-01
  3.7771206e-02
  3.8014829e-02
  5.2442408e-01
 -3.3226140e+00
 -2.7371183e-01
 -4.1836500e-02
 -7.3915428e-01
  1.0161127e+00
  1.6784638e+00
  9.9008268e-01
  2.6656985e-01
 -1.8154304e-01
  1.2640659e+00
  1.0789094e+00
  2.6436648e-01
  1.5315729e+00
  8.8526756e-01
  9.7735685e-01
  4.1003075e-01
  1.7759051e+00
 -8.7007606e-01
 -4.1422811e-01
 -8.0489057e-01
  1.4109227e-01
  1.6762136e+00
  6.7017877e-01
 -2.5245147e+00
  1.1322201e+00
  2.0115945e+00
 -8.1544197e-01
 -2.5894976e+00
 -1.6458813e+00
 -2.8688967e-01
  2.4446934e-02
 -2.2547457e-01
 -2.4642868e+00
  6.5681040e-01
 -6.4258473e-03
 -1.0413567e+00
 -1.4365938e+00
  1.3058871e-01
 -7.1059185e-01
  1.0702428e+00
  1.3024980e+00
 -5.6570959e-01
  1.9858692e+00
  1.0111407e+00
  1.1385367e+00
  6.8793303e-01
  4.4332886e-01
  5.5451121e-02
  8.3560431e-01
  6.0605508e-01
 -2.4799207e-01
  4.8137307e-01
  8.6660272e-01
 -1.2053879e+00
 -4.6508908e-01
 -1.1004863e+00
  6.4899486e-01
  7.3309344e-01
  7.2591585e-01
 -3.9000785e-01
  1.1552438e-01
  9.7280741e-01
  1.8545483e-01
 -1.0642538e+00
 -2.0232942e+00
  3.2924110e-01
  8.9325953e-01
 -1.3872945e+00
 -1.0916580e+00
 -2.7357481e-02
  1.1509851e-01
  9.9095458e-01
 -1.3298548e+00
  1.1690181e-01
  1.6895597e+00
 -3.9729197e-02
 -1.5193789e-02
 -4.7164794e-02
 -1.6681014e-02
  2.5454344e-02
  6.9573337e-01
  2.8110227e-02
  2.9548954e-02
  4.6194097e-01
 -5.6810766e-01
  1.3621547e-02
  1.0889827e+00
 -1.5095109e-01
 -3.9294320e-01
 -1.0597172e-02
 -1.4261678e+00
 -1.0785536e+00
  1.9900492e+00
 -2.8698748e-01
 -4.9663551e-02
 -1.0964246e+00
  3.8930160e-01
 -8.0374435e-02
  1.3003522e+00
  3.6048114e-01
 -3.0132878e-01
  1.1840599e+00
 -1.0879285e+00
 -9.1242893e-03
 -1.4963663e+00
 -1.5977113e-01
  2.0816934e-01
 -8.2104182e-01
  2.3770161e-01
 -1.0386392e+00
  1.2238206e+00
 -1.7409608e+00
 -9.8500854e-01
  2.3775089e-01
  2.1972354e-01
  1.1886732e-01
  2.5336087e-01
 -4.7311008e-01
 -1.1038609e+00
 -5.4725111e-01
 -1.8422699e-01
 -5.6389516e-04
  9.3013775e-01
 -1.9842069e-01
  4.2149499e-01
 -9.4265896e-01
  5.3418612e-01
  3.9946410e-01
 -6.4183869e-03
  2.1967681e-02
  4.5116490e-01
 -4.6624884e-01
  5.3391932e-04
  3.4261219e-02
  1.7542086e+00
  5.6283492e-01
  5.8319843e-01
 -7.3277801e-02
  3.7043598e-01
  7.2881818e-01
 -2.9119805e-02
  4.7604319e-01
  4.0965343e-01
 -2.8985259e-01
  1.5559664e-01
 -1.3841586e-03
  2.8566805e-01
  2.0372825e-02
 -1.1236480e-01
  4.7839707e-01
  2.5457764e-01
 -7.6671243e-01
 -1.3585807e-01
 -8.2022089e-01
 -3.4456360e-01
  6.4995682e-01
  8.8340044e-03
  5.3086579e-02
 -1.2002796e-03
  2.0542793e-02
 -3.0450230e-03
 -6.5490082e-03
 -4.7108033e-01
 -1.8467702e+00
  7.6236516e-01
 -6.9109875e-01
 -2.6752087e-01
  5.3029597e-01
 -7.1813536e-01
 -1.0872389e-03
  5.6045747e-01
  1.1918489e+00
 -7.8853822e-01
 -8.3211565e-01
  2.4137571e-01
  5.8625382e-03
  2.6454221e-02
 -3.4548365e-02
  2.7165917e-01
  7.8960277e-02
 -1.7710808e-01
 -7.4238074e-01
 -8.3645344e-01
 -2.0215249e-01
 -4.7064573e-02
 -8.7420827e-01
 -2.2927696e-01
  6.9362241e-01
  2.0858843e-02
 -1.0244899e+00
  1.2417878e+00
  2.6594377e+00
 -7.3127203e-02
 -2.5175798e-01
  1.7698588e+00
  2.5939291e-02
 -2.5138287e-02
  1.3783386e+00
 -1.5834515e+00
  9.0634859e-01
  1.3112807e+00
  1.6969308e-02
  2.7725214e-01
 -3.0989224e-02
 -9.6584536e-02
  2.7745828e-01
 -1.3345267e+00
 -3.6033848e-01
 -6.8924624e-01
  1.4741479e-01
 -4.6456015e-01
 -3.6283448e-01
 -6.0024238e-01
 -1.6928084e-01
  7.9613589e-02
 -6.7165780e-01
  4.0744585e-01
 -6.8430632e-01
 -2.1452338e-01
  6.3710876e-02
  1.8380705e-02
 -2.5064787e-01
  3.2855794e-01
  7.5928581e-01
  6.6693097e-01
  1.5180020e-01
 -6.7183077e-01
  5.3192872e-01
 -1.7997971e-01
 -6.7734069e-01
  2.6135802e-01
 -1.0945964e+00
  6.3587528e-01
 -7.1967719e-03
  1.4564607e-01
  6.8014073e-01
 -1.2408835e-01
  1.6423883e-02
  4.9047032e-04
  6.9313359e-01
 -4.2063095e-02
  4.5679188e-03
  1.8123724e-01
  1.6394073e-01
 -1.5547693e-01
  9.2083532e-03
 -3.4340801e+00
 -2.4944133e-01
  1.1405835e+00
 -1.1993469e+00
 -2.6654705e-01
  1.0172836e-01
 -1.1548592e+00
 -1.4723128e-01
 -1.2095405e+00
  9.6296829e-01
 -5.6221992e-01
  9.4617456e-01
 -1.8596375e-01
 -1.8102595e+00
 -7.1296656e-01
  4.2358688e-01
  1.5061121e-01
 -7.9981215e-02
  6.3708134e-02
 -3.3473387e-01
 -5.0516937e-02
 -1.1030684e+00
 -2.4084299e+00
 -1.2614099e+00
  6.8398029e-01
 -1.3800071e+00
 -1.6918394e-01
  3.3822614e-01
  3.6972560e-02
 -2.3305851e-01
  5.7989514e-01
 -7.2229385e-01
  1.2338675e+00
  8.1908368e-02
 -4.4858685e-01
 -4.9261680e-01
  1.8498244e-03
 -7.7368152e-01
 -7.7959992e-02
 -3.4401070e-02
  5.9012674e-02
  4.4089186e-01
  1.8470900e-01
  7.7013791e-02
 -6.5735690e-02
 -2.0037627e-01
 -8.1710970e-01
  3.0419582e-01
 -4.9739462e-01
 -3.1615108e-01
  3.2070792e-01
  3.7700477e-01
 -6.0906671e-03
 -6.1527210e-01
 -6.1237049e-01
  6.8201013e-03
  2.4089111e-01
 -5.7149604e-02
  1.6589935e-01
  2.6336801e-01
 -4.2057282e-01
 -8.7370759e-01
 -1.4726731e-01
  1.7341650e-01
  1.7341650e-01
  1.7341650e-01
  1.7341650e-01
  1.7341650e-01
  1.7341650e-01
  1.7341650e-01
  1.7341650e-01
  1.7341650e-01
  1.7341650e-01
  1.7341650e-01
  3.3042172e-01
  3.3042172e-01
  3.3042172e-01
  3.3042172e-01
  3.3042172e-01
  3.3957359e-01
  3.3957359e-01
  3.3957359e-01
  3.3957359e-01
  3.3957359e-01
  8.2519308e-02
  8.2519308e-02
  8.2519308e-02
  8.2519308e-02
  8.2519308e-02
  2.4920506e-02
  2.4920506e-02
  2.4920506e-02
  2.4920506e-02
  2.4920506e-02
  6.3750809e-01
  6.3750809e-01
  6.3750809e-01
  6.3750809e-01
  6.3750809e-01
