nep3 6 Mg Ni Zn Co Cu O 
cutoff 8.4 3.9 260 28
n_max 10 9
basis_size 12 12
l_max 4 2 0
ANN 60 0
 -8.6637616e-02
  4.0432353e-02
  1.9708425e-01
 -1.5823275e-01
 -2.3865566e-01
  1.0732114e-01
 -1.9633791e-01
 -2.1246262e-02
 -1.0607869e-01
 -3.8316825e-01
 -2.3060064e-01
  3.3811051e-02
  1.3388625e-01
  5.1831137e-02
 -2.0891513e-01
  4.2948499e-01
  4.0732840e-01
 -7.9642415e-02
  2.8397632e-01
  2.0453010e-01
  2.4693401e-01
  7.1074657e-02
 -1.2771571e-01
 -1.2172364e-01
  5.7140615e-02
 -1.4424500e-01
 -5.6571316e-02
 -9.1918655e-02
 -9.3149453e-02
 -1.2130976e-01
  1.9353098e-01
 -2.1209963e-01
 -1.8545930e-01
 -6.0704215e-03
 -4.6875095e-01
 -1.2313259e-01
 -1.8168190e-01
 -2.7165630e-01
  3.5613734e-01
  2.0957921e-01
 -6.2686366e-01
  6.0440429e-02
  8.2450449e-02
  1.9884679e-02
 -1.5955202e-01
  1.2058355e-02
  1.0276292e-01
 -1.5613249e-01
 -6.9250423e-03
  3.6843377e-01
 -3.3572105e-01
  7.5021102e-03
 -1.8274872e-02
 -1.1299041e-01
  1.2564296e-01
  1.7403951e-01
 -5.2198894e-02
  1.2525240e-01
 -3.2717842e-01
 -1.1176149e-01
 -4.6975613e-01
 -1.0800990e-01
 -2.0464492e-01
 -2.0694286e-01
 -3.7598673e-01
 -2.0044474e-03
  1.1441767e-01
 -4.5903516e-01
  8.4539659e-02
 -2.4619779e-01
  2.4911620e-02
  5.0173807e-01
 -1.8494949e-01
  3.2149557e-02
 -1.0635316e-01
 -2.3648646e-02
 -1.2550573e-01
  4.8055404e-01
  9.9233694e-02
 -2.3430709e-02
  9.0932089e-01
  3.5176724e-02
 -3.2214159e-01
  1.6971372e-01
 -3.4572563e-01
  3.4076616e-02
 -3.5008481e-01
 -2.9982081e-01
  8.0461010e-02
 -1.6309564e-01
 -2.0143192e-02
 -1.6493352e-01
 -3.1952208e-01
 -2.0756194e-01
 -1.2046748e-01
  1.8758169e-01
 -3.9144772e-01
 -1.1951005e-01
  1.0831516e-01
  1.7005943e-01
  1.3629577e-01
  2.8684411e-02
 -1.1794444e-01
  1.4251974e-02
  2.4453191e-01
  1.0953417e-01
 -3.3844143e-02
 -2.0359382e-01
  8.0689132e-02
  1.1902139e-01
 -6.3969150e-02
  9.0727746e-02
  7.8946066e-01
 -7.4055672e-02
  8.8006526e-02
  1.4731506e-01
 -1.5783107e-01
 -3.0817352e-02
  1.1345829e-01
  3.5445923e-03
 -2.2779229e-01
  9.4973452e-02
 -5.1404440e-01
 -1.1953069e-02
  3.8699207e-01
  3.8040066e-01
 -4.8451535e-02
 -2.1876737e-01
  4.4714287e-02
  2.8867587e-01
  4.4884679e-01
 -3.7328493e-02
 -5.6485138e-03
  6.8078637e-01
 -3.2097291e-02
 -3.7284247e-03
  1.4434612e-01
  3.2355934e-01
 -1.1150093e+00
 -2.9267833e-01
  1.1510482e+00
  4.1397849e-01
 -7.0551723e-01
  1.3674268e-01
 -4.2199329e-02
 -5.3408951e-04
 -1.5125144e-01
  7.0073229e-01
 -7.4921235e-02
  6.6806837e-03
  9.5831379e-02
  6.7035890e-01
 -9.3543190e-01
  1.6831048e+00
  3.7215802e-01
 -2.2687514e-01
  8.7210804e-02
 -2.8911665e-01
 -2.8427341e-03
 -1.5035707e+00
  1.1147999e-01
 -2.5383633e-01
 -1.5505630e-01
  1.1486984e+00
 -1.5153776e-01
  6.3498110e-01
 -1.6996776e-01
  7.8788507e-01
  3.3224455e-01
 -1.2393465e+00
 -2.7633259e-01
  2.2830334e-01
  9.6134663e-02
 -6.1918408e-01
 -2.5047180e-01
 -1.8249136e-01
  2.2609165e-01
  1.7490914e-01
  3.9836994e-01
  2.4600327e-01
  1.4688000e-02
 -2.5622305e-01
  2.3973663e-03
 -1.3867397e-02
 -6.8804249e-02
  1.1673597e-01
 -1.8262759e-01
  2.2852029e-01
  2.6843700e-01
  1.6898790e-01
 -7.8435913e-02
 -3.1776607e-02
  1.7519490e-01
 -9.4932429e-02
 -3.9766259e-02
 -2.4432797e-02
  1.3505614e-01
 -6.0414583e-03
 -5.5680990e-01
 -9.9337113e-01
  3.3859548e-01
 -7.1908128e-01
 -2.9280415e-01
  7.8694522e-01
 -1.6346063e-02
 -8.0957180e-01
 -3.5948586e-02
  4.5340691e-02
  1.8310685e-01
 -9.9529684e-02
  1.2410039e-02
  7.1586092e-04
 -3.9422947e-01
  1.4552930e-01
  5.5228802e-04
 -7.5559668e-02
  5.2229274e-02
 -4.0366152e-01
 -7.4847698e-01
 -1.3410869e-01
  9.4499105e-01
  1.4555877e-01
  3.9165431e-01
 -1.1897529e-01
  9.0367287e-02
 -3.8264456e-01
  8.3152736e-03
  1.7745291e-01
 -2.7864042e-01
  5.9928089e-01
  1.1563186e-01
 -3.3467370e-01
 -5.8530688e-01
 -8.8850629e-01
  1.2746261e-01
 -7.1679905e-02
  8.3407320e-02
  3.2114217e-01
  3.9071653e-02
 -1.1890057e-01
  3.1028908e-02
  3.1476010e-02
 -2.2081722e-01
  4.7764435e-01
  2.8125636e-02
  1.1390320e-01
 -4.9043086e-01
 -3.3063825e-02
  8.2779989e-02
 -3.9980737e-03
 -2.1128918e-01
  1.1313900e-01
 -5.2476251e-01
 -6.3940093e-02
  5.8587348e-01
 -1.2356876e+00
  1.0535599e-01
  7.0460752e-02
 -1.2788080e-01
  2.3686317e-01
 -1.1152565e-01
  5.6269683e-02
  1.7183229e-01
  3.7421752e-02
 -1.7091900e-02
 -1.5360810e-01
 -1.3771801e-01
 -3.7170926e-01
  2.0707129e-01
 -4.2406800e-01
  4.9935362e-01
  2.8811955e-01
  1.3510260e-01
 -1.4511347e-01
 -1.7862253e-01
 -6.8201971e-01
 -2.2128491e-01
 -1.7182991e-01
 -2.5290582e-01
  3.7392566e-01
 -1.3812168e-01
  4.7925315e-03
 -1.3919878e-01
  1.3607879e-01
  3.1272355e-01
 -8.8413382e-01
 -2.0091136e-01
  1.2634020e-01
 -2.0042178e-03
  1.8539627e-01
 -6.6889781e-01
 -5.6875312e-01
 -8.2040275e-04
 -1.6984400e-01
  3.3625826e-02
 -8.1409607e-03
  3.0380994e-02
 -1.7335644e-01
  1.1142097e-01
  2.7027663e-02
 -1.5231578e-01
  1.4241132e-01
  2.3312228e-02
  3.5667506e-01
  6.5355659e-02
 -1.3158819e-01
 -3.8420390e-02
  2.6184598e-01
 -1.4155642e-03
 -2.3635508e-02
  3.9204976e-01
  7.6596171e-02
  2.8748006e-01
  6.2844014e-01
  5.0382227e-01
  5.1065098e-02
 -8.3185561e-02
  4.5418059e-03
  1.5383330e-01
 -1.4049646e-02
 -7.1645886e-01
 -5.7601720e-01
 -2.1193621e-03
  2.0409346e-02
  8.8662529e-01
  4.0281627e-01
  4.1458033e-02
 -1.3178629e-01
  5.9230763e-01
  1.5523532e-01
 -9.9418782e-02
  2.5779632e-01
 -3.0087391e-01
  5.5093890e-01
  6.0427445e-01
  2.0129424e-01
 -7.4825794e-01
  9.0992540e-02
 -1.5187259e-01
  6.4006142e-02
  2.6065487e-01
  8.2597628e-02
  7.5059563e-02
 -6.8242826e-02
 -1.8779247e-01
  6.7901507e-02
 -1.7271468e-01
 -2.0812988e-01
  7.3544629e-02
 -7.3097903e-01
 -3.9854464e-01
  3.8048547e-02
 -4.2203832e-01
 -2.5201559e-01
 -1.3470834e-02
  5.9715644e-02
 -6.1126471e-01
  2.9794908e-01
 -4.4835284e-02
 -5.1971253e-02
 -1.0040054e-02
 -1.8555898e-02
 -3.7897605e-01
  7.4277394e-02
  8.0535732e-02
 -1.4477219e-02
 -8.9603895e-03
 -1.4490087e-01
 -5.6172574e-01
 -3.8405970e-01
 -4.5679834e-01
 -8.3566952e-01
 -4.5001522e-01
 -4.7175385e-02
  3.8638499e-02
  2.1999562e-01
  3.0248469e-01
 -3.7195664e-02
 -1.1870971e+00
  1.1259528e+00
 -1.0656874e+00
  1.5944606e-01
 -6.1186928e-01
  4.4272348e-01
 -6.9162583e-01
 -1.9823343e-01
  6.9842595e-01
 -4.2150190e-01
 -1.5056327e-02
  1.3228869e-01
 -1.7567678e-01
  2.0665938e-01
  3.1946048e-01
  8.7014221e-02
 -8.9350265e-01
  5.8780348e-01
  1.3774780e-02
 -3.4906946e-02
 -7.4295574e-01
 -2.1441590e-02
  3.9188933e-02
 -3.6302039e-01
 -5.8193129e-01
  4.1334227e-01
  2.1263459e-01
  9.9461876e-02
  4.3895224e-01
  2.9954427e-01
 -1.2069017e+00
  1.4873855e-01
 -5.7608742e-01
  7.1904385e-01
 -2.1467035e+00
  1.7174059e+00
 -1.7658774e+00
 -6.4861304e-01
  1.7047137e-01
 -4.2018849e-01
  3.8917731e-02
 -1.1495744e-02
  1.5762380e-01
  8.0813991e-04
 -8.3445301e-03
 -1.6437543e-03
  3.8907346e-01
 -3.8728034e-01
 -4.7873082e-03
 -3.8408063e-02
  1.5380566e-02
  2.3007390e-01
 -5.4123960e-02
  2.9196095e-01
  2.9819060e-02
  1.1729782e-02
  1.4055654e-01
 -6.4909592e-02
  8.5645415e-02
 -6.7596227e-02
  7.2853960e-02
  1.3270041e-01
  9.8787025e-03
 -2.1423090e-01
  4.2157207e-02
  3.4020428e-02
  2.1419283e-02
  1.4261253e-01
  8.2906634e-02
 -2.3038766e-01
 -1.1552020e-02
 -5.5795854e-01
 -1.1729943e-01
 -3.5884869e-01
 -3.6273751e-01
  3.0868170e-01
 -1.2065039e-01
  9.1293082e-02
  7.6972283e-02
 -5.7149720e-03
  1.1156444e-01
  1.7333314e-02
  3.4401712e-01
 -4.9344733e-02
  5.1018465e-03
 -1.4579917e-02
 -3.3167544e-01
  3.7084985e-01
  8.4399246e-02
 -3.7569386e-01
  2.2801924e-02
  1.1846036e-01
 -2.3131831e-01
  2.1801215e-01
 -1.0566626e-01
  1.5908109e-01
  9.4563700e-02
  2.6017042e-02
  8.1608713e-02
 -1.9029851e-01
  1.2440415e-01
  2.9464316e-01
 -8.5231572e-02
  6.1152808e-02
  1.2882508e-01
 -1.9083868e-01
  2.9505771e-02
  1.5023626e-02
  1.2995280e-01
 -4.9542731e-01
 -1.4544679e-01
 -8.7795161e-02
  2.3842802e-02
 -1.5201736e-02
 -3.1582601e-02
 -7.0144266e-02
  2.2641885e-01
 -1.5863683e-02
  1.7517425e-01
  1.7716596e-02
 -1.0244963e-01
 -1.4238714e-01
 -4.2750545e-02
  1.9338364e-02
 -1.3093500e-01
  1.0255686e-01
 -7.4524030e-02
  5.9548419e-02
 -5.9714232e-02
  9.6380897e-04
 -1.2847376e-01
  1.2970313e-01
  2.6080748e-01
 -2.3401383e-01
  8.4322155e-02
 -3.3612356e-02
 -2.2600685e-01
 -9.2309654e-02
 -4.1900557e-02
 -9.2772827e-02
 -1.7188582e-01
 -2.7007738e-02
 -1.3181662e-02
 -2.3032843e-01
  2.4703106e-02
  7.5432315e-02
  3.4230575e-02
  2.1785706e-02
  2.6469883e-01
 -7.6773241e-02
  8.6202234e-02
  6.6265635e-02
 -1.1447125e-01
  1.2017024e-01
  2.2524193e-01
  1.2658884e-02
 -6.2230323e-04
  1.0838673e-02
  4.8771102e-02
 -9.4427131e-03
 -1.9497524e-01
 -7.1357265e-02
 -2.9577887e-01
 -9.4736420e-02
  2.7774585e-02
  4.8852243e-02
 -1.7744002e-01
 -2.3578866e-01
 -1.7450926e-01
  2.2382390e-02
 -9.7060889e-02
 -9.7076641e-03
 -5.7857675e-03
  7.0114350e-01
  7.4427421e-03
  1.0534319e-01
 -1.0743053e-01
 -2.4180539e-02
 -3.1918362e-02
  1.5881935e-01
 -3.7339306e-01
 -5.0686602e-02
  3.3649907e-01
 -1.1305793e-01
  1.5964638e+00
 -2.7059838e-02
  9.6225560e-02
  7.3464590e-01
  3.1771103e-01
  1.5140681e+00
  2.7007505e-01
 -3.3234119e-01
 -1.0376132e-01
  4.7303006e-01
  6.5886468e-01
 -6.1615560e-02
 -1.7752975e-01
  6.5579402e-01
  2.5527410e-02
 -6.2819816e-02
  2.3741843e-01
 -4.1608952e-02
 -3.9853856e-02
 -4.4585845e-01
  5.3014946e-01
 -9.7469993e-02
 -2.8907491e-02
  1.0156610e+00
 -1.8442880e-01
  4.5018040e-02
  9.2654996e-02
  1.1630734e-01
  8.9786112e-02
  3.2028276e-01
  6.0737051e-02
 -6.2619641e-02
  3.1613559e-01
  1.1648118e+00
  3.3244216e-01
  9.4575800e-02
  1.9795473e-01
  5.0516522e-01
  8.7477908e-02
 -1.1952999e-01
 -2.8438291e-01
  1.6265622e-01
  2.7035773e-02
 -6.2256735e-02
 -1.5664025e-01
  1.9597411e-01
 -1.6414987e-02
  5.5765653e-01
 -9.9775735e-03
 -7.2201610e-01
 -6.3242525e-01
  5.3350966e-02
  6.5928996e-02
  2.4960268e-01
 -2.2606029e-01
  1.6127305e-01
 -7.7866197e-02
  5.3934865e-02
  8.4580876e-02
  1.1235411e-01
 -1.0680345e-01
 -4.1920364e-01
  1.7778981e-01
 -8.9837533e-01
  4.3533412e-01
 -1.0403803e-01
  6.8915091e-02
  3.1408590e-01
 -6.5020435e-02
 -3.9369935e-01
 -1.3777944e-01
 -1.0691871e-01
 -3.0907361e-02
  1.5395914e-01
  2.7917376e-01
  4.6806729e-01
  2.1481273e-01
  3.5432386e-01
  3.8966477e-02
 -1.6018204e-01
 -2.1079633e-01
 -1.5162537e-01
  1.5294127e-01
 -5.8856636e-01
  1.9992669e-01
  1.1810213e-01
  1.0312340e-01
 -5.1864211e-02
  1.1105668e-01
  9.3432367e-02
  4.5066271e-02
  1.1743159e-01
  1.4634344e-01
 -3.4865415e-01
  1.6006213e-02
  5.0836504e-01
 -1.6796449e-01
 -1.2465924e-01
  5.0714487e-01
  8.0022886e-02
  2.6106554e-01
 -8.4885247e-03
  6.3042000e-02
 -5.0247622e-01
 -1.4089277e-01
 -1.2597832e-02
  3.3947265e-01
  2.3451404e-01
 -1.3328402e-02
 -1.7248468e-02
  1.8472789e-01
 -1.5049755e-03
  7.4632220e-02
  2.9797390e-01
 -2.1943733e-02
  1.3220750e-01
 -1.6013809e-02
 -8.8721491e-02
  8.9496924e-03
 -1.2713492e-02
  7.6569286e-03
  9.6274525e-02
 -2.9226301e-02
 -3.7898988e-01
  3.2903004e-01
  3.5070011e-01
 -1.3172573e-01
  2.6236913e-01
 -3.3020672e-01
  1.8097267e-01
  1.8540622e-01
  1.9218045e-01
  2.5602764e-01
  7.3098086e-02
 -1.5447280e-01
 -7.7793668e-03
 -7.8640291e-03
  3.5190701e-01
  1.4973621e-01
 -6.3528135e-02
 -2.1990259e-01
  6.2218934e-01
 -6.2256318e-02
 -4.3779939e-02
  1.7338158e-01
  3.4580645e-01
  4.6066862e-02
  1.4657912e-01
 -1.8901086e-01
  3.8138323e-02
 -1.4323497e-01
 -6.4804703e-02
 -1.1861319e-01
 -2.4278250e-01
  1.5523598e-02
  3.7358269e-01
  4.5237765e-02
 -3.7140283e-01
  1.9805211e-01
 -3.4331453e-01
  3.6097485e-01
  3.4294572e-01
  7.1817592e-02
  1.2614261e-01
 -2.4810636e-02
  8.2634777e-02
  1.5536587e-01
 -8.5204221e-02
 -1.6183215e-01
  9.7877227e-02
  2.3262385e-02
 -4.1606955e-02
  1.3906394e-01
 -9.8333471e-03
 -4.3324631e-02
 -2.4999270e-02
  1.8656875e-01
 -3.7012793e-02
 -1.1449602e-01
 -6.5843105e-02
  1.1065810e-01
 -1.0631667e+00
 -1.0255405e+00
 -2.6395762e-01
 -3.0821174e-01
 -4.4968259e-01
 -5.0467354e-01
  8.9962937e-02
 -8.6527175e-01
  1.0951945e-02
  9.4739515e-01
 -2.2220613e-01
 -1.8198948e-01
  8.8813610e-02
 -1.9302979e-01
  1.1436891e-01
 -2.9352039e-01
 -7.8015782e-02
  2.6569822e-01
  2.3808981e-01
 -2.9977027e-01
 -1.0958925e+00
 -5.6435889e-01
 -1.0528147e-01
  4.0594682e-01
 -1.6338520e-01
 -9.0437686e-01
 -3.3906308e-01
  1.6802207e-02
  4.2327061e-02
  1.4543354e-03
  1.7474558e-02
  1.1433661e-01
  9.1971599e-02
  1.3747618e-01
  1.2378822e-01
 -1.0932091e+00
  7.2404176e-01
  1.8370277e-01
  2.5923423e-02
 -2.6932079e-01
 -1.8178900e-01
 -7.4499627e-03
 -2.3206528e-02
 -1.9755708e-02
  8.4660603e-03
 -1.7933097e-01
 -1.2866612e-01
  1.2455424e-01
  6.5734260e-02
 -2.9466534e-02
  1.8714190e-02
  2.4254863e-01
  3.3753175e-02
 -8.3343521e-02
 -1.4132827e-03
 -1.7877907e-02
 -1.2197316e-01
 -2.7018794e-01
  3.2863155e-01
 -4.0132904e-01
  2.4451368e-02
 -4.0863346e-02
  8.9524701e-02
  2.0838140e-03
  7.0862316e-02
  9.7045889e-03
 -6.9336176e-02
 -6.7392908e-02
 -3.6189787e-03
  2.1894407e-02
  2.2056469e-01
 -3.4142382e-02
 -1.7736381e-02
 -2.0138572e-01
  3.0613136e-01
 -4.0609162e-02
  8.0303721e-02
 -1.8315229e-01
  2.0187609e-02
 -8.6440668e-03
 -2.1416044e-01
 -1.2477833e-01
  7.9157904e-02
  1.0439117e-01
 -1.4748840e-01
  2.7305817e-02
 -1.0993589e-01
 -2.7535659e-01
 -2.0711717e-01
  3.2421641e-02
  5.1130563e-02
  1.1736920e-02
 -2.2196393e-02
 -1.1856205e-01
 -1.8046251e-02
  3.2955203e-02
 -3.8075454e-03
  1.6069427e-01
 -5.5941280e-02
 -6.2164880e-02
  1.3501099e-03
  1.8431859e-01
  1.6776567e-02
 -9.3871325e-02
 -1.0469851e-01
  1.5047544e-01
 -2.5078125e-02
  3.3903733e-02
 -1.5912428e-01
 -5.6477927e-02
  7.5462840e-02
 -5.9653609e-03
  8.4729262e-02
 -5.2339092e-02
  1.1401159e-01
 -1.5914838e-01
 -1.7233446e-02
  4.9506620e-02
  4.5222281e-03
 -1.7316846e-02
 -6.5616868e-02
 -1.8384336e-01
  1.6947129e-01
  2.5330094e-01
  3.1053185e-02
 -2.4215528e-01
 -2.5555864e-04
  4.2456154e-02
 -8.1109047e-02
  4.4254062e-01
  1.9029613e-01
 -4.5150000e-01
  4.9342260e-01
  1.5803583e-02
 -1.0433465e-01
  3.1336091e-02
 -1.1077301e-01
 -4.9448773e-02
 -1.0988972e-01
  1.0886463e-01
  7.2605252e-02
  1.0932633e-01
  1.3621375e-01
 -7.2010376e-02
 -3.7551604e-02
  3.2087276e-03
  6.4214095e-02
  4.7872063e-02
 -1.4057814e-01
  9.2849806e-02
 -9.6777476e-02
 -3.0721124e-02
  1.6023460e-01
  1.3010044e-01
  1.0697033e-02
  3.0141547e-02
  1.7565665e-01
 -4.0281959e-02
 -1.6916770e-01
  1.5469959e-01
 -7.5533753e-03
  1.2165070e-01
  8.1954591e-02
 -9.3210436e-02
 -1.8071918e-01
 -4.5871861e-02
 -3.6178878e-01
 -1.9105354e-01
 -2.2459340e-01
  2.6288103e-02
 -2.3154622e-01
  2.5325128e-01
 -6.0293472e-01
  1.0639004e-01
 -3.0951150e-02
  7.5762263e-03
  7.6107728e-01
 -3.1048780e-02
 -1.2827451e-02
  2.4263951e-01
 -4.7155690e-01
 -3.4000897e-01
 -8.7738790e-02
 -1.3391611e-01
  7.0513827e-01
 -5.9259266e-02
  1.7414609e-02
  1.6609429e-01
  5.1441219e-02
 -1.6996980e-01
 -6.7334212e-02
 -1.6485040e-01
 -5.7891496e-02
  5.8207940e-02
  1.9306077e+00
 -3.1706983e-01
  1.5785916e-01
 -3.3944884e-01
  3.0744982e-01
  6.1815772e-02
 -2.5579026e-01
  1.4044008e-01
 -3.1250280e-01
  1.5962288e-01
  7.8054285e-01
  6.8544693e-02
 -1.1608984e-01
  1.5210050e-01
  2.3601468e-01
 -1.1819751e-01
  2.3348804e-01
 -5.5344883e-02
  4.3886557e-02
  2.5731820e-01
  5.9820062e-01
 -1.1099605e-01
  8.0086954e-02
 -3.7896144e-01
  6.6669279e-01
  1.6308181e-01
  3.4397811e-02
 -4.4171274e-02
 -2.0207393e-01
 -3.5281781e-02
 -7.6147860e-01
 -7.0800952e-04
  2.8777701e-01
 -5.6810096e-02
 -1.5697688e-01
  1.1688638e-01
 -3.5248020e-01
  2.1651320e-01
 -6.3573174e-02
 -7.4386761e-02
 -1.4587834e-01
  2.3190132e-01
  3.9045960e-02
  1.7195757e-01
  4.8259530e-02
 -1.9233318e-02
  3.4050623e-01
 -1.8363511e-02
 -1.5043151e-01
  1.7967263e-01
 -5.4021734e-03
  1.9487734e-01
  4.0197767e-02
  1.7687717e-01
 -1.5133445e+00
 -1.6830568e+00
 -4.0053207e-02
 -3.7048280e-02
 -3.9350533e-01
 -3.5851958e-01
  6.0865846e-03
  8.7675564e-02
  3.4795544e-01
  1.7292197e-01
  7.5769238e-02
 -7.5739667e-02
 -9.5902346e-02
  3.4219310e-01
  1.9678544e-01
  2.1262102e-01
  6.4749783e-03
 -1.6704209e-02
  2.8772134e-01
  2.6503748e-01
  5.1192395e-02
  1.6258611e-01
  3.9808458e-01
  1.5192913e-01
 -2.0552079e-01
  2.0629110e-02
 -3.8849229e-01
 -9.2194192e-03
 -1.3005221e-01
 -4.2859069e-01
  2.6423213e-01
 -1.1188314e-01
  2.8034354e-02
  1.1895470e-01
 -1.4221387e-01
 -5.7655978e-01
 -1.6508070e-03
  8.2396030e-02
 -3.5896328e-01
  1.1577405e-01
 -9.6973151e-02
  1.5764758e-01
  3.5584778e-02
  5.1407069e-03
  1.7217508e-01
 -4.6708819e-02
  2.7813953e-01
  3.3259932e-03
  2.4694115e-01
  8.3277039e-02
  6.1558098e-02
 -8.9396961e-02
 -7.7184327e-02
  2.6968348e-01
 -2.3724224e-02
  3.3347461e-01
 -6.1275822e-01
  8.7042212e-02
  1.3312764e-01
 -1.7592771e-01
  4.9144231e-02
 -7.8001834e-02
 -5.8578152e-02
 -6.3462250e-02
  4.9651080e-01
  1.4325276e-02
 -1.6517101e-01
 -1.7244963e-01
  2.6840526e-01
 -1.3164169e-01
  2.2638315e-02
  4.1044348e-01
  4.1433373e-01
  9.3801878e-03
 -8.7072656e-02
 -2.2838492e-02
 -2.4815431e-01
 -1.4141937e-01
 -2.6657177e-02
  2.2046857e-01
 -6.2774187e-03
 -1.4119077e-01
  6.8855369e-01
 -3.0839184e-01
 -6.1303926e-01
  8.3759129e-02
 -2.8089127e-01
  1.9546869e-01
  3.9370775e-02
  3.3114025e-01
 -8.5776776e-02
  1.3026482e-01
  3.2861885e-01
  4.9133369e-01
 -9.3945988e-02
  4.3193442e-01
  2.5784856e-01
 -3.4681484e-02
 -2.3907793e-01
  1.3273023e-01
 -5.5746344e-04
  9.6429884e-02
  4.8866823e-02
  1.2915311e-02
  9.9358290e-02
 -4.1442271e-02
 -1.2649445e-01
 -1.6047691e-01
  1.1135127e-01
  3.0253804e-01
  9.7347850e-01
 -5.4468855e-02
 -3.6500660e-01
  3.2988706e-01
 -4.9125277e-02
 -8.7426126e-02
  2.2664452e-01
  1.3975113e-03
  2.0793406e-02
 -8.3405322e-01
 -6.3515835e-02
  3.3154696e-01
 -4.9224120e-02
 -8.3168989e-01
  1.2468573e-02
  9.6152199e-04
  8.4979236e-02
  2.1184688e-02
  1.5840558e-02
  4.4649664e-02
 -3.2854930e-01
 -2.1780880e-01
 -4.2016226e-01
 -5.2616614e-01
 -7.1046251e-04
 -2.1074813e-02
 -6.6762006e-01
  7.1706182e-01
  3.1657070e-01
 -1.0006651e+00
  3.1496102e-01
  3.4224674e-01
 -9.7126782e-02
 -1.2871532e+00
 -5.7590626e-02
  2.0020689e-01
 -5.3621846e-01
  3.2588135e-02
  1.0980318e-01
  1.9125780e-02
 -4.4204095e-01
  1.7585987e-01
  2.6710108e-01
 -3.0459276e-01
  2.0650439e-01
 -2.7858528e-01
 -7.6762430e-02
 -1.4381076e-03
  1.8541549e-01
  6.2513632e-01
 -1.2664132e-01
  8.2878053e-02
 -1.3766747e-02
  3.4723505e-01
  4.9498763e-02
 -1.3346781e-01
  1.4797999e-01
 -6.4448952e-03
 -1.9438230e-01
  4.3996993e-02
 -1.4704630e-01
 -4.5230083e-02
 -2.4112424e-01
  3.9787924e-01
 -3.4693402e-01
  6.0648967e-02
 -2.4488205e-01
 -3.0015388e-01
 -2.3181570e-01
 -1.5703678e-02
 -1.7627238e-01
  1.5744901e-01
  9.8571323e-02
 -1.2524593e-01
  9.7467273e-06
  6.2953517e-02
  2.8479749e-01
  2.7838075e-01
 -2.4802750e-03
 -8.0834731e-02
  4.2296201e-01
 -3.7821408e-02
 -4.9798705e-02
 -4.5591434e-03
 -5.8725733e-02
  1.9500884e-01
 -3.0367488e-01
 -2.1398684e-02
 -1.0375008e-01
 -8.3466572e-01
  2.0172957e-02
 -3.7437937e-01
 -3.4532048e-02
 -2.0823394e-01
  2.5182858e-02
  7.8053840e-02
 -8.0947690e-02
  2.8619760e-01
 -2.1778498e-02
  2.1686719e-01
 -1.7374568e-01
  3.9654698e-02
 -4.0060733e-02
  2.6699522e-01
 -5.3421521e-01
  5.9967536e-02
 -8.3995508e-03
  1.2266953e-01
 -5.3762060e-01
  8.5729167e-02
  5.7277806e-02
  5.4012454e-01
 -2.9802999e-01
 -2.6619506e-01
  8.0415018e-02
  1.0060482e-03
 -1.2973545e-01
  3.7053593e-02
  1.3646502e-02
 -5.5554349e-02
 -6.2730646e-01
  3.8384345e-01
 -4.1519277e-02
  3.9102197e-01
 -3.7031996e-01
 -1.7000094e-02
  1.1335212e-01
  1.7688757e-01
 -1.4809461e-01
  1.5675783e-01
  6.4060278e-02
  1.5642107e-01
 -5.1403648e-01
 -1.9591402e-01
 -1.7990969e-01
  1.1878304e-01
  1.2786861e-01
  4.7990125e-02
  3.9710492e-01
  1.5107939e-01
  2.6095650e-01
 -3.0026171e-01
  3.1318493e+00
  9.5582873e-02
  1.6330859e-01
 -3.4284088e-01
 -1.1985604e-01
  5.4117694e-02
 -7.1322501e-02
  1.3502173e+00
 -3.9017668e-01
 -4.4447610e-01
  1.0380789e-02
  2.8362983e-01
 -7.6609582e-02
  1.2430335e-01
  1.7585814e-01
  1.0075238e+00
  1.1663487e+00
 -3.7664041e-01
  4.8405446e-02
 -3.9759395e-01
 -1.0321212e-03
  1.8623514e-01
  1.1531149e-01
 -6.2905157e-01
  5.5685733e-02
  4.0439062e-02
  1.4396952e-01
  2.7275272e-02
  1.0448523e+00
  1.6581306e-01
  4.1777205e-01
 -1.5996680e-01
 -6.1587048e-01
  5.6391835e-01
 -2.5408691e-01
 -3.3265036e-01
  3.2326814e-02
 -2.1415427e-01
 -2.1010604e-02
  1.8139549e-01
 -9.8671950e-02
 -3.9981735e-01
  1.1879842e-01
 -6.6253251e-01
 -2.2755568e-01
 -5.0887126e-01
  9.4905756e-02
 -5.7303604e-02
  5.0722563e-01
 -1.8387835e-02
  9.6393034e-02
  7.6667845e-02
  4.9390283e-01
 -9.0057373e-02
  1.1224272e-01
  1.2178815e-01
  1.0556965e-01
  3.5554969e-03
  2.3834990e-02
 -1.8456130e-01
 -4.4177962e-03
 -7.9492396e-03
 -1.9464523e-02
  1.8430123e-01
  2.1617122e-01
 -4.3612319e-01
  1.8250515e-01
 -1.3819215e-01
  4.8302263e-01
 -1.0047261e-01
  1.8553682e-01
  4.9379067e-03
  2.1791871e-01
  5.7013758e-02
 -2.0263562e-01
 -1.1311322e-01
  8.0495939e-02
  1.0428365e-01
  7.5471140e-02
 -5.2358598e-02
 -1.7657047e-02
 -3.6376181e-01
 -9.0058044e-02
 -1.5408058e-01
 -1.5736383e-01
  4.7590677e-02
  1.1447539e-01
  1.4010905e-01
 -1.5930511e-02
  2.7703685e-01
 -3.2953065e-02
 -2.0925833e-02
 -2.2576863e-02
 -5.6571633e-02
  2.0144697e-02
 -5.3972416e-02
 -3.0916724e-01
 -1.1524094e-02
 -2.6821580e-02
  4.6620208e-01
 -1.4763579e-01
 -4.7794372e-01
  5.9247866e-02
  5.0508398e-01
  4.7879517e-01
 -7.8678340e-01
  2.2421095e-01
  2.6062918e-01
 -1.6406985e-01
  2.9499593e-01
  6.9746876e-01
 -7.9506421e-01
 -2.2084224e-01
 -2.2205229e-01
  2.4807377e-01
  1.1708993e-01
  1.0322896e+00
 -8.9533240e-02
 -5.8328547e-02
  2.3363667e-02
  1.6461197e-01
 -1.7087622e-01
 -4.4957381e-01
  5.2809083e-01
 -3.0962173e-02
  2.4260385e-01
  1.8152615e-01
 -3.1690380e-01
  8.5072853e-03
 -5.0326258e-01
  2.3547166e-03
 -3.3682594e-01
 -4.4415966e-01
 -5.7796144e-01
 -6.7632079e-02
 -1.1709626e+00
  4.0831804e-01
  1.1774501e-01
  2.7712590e-01
  2.2059666e-01
 -2.2919273e-02
 -4.6043471e-02
  1.7120087e-01
  8.5096389e-01
  7.9548055e-01
 -1.6832250e+00
  2.2384809e-02
 -7.9811388e-01
 -4.5416704e-01
  7.8589571e-01
 -4.0999085e-02
 -3.3285502e-01
  5.0871354e-02
  1.9133349e-01
  7.5703844e-02
  1.9283447e-01
  2.4591200e-01
 -1.6828357e+00
  2.8202347e-02
 -9.2272880e-03
  9.6323229e-02
  6.5723695e-02
  2.2757778e-02
  7.4218988e-02
  3.2478920e-01
  4.3853435e-01
 -6.8350339e-01
  3.7553358e-01
  2.4309090e-01
  5.5365078e-02
  1.2376273e-01
  2.5380248e-01
  1.4661174e-01
 -1.8004799e-01
 -3.8843465e-01
  3.6487532e-01
  2.4126829e-01
 -1.2689002e-01
  7.8764357e-02
  3.2632682e-02
  5.5527873e-02
  6.1696458e-01
  1.8478568e-01
 -1.1793145e-01
  1.4652200e-03
  6.6584802e-01
  2.5171295e-01
 -5.2472138e-01
 -8.2574800e-02
 -1.6054069e-01
  1.2999526e-01
  2.7971596e-01
 -8.8756435e-02
 -7.6198049e-02
 -1.2845082e+00
  1.9125549e-02
 -1.9914635e-01
  8.7654181e-02
  1.0116041e+00
 -1.3174626e-01
  4.2726281e-01
  3.7621760e-01
 -8.6184472e-01
  1.4665768e-01
  5.4774219e-01
  1.6248696e+00
  1.9458916e-02
 -8.4702218e-01
 -3.5000640e-01
 -2.2638439e-01
  6.8780112e-01
  2.8356752e-01
  1.4223245e-01
  3.0254188e-01
 -1.6472030e-01
 -2.4775410e-01
 -4.0790204e-02
 -6.4840548e-02
 -2.1453182e-01
 -1.9731636e-01
 -1.1225127e-01
  5.6726836e-02
 -3.3779964e-01
  2.2757490e-01
  3.4557916e-02
 -5.5038687e-02
  4.3569855e-02
  3.4041399e-01
 -2.7617642e-01
 -1.5931924e-01
  1.4255257e-01
  1.9354391e-01
 -8.8627122e-02
 -3.7350470e-01
  2.9522175e-01
 -1.6792911e-01
 -2.1868283e-01
  2.4894707e-01
  7.1529679e-02
 -1.7084461e-01
  2.6251268e-02
 -6.8643607e-02
  2.4248224e-01
 -1.3173389e-02
 -7.8588866e-02
  3.0523086e-01
 -9.4881266e-02
 -3.2680428e-01
  2.2759994e-02
 -6.2188227e-02
 -6.2393922e-01
 -4.3946403e-01
 -7.4559763e-02
 -1.2708104e-01
  1.9518460e-01
  2.8891125e-01
 -1.1399003e-01
 -2.8755757e-01
  1.2543212e-01
  8.7536670e-02
  3.6083438e-02
  2.2422940e-02
 -6.6090867e-02
 -1.1247651e-01
 -7.2462320e-02
  2.8738609e-01
 -6.4869270e-02
  4.3383488e-03
 -1.8742673e-01
  2.8377542e-02
  1.0775353e-01
  5.5352360e-02
  1.8834326e-01
  7.4797966e-02
  2.6579958e-01
  8.0325222e-03
 -1.7193317e-01
  4.6595659e-02
  5.3902048e-01
  7.1485527e-04
 -2.0246762e-01
  3.4459956e-02
 -1.9908461e-01
 -6.1414075e-01
  3.3292863e-01
  4.7567815e-01
 -8.9753971e-02
  2.2897691e-01
 -1.7268640e-01
 -5.4623973e-02
 -5.1255472e-02
 -3.8025358e-01
  2.2640097e-01
  2.1313044e-01
 -5.1991995e-02
 -1.8088749e-02
 -1.4517458e-02
  2.2500412e-01
 -9.0212360e-02
 -1.9363217e-01
 -7.0343173e-01
 -1.2995771e-02
  5.5396420e-01
 -2.3256373e-02
  5.4916248e-02
  2.9209602e-01
  1.1215914e-02
  5.0133154e-02
 -8.3004892e-01
 -8.1624016e-03
 -1.3391708e-01
  1.0887311e-01
  4.3864498e-01
 -4.3994442e-02
 -2.6078409e-01
 -1.2206101e-01
 -4.3945916e-02
 -1.1204488e-01
 -8.6065221e-01
  1.2457300e-01
 -6.0636103e-01
  1.3749950e-01
 -5.1005695e-02
  8.1880726e-02
 -2.1030158e-01
  1.8591942e-01
  8.6714260e-02
 -4.1103986e-01
 -3.3345804e-01
  8.2558140e-02
  9.0597846e-02
 -5.1990114e-02
  1.1693011e-01
 -3.8432337e-02
  7.9955552e-03
 -8.4870048e-03
 -3.9064523e-02
  2.9459115e-02
 -3.9456077e-02
  7.8820102e-02
 -1.3791497e-01
  5.1244248e-02
  1.4352590e-01
 -8.2033304e-03
  3.6057949e-02
  9.3051046e-02
  3.9373096e-02
  1.1894871e-02
  3.0890474e-01
 -2.6335910e-01
 -4.2737332e-01
 -9.7955860e-02
 -2.4994996e-01
  5.5227610e-03
  2.0817170e-01
  1.8059404e-01
  3.0851834e-02
  2.2698779e-01
  2.0903605e-01
 -1.0001165e-02
 -1.3126850e-01
  1.1224251e-03
  1.3082729e-01
 -1.5325050e-01
 -8.7180138e-02
  2.6053652e-01
  3.6265036e-01
  1.9135661e-01
  1.2097936e-01
 -2.1641588e-01
  8.7549902e-02
  2.0546239e-02
  4.1613184e-02
  7.8450121e-02
 -1.9020885e-01
 -2.7372578e-01
 -8.6042076e-02
  1.2557392e-01
  2.6414145e-03
 -1.9725040e-02
  5.1835254e-02
  4.2362717e-01
  2.5159579e-02
 -2.2162639e-01
 -1.7154531e-01
 -1.3740857e-01
  1.7442785e-03
 -1.3765682e-02
 -5.5998269e-02
 -1.1830439e-01
 -1.7982715e-01
  7.0388809e-02
 -4.9077146e-02
 -1.2891648e-02
 -2.4072787e-01
  7.0956603e-02
  2.5370997e-01
 -4.7660243e-02
  5.6838032e-02
 -8.7497294e-02
 -4.3916855e-02
 -6.8316899e-02
 -1.9429664e-01
  6.7776352e-02
 -6.4949417e-03
  1.0438274e-01
 -2.3611709e-02
 -1.8961363e-01
  5.2207959e-01
  7.7571526e-02
  6.5517031e-02
  1.5158340e-01
 -7.3545849e-01
  6.0832512e-02
 -7.8016981e-02
  1.7022115e-01
  1.2332458e-01
  2.9456012e-02
 -1.9526634e-02
 -3.7457053e-02
  3.0950347e-02
 -1.6275723e-01
  2.4492571e-01
  2.7492461e-01
 -3.7777066e-01
  2.2247267e-01
  4.2651808e-01
  2.7977258e-01
  2.9207987e-01
  6.6731662e-01
  6.8333611e-02
 -5.5527502e-01
 -4.0059675e-02
 -2.4116617e-01
  2.0294324e-01
  8.8562444e-02
  1.1141157e-01
  4.3745604e-01
  8.8797130e-02
 -2.1948783e-01
 -3.1536672e-01
  7.6796353e-02
  7.6554246e-02
  1.1322609e-01
  2.3317473e-01
  3.1217229e-01
  2.6202860e-01
  2.7919190e-02
 -3.8477428e-02
  9.5948160e-02
  6.9369650e-01
  4.1864622e-01
  1.4582832e-01
 -2.5372237e-01
  3.7519243e-01
  1.8304357e-03
 -5.6885403e-02
 -4.0105680e-01
 -6.8557203e-02
 -1.9269115e-01
  2.5754929e-01
  2.3267417e-01
  7.9517223e-02
  1.1571795e-01
  5.0975893e-02
  1.7209658e-02
 -2.5726885e-01
  4.3923560e-01
 -4.1369262e-01
  2.4822687e-01
  5.7177407e-01
 -2.7154624e-01
 -1.5621822e-01
 -2.0997915e-01
  8.6850725e-02
  7.8483514e-02
 -7.6959349e-02
 -5.0004236e-02
 -2.2377752e-01
  1.6217458e-01
 -1.9854170e-01
  2.1279518e-02
 -1.3705277e-01
 -1.1615402e-01
 -7.8778323e-03
  2.0823017e-01
 -3.9610583e-01
 -1.3486332e-02
  3.9523310e-04
 -9.3121864e-02
 -1.7926864e-02
  3.0715051e-01
  1.1379682e-01
 -3.4491023e-01
  8.2817540e-02
 -2.6023588e-01
  1.8778311e-02
  1.1782857e-01
  5.7359320e-01
 -2.2105265e-01
 -4.2197949e-01
 -5.7743192e-02
 -8.7293722e-03
  3.8779512e-01
 -5.0358254e-01
 -6.4728074e-02
  3.9951019e-02
  4.2391166e-01
  4.3119347e-01
  5.5466157e-01
  6.6549249e-02
  4.7763914e-01
 -5.5647236e-01
  1.4694072e-01
  6.7830876e-02
 -3.1435731e-01
 -7.4374306e-01
  6.4284921e-02
 -4.6542961e-02
 -1.1704125e-01
  1.3845894e-01
  3.8798264e-04
  6.3323893e-02
 -2.6358396e-01
  4.3418001e-02
 -7.5122572e-02
  1.6077188e-01
  8.5143942e-01
 -3.2178730e-01
  2.1449449e-02
 -4.3303166e-02
 -5.7031715e-01
  4.8894325e-01
 -8.1772912e-01
 -5.2262700e-01
  1.7312080e-01
 -4.8062079e-02
 -4.7101203e-02
  2.4282187e-01
  1.7568748e-02
 -4.4909552e-01
 -7.3033674e-03
 -5.2769405e-01
  6.9845570e-03
  9.1718173e-01
  1.1445130e-01
  2.0136757e-02
  1.2941583e-01
 -1.4439869e-01
  1.4048596e-01
 -4.4061491e-01
  1.7174295e-01
 -1.5616015e-01
  4.8816437e-01
 -1.8592587e-01
  1.9917667e-01
 -7.6670460e-02
  1.7156334e-01
 -8.6433627e-02
 -5.0795108e-01
 -2.4546468e-01
 -1.3922118e-01
 -7.1720129e-01
  4.2240611e-01
 -8.7673906e-03
 -4.5532104e-01
  5.8138263e-03
 -1.0553129e-01
  8.3683029e-02
  7.6891907e-02
 -9.4921619e-02
 -1.6694658e-01
  5.7444006e-01
 -2.8058204e-01
  1.8625263e-02
  6.6702321e-02
 -2.3275603e-02
  2.6881408e-02
 -2.5483930e-02
  2.3324369e-02
  6.7126676e-02
  5.6930799e-02
  3.5656244e-02
 -1.1338059e-02
  7.6195247e-02
  2.7538856e-02
  3.2924756e-02
 -5.3291500e-01
  2.8214470e-01
 -5.9202540e-01
  6.7564718e-02
  3.5421625e-02
 -2.2863980e-01
 -7.9194680e-02
  1.7419730e-01
  8.8366859e-02
 -3.2434559e-01
 -8.0610484e-02
  3.4548280e-01
  1.2858002e-01
 -2.1602349e-01
 -1.0100416e-02
  1.6538274e-02
  2.8402412e-01
 -1.7097141e-01
  7.3605254e-03
 -1.2594780e-01
  6.7101739e-02
  1.3648219e-01
  2.8664735e-01
 -4.4680738e-01
  2.8462064e-01
  2.0074628e-03
  1.8471785e-01
 -3.7651461e-01
  1.4671755e-01
  1.2014542e-01
 -2.5095090e-02
  3.9638385e-01
 -3.6054291e-02
  1.0435669e-01
 -1.1385443e-01
 -1.4329985e-01
  5.2748120e-01
 -2.3528281e-01
 -1.4012271e-01
  2.8755876e-01
 -1.7082317e-02
  2.2303191e-01
  2.1587363e-01
  7.2638039e-03
  1.7735069e-01
  1.2421180e-01
  7.3419100e-01
 -1.6020951e-03
  6.0343247e-02
 -2.1344589e-01
 -3.3637774e-03
 -7.8500368e-02
 -5.1706295e-02
 -4.4925820e-02
  1.3912305e-01
  2.6107502e-01
  4.1458867e-02
 -1.7173603e-01
  1.3416767e-01
  5.3031947e-03
 -2.4727209e-01
  1.8683228e-01
 -6.6702791e-02
  1.0739262e-01
  5.6302700e-02
  8.1631295e-02
 -2.8502868e-02
  7.0369177e-02
  3.6756158e-01
  1.2433410e-01
  2.3335347e-01
  1.0970388e-02
  2.6996061e-01
 -7.9541668e-02
  9.6202934e-01
  8.8780321e-02
 -1.3846658e-01
 -1.7715198e-01
  1.6065964e-02
  7.8484215e-02
  1.7633468e-01
  3.1333145e-01
  2.4565730e-02
 -1.2011304e-01
  1.1445272e-02
  2.1102536e-02
 -7.0468627e-02
  2.0381609e-01
  4.9667582e-02
 -2.6170908e-02
 -2.3514595e-02
  8.7070949e-02
 -3.4514464e-02
  6.2454864e-02
  3.2190853e-01
  4.6891445e-01
  1.3545342e-01
 -3.3373792e-02
  2.8691083e-01
  6.6287592e-02
 -1.6176361e-01
  2.8306444e-04
 -8.6092828e-03
 -5.8588606e-01
  6.9739791e-03
 -4.5633189e-02
 -1.2178805e-02
 -3.5953779e-02
 -2.3686071e-01
 -8.9562130e-01
 -8.7498918e-02
  6.0541429e-02
 -1.2699580e-01
  3.2553419e-01
 -2.4434142e-01
 -2.9998425e-02
 -2.2957230e-01
 -3.0280868e-02
  8.0065103e-03
  3.4156643e-02
  2.4173853e-01
 -2.5213456e-01
  2.5392443e-01
 -2.4472769e-02
  7.6416358e-02
 -2.4071072e-01
  4.3246578e-02
 -1.7495140e-01
 -1.8883330e-01
 -9.7838650e-03
  1.4591447e-01
  3.9110473e-01
  1.3297860e-01
 -3.8230893e-01
 -2.0088071e-01
 -2.1949364e-01
 -3.4553358e-01
  2.4838720e-02
  2.4329688e-01
  1.8820724e-01
  2.8190134e-02
  2.7069035e-01
 -1.0197465e-01
  2.3791684e-01
 -1.2702510e-01
  1.7188333e-02
  3.6830348e-01
 -2.8663981e-01
 -2.4687794e-01
 -9.1703080e-02
 -1.9990125e-01
 -3.1031954e-01
  3.4755480e-01
 -1.1157698e-01
  2.7146584e-01
  1.0446430e-01
  1.9267765e-01
  6.1284214e-01
 -6.1658067e-01
  1.3189028e-01
  4.8493642e-02
 -6.9434784e-02
  2.1905811e-01
 -2.0027831e-01
 -5.9070593e-01
 -1.8768584e-02
  5.1007967e-02
  1.7464796e-02
  1.3403691e-01
  1.6532040e-01
 -3.2646183e-02
 -1.8670988e-01
  9.7498499e-02
 -1.0217770e-02
 -7.2089680e-02
  4.1296452e-02
  2.8731622e-02
 -3.5068607e-01
  3.1915268e-01
  8.1361003e-02
  2.3218773e-01
  3.1057168e-02
 -4.0077087e-02
  2.9879760e-02
  1.7878538e-02
 -3.0578300e-01
  1.8743041e-01
  1.3545697e-02
  2.3927680e-01
 -1.0999893e-01
 -8.2064375e-02
 -2.9005891e-02
 -2.3236911e-01
 -9.9966833e-03
  1.7222542e-01
 -2.3584518e-01
  6.1652577e-01
 -1.1245220e-01
  2.0188031e-01
  8.9811444e-01
 -1.6169785e-02
  4.3597035e-03
  1.3226889e-01
 -3.6050281e-01
 -1.0818408e-01
  4.0144086e-02
  1.7149340e-01
  1.2019112e-01
 -4.0820248e-02
  3.3862686e-01
 -1.1296480e-01
  3.0461311e-01
 -5.8117822e-02
 -2.3293774e-01
 -2.7850628e-01
  8.3415620e-02
  8.2779288e-02
 -3.0037260e-01
 -7.5584298e-01
  3.8528508e-01
  2.4058938e-02
  4.5408073e-01
  1.9320132e-01
 -4.1179985e-02
 -6.8309084e-02
 -1.6765711e-01
  3.8542323e-02
 -1.4417200e-01
 -5.1167560e-01
  5.9845293e-01
 -3.6974410e-03
  1.2497365e-01
  3.5222292e-02
 -3.9325410e-01
  1.2180630e-01
 -1.2649460e-01
  1.1445370e-01
  4.0890090e-02
  1.9229726e-01
  7.5916103e-03
 -1.6866663e-01
 -2.9607488e-02
 -1.2067392e-01
  8.7497212e-02
 -4.4240456e-02
 -7.9607546e-02
 -2.7076464e-02
 -2.7845541e-01
 -2.0203276e-02
  2.0515369e-02
  6.9780573e-02
 -1.1882495e-02
 -3.4000188e-02
  2.0108345e-01
  2.2206260e-01
 -5.2593023e-02
 -4.8393294e-01
 -6.6468637e-03
  3.0554183e-02
 -1.3612969e-01
 -9.2451442e-03
  7.0824042e-02
 -1.6841234e-01
 -2.0094697e-01
  6.2582272e-01
 -1.8942147e-02
  6.1835736e-02
 -1.8193312e-01
  1.3904932e-01
  4.2525452e-02
 -9.9850737e-02
  7.2820902e-02
 -3.6899787e-01
 -6.4392811e-01
  6.8876937e-02
 -4.2214173e-01
  3.3682653e-01
  6.3553506e-01
 -3.8781658e-02
 -8.3542913e-02
 -6.2155016e-02
  3.9817818e-02
 -1.1785157e-01
  3.2752594e-01
 -1.1865373e-01
 -2.3190935e-01
 -1.0028605e-01
 -1.2257618e-01
 -1.4235941e-01
  5.8967513e-01
 -2.8333583e-01
  5.8304008e-02
  2.0995675e-01
  3.2771382e-01
 -6.8102233e-02
 -2.5708520e-01
  4.0570232e-01
  1.7163409e-01
  4.1644432e-02
  1.1750074e-01
 -1.7048100e-01
  5.3009283e-02
 -2.9767886e-01
  1.4930941e-01
  6.0330633e-02
 -2.0385206e-01
 -3.8895000e-02
  3.1059703e-02
 -3.0784102e-02
 -7.2523616e-02
 -1.3202992e-01
  1.4156656e-01
  4.0727276e-01
  1.5937718e-02
  6.3068546e-02
  4.2548008e-02
  1.5075400e-01
  1.2744084e-01
  5.7626641e-01
  7.3658213e-02
 -1.1364383e-01
  3.1273726e-02
 -8.9353211e-02
 -4.5000282e-04
  3.2974999e-02
 -1.2698494e-01
 -9.3840510e-01
 -1.8776184e-01
  1.3757224e-01
 -5.9862003e-02
  9.7906165e-02
 -3.7413439e-01
  1.3205396e-02
 -1.6771172e-01
  3.8580370e-01
  8.6184070e-03
 -5.6170160e-01
  5.9364256e-02
 -3.1435233e-02
  4.1872108e-01
 -2.0138276e-01
 -1.2377318e-01
 -6.8645559e-02
 -4.2402914e-01
 -5.9802830e-01
 -7.9938836e-02
  6.5445982e-02
 -1.6808942e-01
  1.0121236e-01
  3.2695854e-01
  1.9734049e-01
 -1.8877214e-02
 -1.7778445e-03
  1.6459969e-01
 -1.3416424e-02
 -1.1031071e-01
 -4.3607950e-01
  6.9890577e-01
 -1.4295879e-01
  6.7897283e-02
 -2.0925754e-01
  3.8145000e-01
  9.1075167e-02
  1.7560364e-01
 -3.3004615e-02
  8.7156147e-02
  2.1137193e-02
 -6.1761171e-02
  1.0402393e-01
  2.4595001e-01
 -3.2694251e-03
  7.5483143e-01
  8.8066705e-02
 -1.7275903e-01
 -2.4242575e-01
  6.3589983e-02
  3.3285789e-02
  4.6883541e-01
  4.9831204e-02
 -7.9150476e-02
 -7.0190537e-01
  1.5244314e-01
  4.6989071e-01
  2.8086966e-01
 -1.3309496e-03
 -2.1886131e-01
  3.4958169e-01
  7.1336424e-01
 -3.3914107e-01
  2.1433656e-01
 -1.0039347e-01
  5.6247979e-01
  2.8440860e-01
 -4.4567767e-01
 -2.8462717e-01
 -1.3854340e-01
 -1.6194470e-01
  2.9830557e-01
  1.3938707e-01
  4.6370271e-01
 -3.3033809e-01
  1.3634901e-01
 -1.2781616e-01
 -3.0201212e-01
 -4.5875067e-01
 -1.2921841e-01
 -1.4555126e-01
 -1.0106140e-02
 -3.5884473e-01
 -3.2164201e-02
 -2.1185312e-01
  5.9808798e-02
  3.9874062e-02
  1.9638678e-01
 -5.7227198e-02
 -4.8483454e-02
  7.7699110e-02
 -7.4035421e-02
  6.1602641e-02
 -2.7346665e-01
  3.2929216e-02
  6.2411815e-01
 -3.8034678e-02
 -3.1360111e-01
  7.3668480e-02
  8.7360479e-02
  4.7458103e-01
  6.1837780e-01
  1.8228175e-01
  3.0098388e-01
  4.7272837e-01
  2.2591428e-01
  1.7807524e-01
 -2.2254686e-03
  2.4838369e-01
  3.4064245e-01
 -9.5235187e-01
 -3.6238167e-02
  9.5505856e-02
  5.7462770e-01
  1.0179117e+00
  2.9913118e-01
 -7.6700419e-02
  8.0597274e-02
 -1.1061951e-01
  4.2445794e-01
  1.9527607e-01
 -5.3228086e-01
  2.2656780e-01
  3.2569668e-01
  5.1228225e-01
 -6.6204323e-03
  5.7162863e-01
  4.7445899e-01
 -1.2523161e-01
  1.2742739e+00
  3.5890251e-01
 -2.0313589e-01
  1.8619195e-02
 -1.9107798e-01
  1.0359943e-01
 -6.1310895e-02
  1.3393389e-01
 -4.5238701e-01
 -3.8266113e-01
 -5.7164241e-02
 -3.0035010e-01
 -2.7913722e-01
  1.7393462e-01
 -9.7294532e-02
 -1.7124742e-02
 -6.9522840e-01
 -8.4596679e-02
  3.4219179e-01
 -4.0059251e-01
  7.6802468e-01
 -3.0938831e-01
 -6.0537207e-01
  5.1216651e-02
  2.9510703e-02
  5.6091279e-02
 -4.6344700e-01
  1.2052096e-01
  2.5734851e-01
 -1.3798435e-01
  1.0534370e+00
  1.0134358e-02
  3.0843295e-02
 -3.0079356e-01
 -4.9399707e-02
  3.4335437e-01
 -2.3524162e-01
  8.9696996e-02
  2.3177195e-01
  7.5366117e-02
 -2.7581327e-02
 -1.4498219e-01
  3.3974412e-01
  9.3170568e-02
 -4.8054837e-02
  2.5521773e-03
  3.0334974e-02
 -6.3778949e-03
  1.0012808e-01
  2.3105668e-01
 -2.6852494e-01
  7.1076706e-02
  5.3624904e-01
 -3.8794881e-01
 -3.4654051e-02
  8.0015123e-01
  2.2282399e-01
  5.4733860e-01
  1.7270020e-01
  5.9818268e-02
  3.0579212e-01
  7.9185635e-02
 -8.5631192e-02
 -1.5360592e-01
  4.5524690e-02
  8.9811981e-03
  1.8767020e-01
  9.4127074e-02
 -2.6243913e-01
 -1.3698718e-01
 -9.9310017e-01
 -6.2280517e-02
 -5.7609484e-02
 -4.4569942e-01
  1.3995047e-01
  1.9461355e-01
 -1.1796761e-01
  1.2713531e-01
 -1.1030730e-01
 -5.4062370e-02
 -6.7447889e-01
 -6.9525078e-02
 -1.3787389e-01
 -1.5387455e-01
 -1.4615890e-02
 -8.7580688e-02
 -1.7629504e-02
  3.1021448e-02
  7.0247678e-03
  1.0214874e-01
 -1.3249230e-01
  1.1537650e-01
 -1.1349646e-03
  5.5898219e-02
  1.8962102e-03
 -1.2616515e-01
  1.9989479e-01
 -3.6476409e-01
 -2.6346418e-01
  4.0721372e-01
 -2.1358188e-02
 -1.1652042e-01
 -2.2592272e-01
  6.2739313e-02
 -7.0923164e-02
 -9.2010194e-01
 -1.0829579e-01
  4.6740127e-01
 -3.3641014e-01
 -4.5908195e-01
  3.5923734e-01
  1.5094450e-01
 -6.7522454e-01
 -8.0430388e-02
  2.9563007e-01
  1.5680658e-02
 -3.9765823e-01
 -7.2222374e-02
 -1.0694189e+00
 -5.0665861e-01
 -5.1147014e-01
 -1.3418342e-01
  6.8126962e-02
  2.3676866e-01
  7.5293994e-01
 -4.2385787e-02
  2.3698655e-01
  6.4105384e-02
 -1.3029970e-01
 -8.8492744e-02
  6.6135782e-01
 -1.8566146e-01
  1.1539067e-01
  2.9653223e-02
  5.6074065e-01
 -4.3467155e-01
  2.4966782e-01
 -2.7678296e-01
  1.1879528e-01
  1.4633332e-01
 -1.1015147e-01
  7.4215001e-01
 -1.4031208e-01
 -2.4382645e-01
 -7.6346800e-02
  4.8850957e-02
 -5.3806696e-03
  2.1732183e-02
 -6.3107596e-03
 -6.3991010e-02
  1.2556896e-02
 -1.9699948e-01
  8.0335863e-02
  3.8547945e-01
  1.9838104e-01
  2.0191421e-01
 -5.3563314e-03
  1.1043543e-01
 -2.8706795e-01
 -1.2931667e-02
 -1.2207754e-01
 -4.0081576e-02
 -1.8281089e-01
 -8.8613600e-02
  3.9834130e-01
  7.6666027e-03
  4.0351433e-01
 -8.5737973e-01
  6.3560700e-01
  3.4246776e-01
 -9.3689956e-02
 -1.5337586e-01
  2.6549780e-01
  4.1898794e-02
 -1.5550771e-01
 -1.4468604e-01
 -4.2685974e-02
 -9.2625600e-01
 -2.7192590e-01
 -6.1245906e-01
 -5.8272830e-03
 -4.5343217e-01
  1.8649378e-01
  5.8898520e-01
  2.1485563e-01
  2.2602743e-01
  2.8974858e-01
 -5.4873049e-01
 -1.6279840e-01
  8.7164864e-02
 -2.8692728e-01
  3.1479886e-01
  7.7160075e-02
 -2.8163588e-01
  9.8246686e-02
 -5.2682823e-01
  3.4237761e-02
 -2.5427517e-02
  4.0475115e-01
 -2.8911760e-01
 -3.1149468e-01
 -3.5964835e-02
  3.5586461e-02
 -2.3994362e-01
  8.1018470e-03
  3.2160059e-01
 -2.0692308e-02
 -1.5483314e-01
 -1.9178545e-01
 -5.5614918e-02
 -2.1346164e-01
  7.1718112e-02
 -1.6152672e-01
  8.4795155e-02
 -5.9074815e-03
  5.3167745e-02
 -3.6614239e-02
  4.0961948e-01
  2.1303628e-02
 -2.0909950e-01
 -1.3998891e-01
  4.7665742e-01
 -4.3287750e-02
 -8.8288046e-02
  1.1337191e-02
  6.8636671e-02
 -8.3968841e-02
 -1.0614545e+00
 -3.7421930e-01
  1.0715735e-02
  2.9372138e-01
  8.4421355e-03
 -4.7578987e-01
  3.2042600e-02
 -3.3591185e-02
  4.5314081e-02
  3.3075896e-01
 -1.4081129e-01
 -1.6492029e-01
  3.3140135e-01
  9.6097507e-02
 -3.7755679e-02
 -2.1013053e-01
  1.2585953e-01
 -3.5062255e-03
 -2.4460891e-01
  8.5254169e-01
 -2.2313046e-01
  1.1189589e-02
  1.0245962e-01
  7.2434030e-02
 -1.9869702e-01
 -6.6920948e-01
  6.4767018e-02
 -6.7139804e-01
 -1.9655447e-05
  4.9365912e-02
 -2.1018362e-01
 -4.0964752e-02
 -2.8311044e-01
  5.9037592e-02
 -1.7857985e-01
 -5.2419901e-01
  1.8788579e-01
  2.9270640e-01
  1.9532932e-01
  4.6668764e-02
 -1.7513169e-01
  5.1916301e-02
 -2.9831070e-01
  1.2105236e-01
 -6.7459784e-02
 -4.8143086e-01
  1.4204481e-01
 -1.1113701e+00
 -2.7763101e-01
 -1.7915841e-02
 -1.0858984e-01
 -9.5137777e-03
  3.5243037e-01
 -1.2431775e-01
 -1.2308598e-01
  1.7296721e-01
 -3.6251846e-01
  4.0728856e-02
  2.2893772e-01
  4.1594562e-01
 -4.3585324e-01
 -5.2696031e-02
 -2.7837282e-01
  7.4877888e-01
  2.7517524e-01
 -5.0213760e-01
 -1.3809223e-01
  2.4322844e-01
  3.5332647e-01
  3.1775173e-02
 -3.3619231e-01
 -3.3862034e-03
 -2.4864388e-01
  1.1235099e-01
  1.2860834e-02
  4.8904747e-02
  3.8951196e-02
 -3.4030721e-02
  9.8816276e-02
  1.8408011e-01
 -5.9365276e-02
  4.3806854e-01
 -1.6032830e+00
 -5.2467193e-03
 -3.1407571e-01
 -5.0533819e-01
  6.8826520e-01
  2.2915295e-01
  3.5187908e-02
  1.6464050e-01
 -2.8390947e-01
  1.1142951e-01
  1.7180305e-02
 -7.7192742e-01
 -1.5508382e-01
 -3.7809446e-01
 -1.9438750e-01
 -1.1279887e-01
 -7.7502239e-01
  6.2560156e-02
  1.8157253e-01
 -1.8637133e-01
 -1.8154968e-01
 -2.7188245e-02
 -6.6618785e-02
 -2.7717528e-01
  1.6427524e-01
  3.3925299e-02
 -4.8610363e-02
 -2.8774440e-02
  2.3426913e-02
  6.7163929e-02
  3.0646560e-01
 -6.2394802e-02
 -2.4095166e-01
  1.2034605e-01
 -2.4387740e-01
  4.0354673e-02
  1.1271047e-01
  3.9071256e-01
 -3.2809541e-01
  6.8351418e-01
 -5.8075058e-01
  8.3261430e-02
 -3.6204297e-02
 -2.4293983e-01
 -5.8405364e-01
  5.4665264e-02
 -1.1665280e-01
  4.1295227e-02
 -6.3112572e-02
  4.6716541e-01
 -8.3943975e-01
  6.6184461e-01
 -1.4966846e-01
  1.3193043e-02
 -5.8366406e-01
 -2.4058482e-02
 -6.1009991e-01
 -1.3568598e+00
 -2.1364013e-02
 -9.0018110e-03
  5.7791360e-02
  5.1014793e-01
  2.7394551e-01
 -1.9432275e-01
 -1.4976871e-01
  7.1273559e-01
  1.3808433e-02
 -6.8119206e-02
  1.4602955e-01
  3.2694664e-02
 -8.8023722e-02
 -5.3684372e-01
 -1.1204907e-01
 -1.0329375e-01
  4.2793546e-02
 -1.4070868e-01
 -1.8199016e-01
  1.0103024e-01
 -7.6259680e-02
 -6.9121987e-02
  4.7488133e-03
  2.2068830e-01
  9.5122784e-02
 -1.7240967e-03
 -4.2002821e-01
  8.0456510e-02
 -6.3133962e-02
 -3.3409068e-01
 -6.6515222e-02
  1.7620102e-02
 -2.1189465e-01
 -8.8754902e-03
 -1.8960683e-01
 -2.5516412e-01
  1.0847271e-01
 -1.4861093e-01
  5.1567676e-03
 -1.4490633e-01
 -1.1475004e-01
 -6.4513318e-02
  6.7266904e-02
 -1.1841746e-02
 -5.5527455e-01
 -2.1421175e-01
 -1.3583720e-01
 -4.0081494e-02
 -5.7099804e-02
  8.5486360e-02
  1.9662981e-01
  3.4070346e-01
  2.9545881e-02
 -3.5497493e-01
 -4.6730065e-01
  3.2478020e-01
 -1.4056978e-01
  3.2661203e-01
 -5.2049875e-01
 -2.3983532e-01
 -3.4078267e-01
  2.3003817e-01
  5.6056643e-01
  9.0014271e-02
 -7.5569481e-01
 -2.9491058e-01
  1.4985116e-01
  2.4094384e-02
 -1.0754938e+00
  5.4963189e-01
 -2.1977757e-01
 -2.1068839e-02
  1.2890978e-01
 -2.0718400e-01
  3.6379132e-01
 -1.2553215e-01
 -2.0652790e-02
  3.9062209e-02
 -2.3956482e-01
 -1.7975378e-01
  1.2993263e-02
 -3.1223685e-02
 -1.2842381e-01
  3.5773283e-01
  2.0338632e-02
  5.1381230e-02
 -9.3811072e-02
 -1.9077507e-01
 -4.6755902e-02
 -4.7677651e-02
 -8.2827961e-01
 -2.1765389e-01
 -2.0184509e-01
  6.7357290e-01
  1.2559670e-01
  1.1812853e-01
 -4.1940999e-01
 -1.1221938e-01
 -7.1499377e-02
  1.2164043e-01
  7.8541970e-01
  8.3923733e-01
  1.0916849e-01
 -3.5634017e-01
 -2.9943198e-02
  1.0901258e-01
  2.6323402e-02
 -2.4790914e-01
  7.7037506e-02
  3.5229743e-02
 -5.4469985e-01
  6.1764739e-02
  3.2373447e-02
  2.3637401e-02
 -5.0237313e-02
 -2.5804123e-01
  8.4100015e-02
  2.8551873e-02
  8.5479960e-02
  1.0422555e-01
 -3.0574188e-01
 -6.5521345e-02
  5.5600502e-02
 -2.1154128e-01
  9.8926328e-02
  5.7593295e-03
 -1.8007319e-01
 -3.9045092e-01
 -5.8655582e-02
  6.7095727e-02
  1.5255389e-01
  8.1640162e-02
  9.6042091e-03
  8.0006355e-03
  2.2010355e-01
 -4.0374324e-02
  3.7139478e-01
 -9.1725223e-02
  3.9364225e-01
 -7.4343987e-02
 -3.7646574e-01
 -1.6127679e-01
 -4.1749649e-02
  1.8774202e-01
 -2.6415678e-02
 -1.8874300e-01
 -2.1110755e-01
 -1.8204942e-01
  8.0170952e-02
 -3.4421575e-01
 -2.7866881e-02
 -1.6316889e-01
  3.3349097e-02
 -1.4564078e-01
 -1.5365162e-01
 -3.1261283e-01
 -9.1476794e-03
 -2.6297572e-01
  6.9001883e-02
 -2.6585022e-01
  7.5237766e-02
 -9.8237805e-02
 -3.7096899e-03
  1.0605340e-01
  5.3889304e-02
 -1.2322116e-01
 -2.8689397e-02
 -3.6291218e-01
  1.6698949e-01
 -1.1977357e-01
 -7.7190390e-03
  4.5643799e-02
 -1.3559836e-01
  2.7360372e-02
  1.1146069e-01
 -4.2387228e-02
 -1.4484656e-01
  2.2577003e-01
 -8.0204479e-02
 -2.0908409e-01
 -6.9149569e-02
  4.4428628e-02
  1.1821260e-01
 -1.8753545e-01
  7.2495885e-02
 -1.4817560e-01
 -1.3558662e-01
 -2.8319889e-01
  1.4817590e-01
 -2.0814011e-01
  1.3688818e-01
 -1.8851985e-01
  1.1900064e-01
  4.6466175e-02
  5.8016907e-02
 -5.2061450e-01
 -2.1080284e-01
 -6.8301266e-01
  5.7915375e-02
 -1.3896297e-01
 -2.4335602e-01
  2.3855373e-01
  1.3164411e-01
 -2.9298648e-01
 -3.2336491e-03
 -1.9967303e-01
 -8.3145328e-02
  1.2073329e-01
  7.6290689e-02
 -1.9635151e-01
  7.4574403e-02
  6.8847658e-03
 -1.1092981e-01
  3.2840747e-02
  4.8880737e-02
  2.8976336e-01
 -5.6345916e-01
  5.7692271e-02
 -8.7032206e-02
 -1.3223845e-01
  3.9128244e-02
  4.6884805e-01
  6.4025305e-02
  1.5464072e-01
 -8.8984981e-02
 -5.6856241e-02
 -1.9357279e-01
 -4.9269983e-01
 -1.7807512e-01
  3.7983498e-01
  9.3638949e-02
 -2.0004673e-01
 -2.1381360e-02
 -3.2491150e-01
 -1.6364279e-01
  3.9817312e-01
 -8.1651345e-02
 -1.0108221e-01
  1.8255633e-01
  3.9787033e-01
 -1.2110732e-02
 -1.1303040e-01
 -3.3314353e-01
 -4.4745959e-02
 -1.3414867e-01
 -2.3338905e-01
  1.7044622e-01
 -7.1323097e-02
  3.3212274e-02
 -6.8235375e-02
  3.1848520e-01
  1.8633190e-01
  1.7022744e-01
  4.4282746e-02
 -9.9594049e-02
  3.4605612e-03
 -4.4093762e-02
 -1.6813178e-01
 -2.3729706e-01
  6.1372608e-02
 -5.3362083e-02
 -8.9671686e-02
 -5.0902538e-02
  3.5716921e-02
 -3.4959489e-01
  3.4541450e-02
  3.2292038e-02
  4.8412204e-01
 -4.5703247e-01
 -7.6513052e-02
  6.3853854e-01
 -1.0230701e-02
  1.0314712e-01
 -3.1622183e-01
  5.4135989e-02
  2.1169232e-01
 -4.9974807e-02
 -4.2827699e-02
  5.5298932e-02
 -4.1516121e-02
  1.3011648e-01
  1.8136579e-03
 -5.3824659e-02
 -7.3833622e-02
 -2.8489113e-02
  1.2169085e-01
  5.0919563e-01
 -2.3949890e-01
  1.3245301e-02
  8.8548176e-02
 -7.2777830e-02
  2.0465953e-03
 -4.2998223e-03
  3.4535915e-01
  7.9310827e-02
  1.6502921e-02
  3.0088723e-01
 -1.6349213e-01
 -1.0314383e-01
 -5.2983552e-02
  7.7643031e-03
  1.2924686e-01
  9.4206184e-02
  2.5524753e-01
 -3.5127450e-02
 -2.2081424e-02
 -3.2281033e-03
 -9.2573218e-02
 -2.6242226e-01
  3.9981967e-01
  2.4720791e-01
  1.8718003e-03
 -1.7200230e-01
 -1.0317838e-01
  2.0279673e-01
 -1.0950800e-01
 -1.6472531e-02
  2.2915311e-02
  2.3787415e-02
  1.2140804e-03
 -5.8543809e-02
 -2.1420481e-02
  2.7472508e-01
 -3.7251372e-02
  2.7396971e-01
  1.0513639e-01
 -1.7563572e-02
 -9.6156998e-03
  2.8930031e-02
 -1.5707008e-03
  9.6275762e-02
  9.5692992e-02
 -7.7401787e-02
  9.1439240e-02
 -6.9512419e-02
  1.1614537e-01
 -1.4533821e-01
  8.4121246e-04
  1.4701194e-02
 -5.9626079e-03
  3.9023345e-03
 -2.1135351e-02
  1.0358408e-02
  2.2775089e-02
  3.5823293e-02
  1.1290567e-02
 -2.1709513e-02
 -1.6224541e-02
  3.0346534e-01
  3.5436410e-01
  1.2323117e-01
  1.0361049e-01
  2.7829817e-01
  1.4889477e-01
  1.4619705e-01
  2.1892066e-01
  7.1847141e-03
 -2.7656886e-01
  1.2679395e-01
  9.0059437e-02
 -4.4780135e-02
 -6.2176688e-03
  1.8984247e-02
  5.2200403e-02
  6.3608237e-02
  1.9224414e-01
  3.9259959e-02
 -6.9011874e-02
  6.5149796e-01
  3.3164427e-01
  8.1696928e-02
 -7.1894445e-02
  3.9117667e-01
  4.5630789e-01
 -2.8319204e-01
 -6.4123034e-02
 -2.9682750e-01
 -2.8402934e-02
  3.5147932e-01
 -1.8670854e-01
 -6.7234677e-01
 -2.8624311e-01
 -7.1204227e-01
  1.3532183e+00
 -5.4830420e-01
  1.0964462e-01
  2.2853065e+00
  7.6325685e-01
 -1.6651054e-01
  2.5441791e-03
 -1.2707564e-02
  2.8482875e-02
  6.6787779e-02
  1.5627002e-02
  8.4356684e-03
  3.5564729e-03
  9.9116728e-02
 -8.3768023e-03
  2.7545804e-01
 -1.9029488e-01
 -1.0400675e-01
  7.7798325e-01
  3.4405789e-01
  1.2747802e-01
 -5.2228607e-03
 -9.7172871e-02
  4.2245373e-01
 -7.9677790e-02
 -1.8557082e-01
  3.3982599e-01
 -5.2662153e-02
  2.9151636e-01
 -1.2856777e-01
  3.5095125e-01
  3.5361741e-02
 -2.0816441e-01
  3.3183277e-02
  1.6005291e-02
 -1.0782487e+00
  1.8590908e-01
  1.0479456e+00
  2.3706855e-02
  1.6585463e-01
  2.6415882e-01
  3.2517451e-01
  3.5825333e-01
  1.2610038e-01
  5.9222245e-01
  1.6385885e-02
  1.9584861e-01
  5.3182384e-04
 -7.7578530e-02
 -3.7885029e-02
  1.5880881e-01
  3.0984327e-02
 -8.1426241e-02
 -2.1422066e-02
 -2.5641635e-01
  1.1227995e-03
 -3.1057663e-02
  2.5880015e-02
  1.5450586e-01
 -8.2262114e-02
 -4.0365952e-01
  1.7032446e-01
  1.6855508e-01
  1.4832142e-01
  1.2999606e-01
 -1.1068717e-01
 -2.1395648e-01
  1.3621889e-02
 -3.0239615e-01
  2.6229441e-02
 -2.2077981e-02
 -3.5075641e-01
 -1.8268108e-02
 -1.3905822e-03
 -7.0870752e-03
 -5.0316159e-02
  1.6513589e-01
  1.7536075e-01
  2.0980920e-01
 -1.5222669e-01
 -5.7474327e-01
 -1.8056460e-01
  5.5460477e-01
 -2.6340783e-01
 -3.0482128e-01
  1.8557668e-01
 -3.6116317e-01
  1.6132501e+00
 -2.1516190e-01
 -2.7060408e-02
  5.0385594e-02
  1.9646601e-01
  1.0474646e-02
  7.0341483e-02
  2.1473899e-02
 -6.6089314e-01
 -2.4599148e-01
  1.3584116e+00
 -8.3479822e-02
  8.9002855e-02
  3.9340697e-02
 -4.5443252e-02
 -2.5227273e-01
  6.2080920e-02
 -7.1672283e-02
  4.6168707e-02
 -7.6481856e-02
  8.2892662e-01
 -1.3298044e-01
  4.9512699e-02
 -4.9431339e-02
 -1.6117340e-01
  4.5083858e-02
  1.1620928e-02
 -9.1329299e-02
  8.7254785e-02
 -1.2356839e-01
 -7.8252889e-02
 -4.2586124e-01
  1.9615023e-01
 -9.6118413e-02
 -6.7393345e-01
  2.0335881e-01
 -5.2989519e-01
  1.7638648e-02
  4.6947952e-02
 -1.9950140e-01
  2.1160071e-01
  1.9339174e-02
 -7.3207788e-02
 -1.6193314e-02
 -4.5018414e-01
 -1.6867547e-01
  1.6482029e-02
  1.6012098e-01
 -9.6013453e-03
  4.1569946e-03
  1.6665781e-01
  3.9048396e-02
  4.3652602e-02
  1.0829655e-02
  9.8308213e-03
 -5.0439313e-02
 -8.4079936e-02
  1.3295232e-01
  1.6777775e-01
  7.6315396e-02
 -1.0665830e-01
  5.8671272e-01
  2.5486261e-01
  3.5416391e-01
  9.3134865e-02
  9.9840425e-02
  1.0924084e-01
 -4.7135830e-01
  1.2985475e-01
 -1.1886291e-01
 -2.4039714e-01
  3.3584926e-02
  2.2313297e-01
 -7.0684023e-02
 -3.5650730e-02
  4.6764410e-01
  2.9027615e-02
  2.7446430e-02
  1.5464150e+00
  3.0585883e-02
  4.1307490e-03
  1.1940269e+00
  5.8878716e-03
 -1.2564331e-02
  2.3637773e-02
 -4.1910508e-03
  3.7247470e-01
 -2.2614956e-02
  3.9350409e-02
  1.3602808e-01
 -1.3531330e-01
  5.3344184e-01
 -4.7533870e-02
  2.7133193e-02
 -4.8486227e-03
 -3.5684001e-01
  3.3096778e-01
  4.6339117e-02
 -1.2172720e-01
  1.8985073e-01
  5.7594750e-02
 -4.2524862e-01
  1.3883430e-01
  1.3580462e-01
 -1.0600466e-01
  1.4271098e-01
 -3.3014405e-01
 -2.2305030e-01
 -2.0745099e-02
 -1.6902028e-01
 -7.0003636e-02
 -3.0419910e-01
 -1.3397233e-01
 -2.9498300e-01
  1.2995598e-01
 -1.6078830e-01
 -4.0235183e-01
 -6.1111160e-02
  5.5940986e-02
  1.2488795e-02
  3.0146253e-01
 -7.5555749e-02
 -3.5139558e-01
 -1.3233194e-01
 -1.7686984e-02
 -4.7153756e-03
 -2.4063723e-01
 -1.3776997e-01
  3.6210990e-01
  6.1719045e-02
 -1.0319980e-01
 -7.2874674e-03
 -2.8576352e-02
  1.2442120e-02
 -1.5091990e-01
 -4.1734564e-01
  7.2758460e-01
 -1.4957339e-01
  8.5262790e-02
  5.0671201e-02
 -2.9963242e-02
 -1.4690039e-02
  7.8385949e-01
  1.6002449e-01
  5.5849005e-02
  1.0166773e-01
 -3.7334856e-01
 -2.7208877e-01
 -1.1813505e-01
 -4.4316259e-01
 -4.0764165e-01
 -1.4185417e-01
 -4.7415819e-02
 -4.7282174e-01
 -6.3416594e-01
  1.8236928e-01
  1.8764343e-02
  1.4199056e-01
  2.0776467e-02
  8.2973324e-02
 -1.7940439e-01
  2.7251527e-02
 -5.4348954e-03
 -1.6367176e-01
  1.2798870e-01
 -3.4089178e-01
  1.9238152e-01
  9.8466195e-02
 -2.9794623e-03
 -4.0188562e-02
 -8.5629784e-02
 -1.3707589e-02
  3.2718551e-01
  3.6723575e-01
  3.9654997e-01
  1.7959169e-01
 -2.4390484e-01
 -5.8539438e-01
  9.9992730e-02
  2.0019281e-01
 -1.1376835e-01
 -1.2257537e-01
  3.8670063e-02
  2.7645549e-01
  3.6611098e-01
  1.2737663e-02
 -4.8961241e-02
 -6.6395864e-02
  4.6670219e-01
  9.2403784e-02
  2.0954727e-01
 -1.0206871e+00
 -8.4221683e-02
 -7.0577972e-02
  7.8681462e-02
  1.5328236e-01
 -2.8314760e-01
 -8.4036008e-02
  3.3383307e-01
  2.6384088e-01
 -7.7097279e-01
  2.6739055e-01
 -2.5134373e-01
  1.3801090e-01
 -6.7245416e-02
  1.1377545e-01
 -3.7720823e-01
 -1.3968030e-01
  1.9156948e-01
  2.0724168e-01
 -4.5744043e-02
  6.0484521e-02
  1.5973574e-01
  4.3118110e-01
 -2.2357432e-02
 -1.4696044e-01
 -2.9014701e-01
 -1.3839839e-01
 -1.8918656e-02
  4.8110217e-01
  3.9522007e-02
 -1.9624760e-02
 -1.4048809e-01
  2.2317231e-02
  2.6010275e-02
  9.8508358e-02
 -1.8971868e-01
 -9.3535639e-02
  2.0795992e-01
  3.7964731e-01
 -5.2934051e-01
  6.6378266e-02
  3.6829051e-02
 -1.2155457e-01
 -1.5478548e-01
 -2.5729906e-02
 -1.3868114e-01
  9.8991856e-02
 -3.2215101e-01
  4.6217659e-01
  6.0190016e-01
  7.6790281e-02
 -2.6450050e-01
 -1.1387805e-01
  2.5302935e-01
  7.2723436e-01
  3.9618337e-01
 -3.1915215e-01
  8.3463794e-01
 -3.2881370e-01
 -3.5104606e-01
 -2.9979306e-01
  2.3380724e-01
 -4.8016727e-01
  6.6966641e-01
 -2.1260448e-02
 -1.8669614e+00
 -2.4085443e-01
 -9.1681875e-02
 -2.9843050e-01
 -2.4802367e-01
  6.8212345e-02
 -2.7745962e-02
  8.9657091e-02
  3.1251758e-02
 -4.4017427e-02
 -4.7349161e-01
 -7.1497852e-01
  6.9210269e-03
  1.1111225e-01
 -9.0940511e-01
  6.9262320e-01
  5.8181775e-01
  1.0352427e-01
  9.0730810e-01
 -1.7136748e+00
  7.9298061e-01
  9.2352413e-02
  3.6716700e-01
  3.5130733e-01
 -3.5016349e-01
 -7.7652967e-01
  1.0036122e-02
 -1.6737303e+00
 -8.1996375e-01
  2.2289716e-01
  6.2025376e-02
  9.8480195e-02
  2.1881460e-01
 -1.9761831e-03
  8.6061604e-02
  7.6561737e-01
  2.0633443e-01
  1.4052417e-02
  1.9970559e-01
  1.3562673e-01
 -3.9166489e-01
  4.2538582e-03
 -1.3120556e-01
 -2.1272537e-01
  1.0290215e-01
  1.1877742e-01
 -2.0010410e-01
 -2.1271576e-01
 -3.9733440e-02
 -1.7089830e-01
 -1.5504813e-02
 -1.9015740e-01
 -2.0356332e-01
  4.0088385e-01
  1.4399774e-01
  2.8644848e-01
  1.1592016e-01
  1.3797642e-01
  1.3084032e-01
  1.2278242e-01
 -2.5076884e-01
 -1.1308371e-01
  7.3068790e-02
 -1.2877624e-01
 -1.6634522e-01
 -4.5463655e-02
  2.2074383e-01
 -1.4998116e-01
 -2.6219806e-01
  8.5159644e-02
  1.3734470e-01
  3.4978780e-01
  1.5527217e-02
  6.1120987e-01
 -2.9654884e-01
 -1.5488228e-01
  2.4641231e-01
  1.2265272e-01
 -9.8313406e-02
  1.6909623e-01
  2.5494289e-02
  2.0287226e-01
 -3.0148509e-01
 -8.1425672e-03
  6.1785454e-01
  4.6015137e-01
 -2.1904543e-01
 -1.2588452e-01
  1.7072567e-01
 -5.4403722e-02
  4.1440928e-01
  2.1222983e-02
 -4.9675918e-01
  1.4132591e-02
 -1.3351850e-03
 -1.0123982e-01
  7.0319973e-02
 -9.6072719e-02
  8.1124566e-02
 -6.7340456e-02
 -1.9553665e-02
 -2.0397032e-02
 -3.7823461e-02
  2.5368951e-02
  1.1840186e-02
 -3.4455508e-02
 -8.8687003e-02
  4.0715367e-02
 -6.2069376e-03
  8.2843073e-02
  8.1685543e-01
 -6.5749699e-01
 -5.5955046e-01
 -1.1556117e-01
 -9.1128504e-01
 -1.8402722e-01
 -4.3800256e-01
  6.6627316e-02
 -2.0842096e-01
  7.0134068e-01
 -1.4164610e-01
 -1.5356191e-01
 -1.0677479e-02
  1.5395004e-01
  5.4952122e-02
 -2.1156554e-01
 -1.8300462e-01
 -5.1632941e-01
 -3.8246617e-01
  2.8249860e-01
 -1.1814047e+00
 -9.1348386e-01
 -2.4752407e-01
  4.5296523e-01
 -1.0466887e+00
 -5.0369239e-01
  2.6267454e-01
  1.0357738e+00
 -3.4380740e-01
  1.6394031e-01
 -6.2109894e-01
  1.1670152e-01
  2.7655524e-01
  1.8111948e+00
  3.4293628e-01
 -1.7548113e+00
  3.0071199e-01
 -6.2391394e-01
 -1.3639779e+00
 -8.9288747e-01
 -4.2045328e-01
 -2.3846984e-02
  5.4279719e-03
  2.9138245e-02
 -2.9970670e-02
  7.2577439e-02
 -2.7000159e-02
  9.7423047e-01
  4.7208646e-01
 -6.7830719e-02
 -2.3224063e-01
 -5.7779409e-02
 -1.0924996e-01
 -3.6371893e-01
 -7.7774441e-01
  5.7879126e-01
 -2.8830791e-01
  2.7317498e-02
 -7.4762720e-01
 -2.8924376e-01
  2.3166957e-01
 -5.3976689e-02
  2.4204923e-01
  8.9499585e-02
 -2.2446485e-01
 -2.1700884e-01
 -4.8400030e-01
  6.0483348e-02
  7.1959317e-02
 -2.9761331e-02
  4.8150573e-02
 -7.7776648e-02
  1.0606693e+00
  2.3095038e-02
 -6.3027726e-03
 -1.2259338e+00
 -2.6240400e-03
  1.7124599e-01
  4.4729623e-01
 -7.0862725e-02
 -1.8298441e-01
 -2.4308932e-01
  3.0116746e-01
  2.7875388e-01
  3.3899438e-01
 -4.2278093e-01
 -2.1203807e-02
  1.9724372e-01
 -2.0267209e-02
  1.3131408e-01
 -2.5681767e-01
  6.7414837e-03
  2.4761607e-01
  4.7724318e-02
  1.4967738e-01
 -8.9541944e-03
 -1.4324865e-01
  1.4886536e-01
  1.5196992e-01
  5.1311150e-02
 -8.0252357e-02
 -2.7597293e-01
 -1.3049987e-01
  1.2647429e-02
  2.7760068e-02
  7.6632023e-02
 -9.8898865e-02
  1.8394950e-01
 -9.8400116e-02
 -2.9392073e-02
 -8.4984317e-02
  1.5479268e-02
  5.0375212e-02
 -2.2932704e-01
  1.1530685e-01
 -5.4493052e-01
  1.0419142e-01
 -1.6704510e-01
  5.1665470e-02
 -5.2069753e-01
 -3.2994971e-02
  8.2525218e-01
  4.4354990e-01
  9.8888373e-01
  1.0393126e+00
 -8.3648926e-01
 -4.4827372e-01
  5.1431435e-01
  6.9709048e-02
 -4.3078563e-01
 -6.0403407e-01
 -2.5478673e-01
 -7.0495829e-02
  4.1688222e-01
  1.4961632e+00
 -1.5260671e-01
  4.2239603e-01
  1.2496849e-01
  1.5176623e-01
 -1.1459384e+00
  2.3586601e-01
  1.5752770e-01
 -1.9929202e-01
  7.1578819e-01
  5.2928579e-01
 -2.8764731e-01
 -5.7918167e-01
  5.8058176e-02
  6.9346011e-01
 -5.8422792e-01
 -3.4688398e-02
 -1.8298237e-01
 -4.2793489e-01
  5.0783145e-01
  1.4224447e-01
 -1.3994126e+00
 -1.1215911e+00
  5.1110911e-01
  2.4398401e-02
 -1.1153472e-01
 -8.1680767e-02
 -1.2624975e-01
  3.8036168e-02
 -6.2627596e-01
  5.6278676e-02
  3.1209884e-03
 -9.0786256e-02
 -2.7868965e-01
 -1.5115342e-01
 -1.7874572e-01
  9.9928893e-02
 -4.2143557e-02
 -2.7891821e-01
 -2.9509310e-02
 -1.1761888e-01
 -9.6941330e-02
  1.2688780e-01
  1.9067569e-01
  1.0683947e+00
 -8.9383744e-02
  2.6588303e-01
  2.6598006e-01
  8.1092447e-02
  5.4074854e-01
  1.3488802e-01
 -3.0636676e-03
  5.8373398e-01
 -3.3313673e-02
  1.6355911e-01
  7.8465417e-03
 -2.6216504e-01
 -1.1192901e-01
 -2.0495851e-01
 -9.8613705e-03
 -2.9301358e-02
 -2.6152977e-01
  1.6171509e-01
 -4.6790015e-02
 -4.7375597e-02
 -8.6739331e-02
  2.4115843e-01
 -6.4395010e-01
  2.8895912e-01
 -1.5970210e-02
 -1.5135390e-01
  2.0186925e-01
 -2.7870244e-01
 -9.6510295e-03
 -1.0958722e-02
  7.4687853e-02
  3.0120203e-01
  5.7124490e-01
  5.9347522e-02
 -1.7256048e-01
 -1.3069661e-02
  1.3458803e-01
 -3.3891398e-02
  4.6016868e-02
  4.0399142e-02
 -1.0244073e-01
 -8.0296129e-02
  4.0788504e-01
 -1.1751954e-02
  1.0501450e-01
  1.6159723e-02
 -1.4387374e-01
  4.5734145e-02
 -8.6724170e-02
  2.4207932e-01
 -3.0675894e-01
 -1.2759976e-01
 -2.3405518e-02
  4.0678632e-02
 -1.1050174e-01
  1.6879168e-01
 -7.9079762e-02
 -2.6085415e-01
 -1.2955649e-01
 -4.5667949e-01
  1.8134054e-02
  5.7418022e-04
  9.4666064e-02
 -6.0867625e-01
  1.6522068e-01
 -1.2262002e-01
 -5.2854847e-03
  1.3979323e-02
  2.4895979e-01
 -2.5356922e-02
  3.3915557e-02
 -1.4870875e-01
 -3.8698700e-01
 -9.6091092e-02
 -4.9491279e-02
 -2.3001596e-01
  6.4602487e-02
 -8.5562281e-02
 -5.4630522e-02
 -6.3540749e-03
 -2.4163209e-01
 -1.1729202e-01
 -3.0588116e-02
  1.9670925e-01
 -4.6959382e-02
 -1.2718654e-01
  3.1115285e-01
 -2.9500376e-02
 -3.8447987e-02
  5.4522194e-02
  7.7736162e-02
  3.2594237e-02
 -5.2666809e-02
  6.2376846e-02
 -2.0653661e-01
  1.4859815e-01
 -2.7533472e-02
 -1.1716341e-01
  1.1747769e-01
 -4.7940534e-01
 -1.8502723e-01
 -1.0786581e-02
  6.7271107e-01
  3.5892520e-02
  1.0055768e-01
  1.0196849e-01
 -1.0269416e-01
  3.2447171e-01
  1.8872830e-01
  1.6367644e-01
 -1.8389294e-01
 -9.1521129e-02
  3.1372318e-01
  4.2322102e+00
 -3.3062112e-01
 -2.7387571e-01
 -4.9642006e-01
 -1.9822395e-01
  1.4280507e-01
  5.5319656e-02
 -3.2118231e-02
 -1.4317651e-01
  1.7872782e-02
 -5.2443955e-02
 -8.9148410e-02
  6.9952101e-01
  9.7955735e-03
 -1.8961407e-01
  4.9280706e-03
  1.9759719e-01
  3.5503134e-03
  3.0382034e-01
  9.3624175e-02
  6.2922262e-02
  5.2827712e-02
  1.6276395e-01
 -7.9169065e-02
 -2.4829885e-01
 -7.9715932e-03
  1.3521110e-01
  1.6726629e-01
 -1.5105403e-02
  3.8582009e-01
  2.8626734e-01
 -2.5147164e-01
 -3.2771739e-01
  5.7582203e-02
  3.1638244e-01
  4.8024718e-02
  1.9727584e-02
 -4.4775620e-02
 -9.9066757e-02
 -8.3805382e-02
 -2.5368173e-02
  8.6327069e-02
 -1.0675222e-01
 -1.9529584e-01
 -1.1757267e-01
 -1.7657092e-01
 -3.0094549e-02
  2.3993220e-02
  2.3001609e-02
 -3.5297781e-02
 -1.1110047e-01
  2.4424329e-02
 -6.4430498e-03
  3.6129192e-02
 -1.5528798e-01
  5.7748728e-02
 -1.1162184e-01
  2.6140604e-02
  5.2162826e-02
  1.6268413e-01
  8.8380821e-02
  1.2837137e-01
 -1.5899184e-01
  6.2427383e-02
 -4.7584809e-02
  1.3899554e-01
 -9.4924113e-03
 -3.1078938e-01
  8.8622877e-03
 -8.4054664e-02
 -4.8637116e-01
  5.1317453e-02
 -4.5448928e-03
  1.3280781e-01
 -1.1200134e-01
  1.3535328e-01
 -8.3938755e-02
  1.1675764e-01
 -1.5617941e-01
  6.1688088e-02
 -2.5213469e-02
 -1.7860137e-01
  2.0187539e-03
 -3.7219021e-02
 -6.8902485e-02
  7.5958118e-02
  2.3674839e-03
  2.0899141e-01
 -5.7237200e-02
 -1.3045441e-02
  3.4521165e-01
  1.2268668e-01
 -5.7210770e-02
  1.1161882e-01
 -3.4045014e-01
 -3.6294019e-01
 -1.0012572e-01
  2.1019325e-01
 -2.0846996e-01
  5.3843442e-02
  3.0240791e-02
 -2.2922784e-01
 -3.9209113e-02
  2.9468834e-01
 -1.7028634e-02
  2.6510978e-01
  1.5675132e-01
 -1.0823233e-01
  3.1700239e-02
  2.5299558e-01
 -2.6232669e-01
 -1.1847951e-01
 -1.2192337e-01
 -1.8402012e-02
 -4.7251499e-01
  1.8132915e-01
 -1.5371384e-01
 -1.6318716e-01
 -2.4588676e-01
  1.5171841e-01
 -9.3186095e-02
 -1.5372866e-01
 -2.6392760e-02
 -5.3589281e-02
  1.5824850e-01
  2.4499544e-03
  1.5714455e-02
  1.5525183e-01
  8.4285466e-03
  1.3413854e-01
  7.6453850e-02
 -9.7505525e-02
 -4.2180029e-01
 -9.4409222e-03
  6.8722054e-02
  3.1427555e-02
  1.7115752e-01
 -1.1865930e-02
 -9.9087488e-03
  1.6395554e-01
  4.7801498e-02
  2.1100894e-01
  1.5778416e-01
 -2.5371933e-02
 -4.8989728e-02
 -2.9825377e-01
 -2.4821571e-01
 -3.3063927e-01
 -9.0386674e-02
  1.6965230e-01
  1.3409786e-01
 -1.7130651e-01
 -1.8752255e-01
 -1.5514381e-01
  4.8483156e-02
 -2.4696052e-01
 -1.6156575e-01
 -1.4803259e-01
 -5.7641948e-03
 -1.5219669e-02
  5.2520610e-02
 -1.3798502e-01
  4.3102536e-02
 -7.9596020e-02
 -1.4430188e-02
 -5.9008647e-02
 -3.9114229e-02
  2.2002001e-01
  1.2710312e-01
 -2.9475551e-02
  2.1950988e-01
 -6.7161825e-03
 -7.8397721e-02
  1.0389067e-01
 -1.2522827e-01
 -7.0641720e-01
  1.7381066e-01
 -3.5113177e-01
 -2.1277671e-01
  1.2751251e-01
 -4.0865996e-01
 -5.2114829e-02
 -3.9415009e-02
 -2.5584766e-01
  1.0689388e-01
  2.1236438e-02
  1.6209962e-02
 -2.1397921e-01
 -1.4822932e-01
 -2.8892612e-01
  2.2000286e-03
 -1.9304548e-01
  3.9982434e-02
  6.0947076e-03
 -2.1641961e-01
 -1.2835296e-02
 -5.6678992e-02
 -2.5714269e-01
  1.1170394e-01
  7.3198989e-02
  8.0669992e-02
 -1.0010597e-02
 -5.3848051e-02
 -4.7030431e-01
  3.1296930e-01
  5.0593406e-01
 -1.1911217e-02
  1.6033040e-01
  2.2396262e-01
 -5.4720681e-02
 -1.0473424e-01
  7.2569475e-02
  4.3621812e-02
  2.1252649e-01
  7.2382644e-02
 -1.1500911e-01
 -1.2195858e-02
 -1.8977542e-01
 -1.3093717e-02
  9.9874429e-02
  7.6433785e-02
 -1.7460504e-01
 -1.8294641e-01
  4.8603859e-02
  3.0918069e-02
  2.9575592e-01
 -2.0485410e-02
  1.2923144e-02
 -1.8301900e-01
 -3.4588858e-02
 -5.9736799e-02
  7.5690106e-02
 -5.9326034e-02
 -1.3594033e-02
 -1.7545485e-01
 -1.2426004e-01
 -1.2390833e-01
 -1.9193128e-01
 -3.5943966e-02
 -4.6604801e-02
 -5.7564676e-01
  7.2306901e-02
  1.3458111e-02
  1.2646338e-01
  9.8413050e-02
 -1.8695726e-01
 -5.3076762e-01
  1.2983175e-01
 -2.6157543e-03
  5.0822310e-02
  9.2394747e-02
 -3.8058724e-02
  1.4179637e-01
 -5.2920409e-02
 -9.7063147e-02
  1.4755720e-01
  2.5703007e-02
 -7.5250305e-04
  1.4781745e-01
  1.5094745e-01
 -3.7105601e-02
  7.9064809e-02
  3.6023326e-02
  5.8544185e-02
 -1.0571957e-01
  9.8356433e-02
 -5.1376145e-02
 -2.4842402e-02
  1.5743634e-01
  3.1007266e-02
  6.9348230e-03
 -3.0230147e-01
 -1.0353340e-01
  3.7018474e-02
  1.7940669e-01
 -5.6872074e-02
  3.1635862e-02
  3.4456000e-01
  1.4257570e-01
 -3.1786617e-02
  7.3672637e-02
 -2.6944160e-01
 -4.6504119e-01
  1.3809532e-03
 -1.9945784e-01
 -1.1416458e-01
 -3.5864437e-01
 -2.3816583e-01
  7.5995356e-01
 -2.2520956e-01
 -1.1136607e-01
  1.2167823e-01
 -2.1724526e-02
  2.7803248e-01
 -9.9317968e-02
 -1.9412270e-01
 -1.1311461e-01
 -1.5216105e-01
 -1.9320388e-01
  1.1736569e-01
  6.6820127e-03
  5.2776858e-02
  6.5554460e-03
 -1.5043971e-01
 -2.9799264e-02
 -1.4815737e-01
  2.3219192e-01
 -5.0915409e-02
  9.0426907e-02
  3.3207513e-02
 -4.9523801e-01
  1.1983236e-01
 -6.9316782e-02
  8.2469560e-02
  3.9341237e-02
  3.1381823e-02
 -5.1202446e-02
  2.4526943e-01
  1.5400025e-01
  2.0083359e-01
  1.6345257e-01
  1.8210703e-01
  9.4219550e-02
 -1.5672275e-01
 -9.2737818e-01
 -1.7929406e-01
 -3.5437603e-02
 -5.3007084e-01
  1.5348122e-02
  2.6225036e-01
 -6.3255072e-02
 -3.1465362e-03
  3.4521841e-02
  1.3685392e-01
 -6.0676958e-02
 -1.2819070e-01
 -5.2285831e-02
 -1.9192776e-01
  4.2505763e-02
  5.2434430e-02
 -6.0665164e-02
  2.1129398e-02
  2.8596917e-01
  7.8419875e-03
  1.7875695e-01
  2.7602500e-01
  1.7362534e-01
 -6.6089042e-02
  2.6547700e-01
  8.3340771e-02
  1.2955214e-02
  1.0528005e-02
 -4.5626920e-02
 -5.9787121e-02
  1.4062838e-02
  1.5799955e-01
  5.0010491e-02
 -2.4681729e-01
  2.6719606e-01
  1.5651399e-01
 -1.1148243e-01
 -4.8439428e-02
 -1.1587277e-02
  7.1286201e-01
  1.7317178e-02
  8.1069760e-02
 -2.7021706e-02
  2.5815193e-02
  7.8189828e-02
  9.7294033e-02
 -2.3332797e-01
  1.5592456e-01
 -3.0706817e-01
 -2.8979758e-02
 -1.8893549e-01
  1.0082224e-02
  4.5033015e-02
 -9.5828235e-02
 -6.5673284e-02
  2.0601997e-01
  2.5103219e-02
  2.5548074e-01
  1.7845336e-01
  6.1642244e-02
  2.0373823e-01
 -8.3242647e-02
 -8.0081761e-02
 -1.1815207e-02
  4.7653981e-02
  1.9664162e-01
 -3.3748755e-01
 -1.2181921e-01
 -4.4279933e-01
 -2.9620910e-01
  8.3235085e-02
 -2.5982681e-01
  6.2113434e-01
 -3.6366811e-01
 -8.8024162e-02
 -4.3307948e-01
 -2.0567843e-01
 -9.8741101e-04
 -2.4795420e-01
  1.8095877e-02
 -1.1171695e-01
 -8.3530873e-02
  1.7296965e-01
  1.4969984e-02
 -2.0675156e-01
  1.9435930e-01
  1.4156875e-01
  3.9440744e-02
  3.3168200e-02
  3.6121149e-02
  1.1539913e-01
  2.8535933e-03
  2.4818432e-02
 -3.0708486e-01
 -3.0760229e-01
 -3.3657375e-01
 -2.6001757e-01
 -3.2684377e-01
 -3.3280011e-02
  1.2117182e-01
 -6.5549806e-02
 -2.5821123e-01
  6.4951181e-02
  4.8021385e-01
  2.1617568e-01
  2.9898731e-03
 -1.1925763e-01
  9.9226236e-02
  9.2984214e-03
 -6.1777357e-02
  3.4010623e-02
 -9.7670376e-02
 -1.4433739e-01
  2.3580252e-01
 -2.5971895e-01
  5.6470100e-02
  1.5412824e-02
  1.8986349e-01
  3.1933033e-01
 -6.1732870e-01
  2.0390907e-01
  2.4426593e-01
 -1.8535160e-02
 -1.0839558e-01
 -1.5036911e-01
 -1.3232683e-01
 -6.9274329e-02
 -9.9574029e-03
 -2.8126681e-01
  1.2199635e-01
 -2.5867894e-02
  1.0924994e-01
 -1.4914632e-01
 -9.6825240e-03
  5.9729911e-02
 -4.3662880e-02
 -1.7140234e-01
 -4.4388842e-02
 -9.4270080e-02
  5.8230662e-01
  5.8474563e-02
  3.9042982e-01
 -1.9110170e-01
 -7.0080990e-01
 -1.1950054e-01
  4.3335814e-02
 -5.1870879e-02
  2.1222210e-01
 -5.3735647e-02
 -1.5297717e-01
  5.3605300e-01
 -9.5621735e-02
 -4.0630929e-02
 -9.4750352e-02
 -1.0652970e-01
 -1.9086224e-01
  3.4903619e-01
  2.0298219e-01
 -1.5886549e-02
  1.6942924e-01
 -2.9707266e-02
  1.5837789e-01
  6.5027080e-02
  4.1904438e-02
 -1.0663719e-01
 -9.3016900e-02
  2.3513947e-01
 -9.1135122e-02
  1.4483774e-01
 -2.0332240e-02
 -1.0002598e-01
  9.6633144e-02
 -1.0679500e-01
  4.3306429e-02
  5.8591300e-01
 -3.8995540e-01
 -6.7015149e-04
 -1.4248343e-01
  1.2993474e-01
  4.8776466e-02
  7.9443127e-01
 -2.9614108e-02
 -9.4042510e-02
 -6.2372009e-03
  8.4077910e-02
  1.9258627e-01
 -2.1138385e-02
  5.2612973e-03
 -4.3680295e-02
 -4.7272649e-03
  1.1887477e-01
 -5.9852026e-02
 -2.7962753e-01
  4.4985596e-02
  1.3706836e-02
  1.3292564e-01
 -5.8635809e-02
  1.3922841e-02
 -1.4751704e-01
  1.5939368e-02
  5.2172594e-02
  4.8448515e-01
  1.8147856e-01
  3.6453143e-02
 -5.4343466e-02
 -1.7541999e-01
  1.2844239e-01
 -6.1994763e-03
 -4.5472586e-01
 -1.2435503e-01
  7.4204795e-02
  5.6904458e-02
 -4.5655012e-02
 -6.3682258e-02
  3.4805868e-02
  1.1489785e-01
  1.4639401e-01
 -2.3254058e-01
 -6.1252423e-02
 -1.2633957e-01
 -3.0201128e-01
  1.4387900e-02
 -1.6389202e-02
  4.5607504e-02
  3.9439663e-01
 -6.2305100e-02
 -1.2142438e-01
 -7.6425724e-02
 -4.5803811e-02
 -1.5893616e-01
 -9.1872618e-02
 -6.3906118e-02
 -5.4612074e-02
 -7.7523746e-02
  1.3071018e-01
 -1.6310588e-01
 -2.8137732e-01
 -4.4458803e-02
 -3.7035212e-01
  7.5517572e-02
  4.0617131e-02
  2.2406455e-02
 -8.7451018e-02
 -3.5740056e-03
  2.1401124e-01
  3.0637452e-01
  1.6561067e-01
  4.1865292e-01
 -4.1113887e-02
  4.5178336e-01
 -1.9850458e-01
 -2.2414014e-02
 -1.8089548e-02
  1.5206393e-02
 -1.1824673e-01
 -3.9518837e-02
 -6.2564559e-02
  4.1462362e-02
  2.0683017e-02
 -1.7837277e-01
 -4.8072550e-01
  1.6805007e-01
 -6.8623938e-02
 -3.3706248e-02
  1.5941632e-01
  6.5521002e-02
 -1.0437854e-01
 -8.5545503e-02
  1.6911011e-02
 -3.1177598e-01
  4.7068954e-01
  2.4372366e-01
 -1.7983136e-01
  8.0312369e-03
 -1.6867596e-01
  1.4752306e-01
  7.4332431e-02
 -1.3212615e-01
 -2.2415327e-02
  3.2716367e-02
 -2.0425491e-01
 -3.9112275e-03
  2.6701787e-01
  2.6752156e-01
  4.1193363e-01
  1.0380959e-01
 -8.1440762e-02
  3.6167988e-01
 -6.1806977e-01
 -1.7546576e-01
  4.2064097e-02
 -2.8452788e-02
 -5.6757305e-02
 -3.6012929e-02
 -5.2067530e-01
  3.8780473e-02
 -1.6742569e-01
  2.9263735e-01
  2.3172524e-02
  4.3765895e-02
  2.5237575e-02
  2.6698722e-02
  7.5017169e-02
  7.8227796e-02
 -2.3090543e-01
 -1.5111063e-02
  5.4818906e-02
 -9.1668807e-02
 -1.2104729e-02
 -2.9251364e-01
 -4.1924819e-02
 -1.5289636e-01
 -3.9892528e-02
  3.1102350e-02
 -2.2200640e-01
 -2.6253784e-01
 -1.6193366e-01
 -1.0180145e-03
 -4.4236681e-01
  8.0380842e-02
  8.6171135e-02
 -6.7589916e-02
 -4.1608328e-01
 -1.1901667e-01
  1.0013424e-02
  3.0793466e-03
 -4.5382340e-02
  1.7500177e-01
  1.8901254e-01
 -1.1896552e-02
 -4.7124001e-01
  7.1780160e-02
  2.1534225e-01
  3.5583824e-02
  3.0292394e-02
  1.4819159e-02
 -3.2038411e-01
  5.6848705e-02
 -5.1665935e-03
 -3.0269861e-02
  9.7137960e-03
  1.8453397e-01
  5.1710969e-01
 -8.3136968e-02
  3.3139008e-01
  2.5629280e-02
 -3.9911091e-02
  2.6458213e-01
  1.4479218e-01
  8.7276191e-02
  8.0832809e-02
 -3.5102792e-02
  1.6479425e-01
  1.5148708e-01
 -5.9889448e-01
 -4.0392436e-02
 -8.1855863e-02
 -9.6368575e-03
 -3.0141699e-01
 -2.1597043e-01
  7.8553414e-01
  9.4257832e-02
 -1.3726574e-01
 -2.0321634e-02
  3.9824072e-02
 -6.8675691e-01
 -5.1145524e-02
 -3.3104903e-01
 -1.2561546e-01
 -3.2701048e-01
 -2.6778561e-01
 -5.1098156e-01
 -1.1898047e-01
 -2.2816542e-01
 -1.3435225e-01
  1.0840116e-02
  3.4726341e-03
 -4.2527446e-01
 -1.5958731e-01
 -2.9121149e-01
 -1.9411297e-01
  1.6713407e-02
 -2.1828612e-02
 -5.5340291e-03
  5.2201349e-01
  1.4410388e-01
  1.2822164e-02
  4.4910174e-02
 -1.0691117e-02
 -8.3051316e-02
  2.5491217e-01
 -3.1633139e-02
 -1.6787817e-01
 -2.4801813e-01
 -1.6169949e-02
 -1.7039029e-01
 -2.0971815e-01
 -8.5065454e-02
 -3.2488831e-05
  2.0137632e-02
  1.1348072e-02
 -8.3950669e-02
 -4.3890957e-02
 -1.6455958e-02
  2.5836867e-01
  6.0095750e-02
 -3.2299519e-01
 -6.3453786e-02
  6.8825759e-02
 -3.2383889e-02
 -6.3168906e-02
 -1.1518065e-01
 -1.0876920e-01
 -1.0854258e-01
 -2.5777477e-01
  4.0761836e-02
  9.2546962e-02
  1.7958070e-01
 -2.4784370e-01
 -6.3334103e-03
 -4.8645721e-03
  5.3688623e-02
 -1.4543994e-01
  3.5485990e-02
 -1.1529533e-01
  1.5765961e-01
 -3.1391650e-01
  9.0816848e-02
  1.9309780e-02
  7.8894198e-02
 -4.8524666e-01
  1.6217597e-01
  7.8094417e-01
 -5.2478980e-02
 -1.9955692e-01
  2.1825163e-02
  2.4112582e-02
  1.3915530e-01
 -1.2294245e-02
 -8.9919619e-02
 -3.7919852e-01
 -3.5769874e-01
 -2.2451599e-01
 -9.8520488e-02
  2.3571363e-01
  7.5519167e-02
 -7.9147577e-02
  1.2688692e-01
  3.8915172e-02
 -4.8442353e-02
  4.4034457e-01
 -4.4252151e-01
 -1.2106709e-01
  1.0500867e-01
 -1.1638761e-01
  2.6206857e-02
  1.4243641e-01
 -5.0560939e-03
 -1.1800799e-01
  2.4406081e-02
  8.4232092e-02
 -8.9639708e-02
 -1.2353146e-02
  7.1129316e-01
 -1.4384657e-01
 -4.5850083e-02
 -9.4477856e-04
  1.7575340e-01
  1.6537291e-01
  1.9092529e-01
  1.3492186e-01
  2.2598290e-01
 -1.8450387e-02
 -3.7451457e-02
 -5.1135655e-02
  4.4956312e-01
  2.3046857e-01
  3.9197731e-01
  2.8348600e-02
  4.9720407e-01
  3.2225314e-01
  8.9057073e-02
  8.4242702e-02
  9.7686216e-02
 -3.1010168e-02
  3.4024742e-02
  2.9066581e-01
  5.0965965e-01
 -9.8910704e-03
  2.9941061e-01
  2.8937909e-01
  4.3730313e-01
  1.0113665e-01
  2.3208199e-01
 -1.1335868e-01
  2.7578619e-01
 -1.9738196e-01
  2.0701086e-02
  7.8732502e-01
  1.0496920e-01
  2.8911021e-02
 -5.3424132e-01
  1.1702871e-01
 -9.3474597e-02
  3.1061551e-01
 -3.3986844e-02
 -1.5766974e-01
 -8.3856229e-03
 -4.0297408e-02
 -3.0894104e-01
  1.9144669e-01
  1.2855005e-01
 -2.1234110e-01
 -1.1287633e-01
  1.5401664e-02
 -1.9366205e-02
 -2.2139033e-02
 -2.8239736e-01
  6.8602234e-02
 -8.7805271e-02
  2.2113822e-02
 -3.1043649e-01
 -1.7340210e-01
 -4.8177067e-02
 -1.2238867e-02
  2.2523273e-02
 -3.5412081e-02
 -3.7431249e-01
  5.0271362e-01
 -1.5841869e-01
 -1.8547778e-01
 -1.8493298e-01
 -1.1187541e-02
 -7.9550326e-02
 -1.2060507e-01
  8.4341830e-03
  1.6914895e-01
  2.5931200e-01
  6.1871640e-02
  2.0972405e-01
  3.4022900e-01
 -2.2342983e-01
  4.1293711e-03
 -2.2757959e-01
 -2.0864466e-01
 -1.8137572e-02
 -1.6540240e-01
 -5.4558802e-02
  2.7331077e-02
  3.3113942e-02
 -1.3399874e-01
 -2.3609057e-01
  4.2384493e-01
 -9.5568202e-02
 -2.4316111e-01
 -8.2541898e-02
 -2.7147403e-01
 -1.9985011e-02
  3.1075752e-01
 -8.8406883e-02
 -1.6597550e-02
 -1.9420809e-01
 -2.5511101e-01
 -6.0306437e-02
 -4.5794826e-02
 -4.8849035e-02
  4.6302035e-01
 -2.7058108e-05
  1.5924825e-01
 -5.5961722e-01
 -2.0209296e-01
 -8.9653350e-02
 -2.2180673e-01
  1.8062246e-01
  6.5285563e-02
 -6.1520439e-01
  6.2919611e-01
 -2.6032242e-01
 -1.0049926e-03
 -5.0784463e-01
 -8.0646649e-02
  8.7212615e-02
  9.1846222e-03
 -2.1481605e-01
 -1.6492085e-01
 -3.0859014e-01
 -8.7508783e-03
 -2.0395106e-01
 -4.0853046e-02
  1.2372120e-02
 -1.4668542e-01
 -8.5545614e-02
 -1.9136606e-01
 -1.9693544e-02
 -1.1603477e-01
 -1.0821958e-01
  9.2019506e-02
 -2.7456066e-01
 -2.3062234e-03
  1.6462405e-01
  2.0138229e-01
  1.4617738e-01
 -3.3434814e-01
  2.0243401e-02
  3.5970975e-02
 -9.7724646e-03
  4.4930100e-01
  3.1361267e-01
 -1.5767621e-01
  4.3866140e-01
 -4.7736308e-01
  2.3684224e-01
  2.3176402e-01
  1.4351873e-02
 -1.2087235e-02
  1.4801227e-01
  8.9274608e-02
  1.3068911e-01
 -9.9376917e-01
  1.4094425e-02
  6.6015802e-02
 -2.9295765e-02
  1.8876987e-02
 -3.9797142e-02
  2.6557505e-01
  6.2993117e-02
  5.2441347e-02
 -8.3641812e-02
  2.6266029e-01
  1.2809204e-02
 -1.1703806e-01
 -2.3166505e-01
  9.8145328e-02
 -1.0608967e-01
 -2.7822191e-01
  1.0952742e-01
 -9.0423077e-01
  5.2413918e-02
  2.0980471e-01
 -1.2990367e-01
  5.4735322e-02
 -9.4208112e-03
 -1.5212534e-02
 -6.4197439e-01
 -1.8379967e-01
 -2.8642228e-01
  1.9521651e-01
 -4.2558187e-01
 -1.6461966e+00
 -5.9957081e-03
  9.3964495e-02
 -7.1387343e-02
  1.7921682e-01
 -1.4940101e-03
 -2.1252933e-01
  3.1720996e-02
 -7.6114245e-02
  4.4029243e-02
  3.3435792e-02
  3.7190112e-01
 -2.0167476e-01
  3.5822529e-02
  1.7285712e-01
  2.0788908e-01
  1.5527698e-01
  6.5420106e-02
  1.6496597e-01
 -1.0932270e-01
  2.7803030e-02
  3.0151841e-01
  2.4576743e-01
  2.7035449e-02
 -4.3847352e-02
  2.9114967e-02
 -1.1981721e-01
 -7.1485445e-02
  4.0180925e-02
 -3.1541425e-01
  1.0607988e-01
 -5.7653630e-01
 -4.4925359e-01
  3.7608448e-02
 -1.5888767e-01
 -1.4572594e-01
  4.5423013e-01
 -5.1407255e-02
  8.6039700e-02
 -2.6396474e-02
 -1.0072720e-01
  6.2828690e-02
  7.0612274e-02
  7.5743556e-02
  1.9171557e-01
  8.5797787e-02
 -3.0974742e-02
 -4.3977130e-02
  5.3058863e-01
  3.2162230e-02
  4.2678274e-02
 -5.1193800e-02
  1.3106744e-02
  2.5871652e-01
 -2.9502839e-02
  6.5996282e-02
  1.5030864e-01
  1.4413999e-01
 -1.0390592e-01
  2.1202861e-01
  7.9031624e-02
 -9.1093235e-02
  1.6370277e-01
  7.2442077e-02
 -5.0542761e-02
  5.2085962e-02
 -2.7191395e-01
 -2.1720704e-02
  6.3608360e-01
 -1.0812298e-01
  2.7431139e-01
  1.8743525e-01
  3.7299018e-02
  4.6379447e-02
  5.3017633e-03
  3.4175940e-02
 -8.5581988e-02
  6.4104728e-02
 -1.8229930e-01
 -1.5038116e-02
  1.5830670e-02
  6.5297969e-02
  6.2757127e-02
  1.1075464e-01
  2.1148355e-01
 -1.1473691e-01
 -8.2886983e-03
  8.1502885e-02
 -6.9734491e-02
  2.1919291e-01
  1.9932451e-02
  5.9898719e-02
  9.1475472e-02
 -7.7632051e-03
 -4.2982695e-01
 -4.3007057e-02
 -5.3704226e-01
  1.4999714e-01
 -2.1058353e-02
  1.9820858e-05
  1.5838517e-01
 -2.2416152e-01
 -1.8717282e-01
  2.2213729e-02
 -6.6304326e-01
 -2.8699100e-01
 -5.5487413e-02
 -1.5424357e-01
  6.8638384e-02
 -1.2755620e-01
  1.1221564e-03
 -3.6846500e-02
  1.3467593e-01
  1.0695499e-01
  5.3732291e-02
 -1.2100703e-01
  2.1670741e-01
  5.2876543e-02
 -1.4870617e-01
  3.8022238e-01
 -1.7933374e-02
 -1.4111987e-01
  1.6056558e-01
  1.1587264e-01
 -4.6708383e-02
  1.3181758e-01
 -4.6509594e-02
  2.4411584e-01
  1.2492894e-01
  4.7480151e-02
  2.3042195e-01
 -1.9965670e-01
  6.0284846e-02
  1.4004140e-01
 -1.1729939e-01
  1.3397548e-01
 -6.4875327e-02
 -5.7147689e-02
 -2.2476885e-02
 -2.8444090e-01
 -4.1922694e-01
 -6.9427443e-01
 -2.9624361e-01
 -5.9658300e-02
 -2.1377894e-01
  1.5965012e-01
 -4.1460446e-01
  8.1641585e-02
 -2.2581939e-02
  8.9575253e-02
 -3.3787572e-01
 -9.8417439e-02
  4.3515295e-01
  6.0437150e-02
  3.3351727e-02
  2.7852429e-02
 -9.6896835e-02
  1.0482723e-01
  8.3312154e-02
 -6.4714830e-03
 -3.2347878e-03
  7.4851818e-02
 -2.6186416e-01
  3.3851808e-01
  3.5665831e-01
  8.6703323e-02
  3.0677587e-01
 -3.7406262e-02
 -1.7636308e-01
 -4.5902260e-02
  1.8705288e-02
  8.7857984e-02
  9.8933540e-03
  2.8271565e-02
 -7.3965475e-02
 -2.6992345e-01
  2.1127428e-01
 -8.7736130e-02
 -3.9489734e-01
 -1.0159922e-01
 -3.3073094e-02
  4.8337951e-03
 -1.3667366e-02
  1.4342384e-01
  1.2153458e-01
  2.4511665e-01
 -2.7659425e-01
  1.0059763e-01
 -7.6756112e-02
  1.3388620e-02
 -1.3583014e-02
 -2.1441856e-02
 -2.1295425e-01
 -4.9943355e-01
 -1.2705824e-01
 -3.0079581e-02
 -4.6478692e-02
 -4.7017135e-02
 -7.2738747e-03
 -1.3475008e-01
 -1.8044392e-02
  2.2638764e-02
  7.4038107e-04
 -3.0778467e-03
  9.2437774e-02
 -1.1561438e-01
 -4.6611160e-02
 -2.1881975e-02
 -5.7820417e-03
 -3.4216559e-01
 -2.4514500e-02
 -1.9694895e-01
  3.4025875e-01
  2.8857777e-01
 -3.5407904e-01
  1.3099691e-03
  2.0677999e-01
 -2.2047924e-01
  6.2379889e-02
  1.6670994e-01
 -1.3377897e-01
 -6.4436540e-02
  1.3495557e-01
  4.2472593e-02
 -2.3417342e-02
 -2.4055684e-02
 -1.8603763e-02
  3.7075650e-02
 -2.4269347e-03
  2.8763838e-02
  3.2823391e-02
 -7.2116815e-02
  4.5069244e-02
  8.9733027e-02
 -1.0519850e-02
 -7.5684257e-02
  5.9195817e-02
  7.1689978e-02
  3.1341264e-01
  3.2676661e-01
  2.4830030e-01
 -5.3587135e-02
  5.7515472e-01
  9.9340435e-03
 -9.6891239e-02
  7.5861141e-02
  2.8324261e-01
 -2.8399977e-01
  2.5017017e-02
  9.5411070e-02
 -1.0642926e-02
 -8.9973164e-01
  1.3517532e+00
 -1.1554588e-01
 -7.6348655e-02
  7.3112369e-02
  4.8555410e-03
 -3.8549170e-02
 -1.3972040e-02
  7.9087555e-02
 -5.2871991e-02
 -6.6319354e-02
  4.2500415e-01
  1.2886579e-01
 -5.7198785e-02
 -1.2373234e-01
  1.8924895e-01
  1.3447736e-01
 -3.1575821e-02
  2.0373281e-02
 -2.0128372e-01
  3.7187698e-01
  5.7410445e-02
 -5.5438317e-02
  4.6937054e-01
 -5.0254649e-01
 -1.2853272e-01
 -7.1895637e-02
 -1.6988026e-01
  7.1660124e-02
 -6.0264125e-02
  1.0587216e-02
 -3.2188720e-01
 -2.8298294e-02
  4.1191775e-01
  1.8816853e-01
 -4.1993010e-01
 -5.5416755e-02
 -1.8692163e-01
 -2.4669807e-01
 -1.0767255e-01
  6.4683944e-02
  1.7265774e-01
  8.1407102e-03
  1.8841159e-01
 -1.1577499e-01
  1.8692830e-01
  3.6046630e-01
 -7.8764051e-02
 -5.9978241e-01
 -2.7491724e-01
  8.0601402e-02
  1.3098997e-02
 -1.7370456e-01
  3.1621028e-02
  5.6182168e-02
  5.4478860e-03
  1.7623395e-01
  3.8939524e-01
 -8.4014401e-02
  3.4710175e-01
  1.9615470e-01
 -1.3463369e-01
 -1.1138757e-03
  6.2601373e-02
 -2.5133889e-02
  4.1536696e-02
 -1.3186805e-01
 -1.2714867e-01
 -1.9492032e-01
 -1.3283096e-01
 -1.3076632e-01
 -3.8212389e-02
 -7.3779427e-02
  1.8449813e-01
  3.1044868e-01
  4.5797091e-02
 -5.0051546e-01
 -1.3786185e-01
 -5.5794768e-02
  2.1400277e-02
 -1.0001724e-01
 -4.5754160e-03
 -1.1623835e-02
 -2.5056627e-02
 -9.4212964e-03
  1.0995105e-01
  4.4508971e-02
 -1.4921817e-01
  1.1718073e-01
 -4.5846943e-02
  8.8531431e-03
 -5.5804127e-03
  7.1215287e-02
 -1.2665676e-01
 -2.9763188e-02
  6.2434778e-02
  1.3776749e-01
  2.1515070e-02
 -9.7870797e-02
 -2.6088214e-02
  1.4315632e-01
  5.3452533e-01
 -1.7042969e-01
 -1.2576656e-01
 -2.6773262e-01
 -4.0877086e-01
 -9.7169024e-01
 -9.1938603e-01
 -3.2300645e-01
  9.6723473e-01
  2.4474138e-02
  2.9597983e-01
  5.4623321e-02
  4.1792145e-01
  1.4829022e-01
  1.1715782e-01
  3.7693303e-02
  8.4238008e-02
 -3.7731603e-02
  1.8355913e-01
  1.7376509e-01
  2.0142262e-01
  1.4876640e-01
 -3.5155389e-02
 -6.0449041e-02
  1.6421714e-01
  2.5663000e-02
 -4.5721576e-01
  1.7286813e-01
 -7.5052716e-02
  3.1933779e-01
  9.0921238e-02
 -6.1672986e-02
  5.6772921e-02
 -2.1197413e-01
 -1.5247847e-01
 -1.2950116e-01
  1.2531373e-01
  2.0232694e-01
  1.9854955e-02
 -3.9724845e-01
 -1.1194562e-01
 -1.3488489e-01
 -4.4221435e-02
 -3.3991665e-02
 -1.2764215e+00
 -2.7312791e-01
  3.4213241e-02
 -1.2576581e-02
  1.9413723e-01
  1.3873087e-01
 -1.5574491e-01
  1.2040792e-01
  1.1146378e-01
  4.5398464e-03
 -6.7331463e-02
  5.3689475e-03
 -4.7932635e-03
  6.4964645e-02
 -2.5461085e-02
  2.1882492e-01
  4.9700175e-05
  1.0683489e-01
 -2.2107308e-01
 -1.3669093e-01
 -1.5903184e-01
 -1.1260546e-02
 -7.3116496e-02
  2.3644203e-01
 -9.6634991e-02
  1.7627867e-02
  1.2562418e-01
 -1.5942213e-01
 -3.4984574e-02
 -1.0859268e-01
  3.7886193e-01
  1.5522200e-01
 -2.3975519e-02
  3.7707129e-01
 -4.5774034e-01
 -1.0571297e-01
 -3.3506665e-01
  2.4398789e-01
 -4.4113692e-02
  1.9065800e-01
  2.2548962e-02
 -1.5117177e-01
 -4.0638015e-01
 -2.3409367e-02
 -3.8028222e-02
 -1.7379269e-03
 -6.5870628e-02
  7.2880508e-03
  8.8121355e-02
  4.6634391e-02
 -8.5303783e-03
  4.5421552e-02
  1.1574947e-02
 -1.8304320e-02
 -4.4720401e-03
  1.1826686e-02
  9.1214851e-03
  3.8258885e-03
  1.5685517e-01
 -1.8049705e-01
 -4.9825853e-01
  2.4402500e-03
 -1.4676292e-01
 -1.1480767e-01
  3.3367932e-02
 -2.2854750e-01
  3.5199940e-01
  1.5943673e-01
  2.5231125e-02
  1.0153959e-01
 -2.8048220e-01
  3.6019545e-02
 -2.7390239e-01
  1.1733643e-01
  5.1262848e-02
  5.7244975e-02
  1.8915340e-01
  2.7870366e-01
 -1.4700262e-01
  4.2836744e-02
 -1.4679056e-02
  1.0952025e-01
 -5.6126036e-02
  8.7421171e-02
 -2.8203378e-04
 -3.8930472e-02
  1.2452469e-02
  2.4002016e-02
  1.6073363e-02
  7.3822878e-02
 -8.6428918e-02
  1.7041181e-01
  1.8702026e-01
  1.5499291e-01
 -2.7372700e-01
 -3.9134830e-02
 -2.4442387e-01
  1.0407604e-01
 -2.0266378e-01
 -5.9330773e-02
 -7.8077808e-02
  1.5517190e-01
 -6.5165848e-02
 -4.2388624e-01
  3.5322063e-02
 -2.8133798e-01
 -1.4152804e-01
  3.4092844e-02
  2.4973221e-01
 -1.4889650e-01
 -5.0905095e-03
 -3.2859121e-02
 -1.4637955e-01
  2.2120003e-02
  6.9208384e-02
  8.5716121e-02
 -3.4254335e-02
 -8.5780710e-02
 -2.3115218e-02
 -1.6790364e-02
  3.1760864e-02
 -1.9165222e-01
  2.3670120e-03
 -1.4057484e-01
 -9.7345524e-02
 -1.1342230e-01
 -9.4642043e-02
 -9.5779546e-02
 -2.6565933e-01
  3.5341516e-02
 -2.0359714e-01
  1.9821942e-01
 -1.5167071e-01
  8.3694467e-03
 -8.6202234e-02
 -9.2837423e-02
 -3.0364582e-01
  3.0536020e-02
 -1.5854910e-01
  2.6345649e-01
 -2.1654218e-01
  3.7440997e-01
  4.2291772e-01
 -2.4512623e-02
 -3.8646445e-01
 -6.1359606e-03
 -5.4905865e-02
 -1.6652482e-02
 -6.1991192e-02
 -5.9363715e-02
 -1.2412295e-02
 -8.2013579e-03
  7.2657339e-02
  1.6497409e-02
 -6.9472745e-02
  5.3128339e-03
  4.7999278e-02
 -3.0119883e-02
  3.1875119e-02
 -8.1703313e-02
 -8.1247687e-02
  5.4283984e-02
 -2.1058558e-01
  5.2215330e-02
  1.2360894e-01
 -7.0325553e-02
 -7.1241282e-02
 -7.9667471e-02
  9.6141817e-03
  3.2590735e-01
 -2.0359848e-02
  2.8438500e-01
 -9.5339436e-03
  2.1177745e-01
 -6.1185682e-01
  1.3537261e-01
  5.5544478e-01
  3.3408564e-01
 -1.1266530e-01
 -1.5684623e-02
  1.2594789e-01
  2.7793318e-01
 -8.2582615e-02
 -5.2236225e-02
  1.1817671e-01
  3.6892131e-01
 -1.6382670e-02
 -1.9567393e-02
  2.1546492e-01
  2.8788173e-01
 -1.8225433e-01
  1.6014628e-01
 -5.6635693e-02
 -5.8461195e-03
 -3.6283702e-02
  4.2033184e-02
 -1.7377530e-01
 -1.2514830e-01
  1.5838461e-01
  1.4216164e-01
  2.6545975e-01
  3.6184376e-01
 -5.1819801e-01
 -3.9871797e-01
  1.0856448e-01
 -1.2220036e-02
  1.6242799e-01
  8.3872646e-02
 -2.7084449e-02
 -1.0916741e-01
  4.3684119e-01
 -1.3503033e-01
 -2.5926409e-02
 -2.3214751e-01
 -8.3005086e-02
  4.0389076e-02
  7.7982640e-01
  1.1997653e-01
 -3.9083925e-03
  1.3818122e-01
  2.0005256e-01
  3.1632274e-01
 -1.2459970e-01
 -3.9719576e-03
 -3.8481571e-02
 -2.6777245e-02
 -4.0564341e-03
  1.4239530e-01
  1.7632429e-02
  1.4274196e-01
  2.6280382e-01
  2.0914733e-01
  3.8756624e-02
  1.3588656e-01
 -1.2957233e-01
  2.9981741e-01
  5.2519967e-03
  3.0034808e-02
 -1.4359631e-02
  5.7322755e-02
 -3.3954570e-01
  1.6102806e-01
 -8.0768704e-02
 -3.8409028e-02
 -8.6783685e-02
  1.9117109e-01
 -9.4826981e-02
 -5.2105010e-01
  2.3452611e-01
  1.4745331e-01
 -1.8769079e-01
 -1.5223017e-01
  4.2043209e-01
 -1.7148219e-01
 -8.9776121e-02
 -6.0301702e-02
 -3.4395623e-01
 -1.2400096e-01
  2.9277566e-01
 -2.0061219e-03
  1.5762155e-01
 -4.5019153e-01
 -9.8573998e-02
  1.1097397e-01
 -1.4545992e-01
 -1.0025822e-01
 -2.9228445e-02
 -8.4678724e-02
  8.1625529e-02
 -3.9699383e-02
  3.0662110e-01
 -2.2636762e-01
 -4.4045068e-02
 -1.6427009e-01
  6.1391603e-02
  1.1725606e-02
 -1.1122893e-01
 -3.4875257e-03
 -8.7816483e-01
 -1.9759735e-02
 -1.3805588e-01
 -1.4333978e-01
 -2.8437713e-02
 -1.1199462e-01
  7.3524155e-02
  2.0741145e-01
 -1.0229940e-01
 -1.9429229e-02
  3.7040377e-01
  8.3615385e-02
 -4.0740043e-02
 -6.6642754e-02
 -1.2702958e-01
 -4.8091114e-01
  1.0259271e-01
  1.8112440e-01
 -2.3406515e-01
  7.0486888e-02
  1.0836643e-01
  5.2372135e-02
 -8.4203966e-02
  9.3741249e-03
 -2.0488450e-01
  1.2747559e-02
  4.8340712e-02
 -1.0683725e-01
  1.0635716e-01
 -8.5048266e-02
  2.5919777e-01
  3.4500143e-01
 -1.6916977e-01
 -1.5400079e-01
  4.9826279e-02
  1.0579424e-01
 -2.1188065e-01
  1.3305204e-01
 -2.9574409e-01
 -2.2798823e-02
 -4.9259972e-02
  4.9647781e-01
 -1.2650877e-02
  2.2077782e-01
  5.7174563e-02
 -8.6613074e-03
  1.7564233e-01
  4.2854942e-02
 -2.2628494e-02
  1.4720775e-01
  5.0250333e-02
  1.5573548e-01
  1.6779983e-01
  6.0525894e-02
  4.1026417e-02
  8.1729874e-02
  7.0253531e-03
 -1.1443046e-01
 -1.2154294e-01
  5.3345069e-02
 -1.7497227e-01
  1.3300861e-02
  9.4065079e-03
 -3.5157621e-02
 -2.5722193e-02
  2.5155538e-01
 -3.5607174e-01
  2.0472464e-01
  8.4614508e-02
 -1.0897055e-01
 -1.4157359e-01
 -4.1078156e-01
 -1.6629343e-01
 -6.8067111e-02
  7.7820197e-03
  5.7048056e-02
 -2.0644343e-01
 -3.3319789e-01
  2.2825785e-01
 -2.3881201e-02
 -2.0876376e-02
 -2.7672473e-01
 -8.1135720e-01
  2.4963367e-01
 -1.1629484e-01
  1.6179948e-01
 -2.8116949e-02
  1.5517527e-01
 -2.0523217e-01
  1.5449497e-01
 -2.5651821e-01
 -1.1430261e-01
 -4.3908939e-02
  1.5745132e-01
  2.9489008e-01
  1.5494399e-01
  9.6969098e-02
  1.8865553e-01
  2.6443452e-01
  2.4408141e-01
  5.6563213e-02
  1.9022804e-01
  2.1441665e-02
  2.3412493e-01
  1.7120972e-01
  4.7318131e-01
  9.8521493e-02
 -2.1504684e-01
  2.9281357e-02
  2.4815017e-02
 -5.5975306e-01
 -7.2034754e-02
  2.0079109e-01
 -2.7039671e-01
  9.3207687e-02
 -4.9406052e-01
  2.0665130e-01
  3.8107429e-02
  4.7652900e-02
 -1.7299548e-01
 -1.4436512e-01
 -2.2634704e-01
 -3.3182499e-01
 -8.9863092e-01
  2.8746578e-01
 -2.0247411e-02
 -4.3153048e-02
  3.4870099e-02
 -3.0352315e-01
 -1.3222161e-01
 -5.2911833e-02
 -1.0874923e-01
 -2.6884487e-01
 -3.6912967e-02
 -4.5422968e-02
 -6.9677725e-02
  2.0268464e-01
  7.2407812e-02
  1.4521365e-01
 -3.1251252e-01
  2.5602704e-01
 -2.7510323e-02
  1.1947798e-01
  7.5280339e-02
 -2.8346765e-01
  4.8059350e-01
 -9.1074981e-02
 -2.3451188e-01
 -1.4534605e-01
  9.5122792e-02
 -1.4768817e-01
 -1.2460355e-01
  6.6568315e-02
 -9.2947736e-02
  2.3624565e-01
 -4.7021367e-02
 -1.2828913e-01
 -8.4569149e-02
 -9.0551235e-02
  2.4951380e-02
 -1.2753029e-01
 -3.1479755e-01
 -2.3888450e-02
  8.7432183e-02
  8.7827578e-02
  5.5158496e-02
 -3.3234519e-01
 -1.6737153e-01
 -2.3168579e-01
 -2.2640729e-01
 -2.2666050e-01
 -1.3688077e-01
 -7.2695360e-02
 -6.1097611e-02
 -3.0099583e-01
 -2.0696038e-01
 -6.2493604e-01
 -6.9826663e-02
  1.3213038e-01
  6.3837938e-02
  1.9863911e-01
 -3.2869503e-02
 -1.9541822e-01
  2.4569121e-01
 -2.8245509e-01
 -1.2389432e-01
 -8.1373744e-02
 -1.5296629e-01
 -1.5561441e-01
  8.4718227e-02
  1.1085806e-02
 -5.6184188e-02
 -3.4041099e-02
 -4.8378906e-03
  1.6449278e-02
 -3.6246642e-01
 -1.7879948e-01
  2.1657138e-01
  4.6487935e-03
  1.6981450e-01
 -1.3031544e-02
  1.0875881e-01
  2.8549975e-01
 -3.1944361e-02
  1.2076402e-01
 -6.8101168e-02
 -1.9308449e-01
 -8.6661421e-02
 -1.1134870e-01
 -2.1958752e-01
 -2.9093274e-01
 -8.2834236e-02
 -7.9623431e-02
 -7.0030950e-02
 -1.9251991e-02
  6.5474726e-02
 -2.4585944e-01
  5.9479317e-03
 -1.5988711e-01
 -2.8646174e-01
 -1.1613940e-01
 -1.1302929e-01
  1.4117910e-01
 -1.9531956e-01
  1.1845448e-01
 -7.4497260e-02
 -7.8192514e-01
  3.8167596e-01
 -8.5338466e-03
  8.4421642e-02
  1.5857624e-02
  3.5201944e-02
  5.3743094e-01
  6.6136479e-02
 -9.6620791e-02
 -7.5080752e-02
  5.3082876e-02
 -1.9033216e-01
  4.4675604e-03
  2.0319108e-02
 -2.0240963e-02
  4.7454804e-02
  1.0006856e-02
 -6.8917274e-02
  7.9045743e-02
 -5.8595594e-02
  1.2081870e-01
 -8.4406503e-02
 -1.6280840e-01
 -1.7187616e-02
  1.8447012e-01
 -8.5815586e-02
 -4.5844238e-02
 -2.0518313e-01
 -1.7824095e-01
 -7.9091382e-01
  4.3711728e-01
 -1.1530086e-01
 -6.1426067e-01
 -5.5857414e-01
  3.8735867e-01
 -3.6587212e-02
  5.5237073e-01
  1.4873524e-01
 -1.8475514e-03
  1.7546976e-01
  7.2638944e-02
 -5.6760199e-02
  2.1902982e-02
 -6.4263068e-02
  1.4268934e-02
 -2.1040797e-02
 -4.5482102e-03
  9.9457063e-02
 -6.9581564e-03
 -2.8998235e-03
 -1.3062038e-02
  1.8146439e-02
  1.2027376e-01
  7.1162075e-02
 -1.4897744e-02
 -3.8137707e-01
  1.5023451e-01
 -4.1198311e-03
  1.1727815e-01
 -1.6431868e-01
  2.1072292e-01
 -4.1087111e-03
 -2.9066199e-01
 -2.6183748e-01
  1.1461143e-02
 -3.5504401e-01
  8.1456956e-03
 -8.0688822e-01
  6.7570962e-02
  2.2571469e-02
 -4.3660346e-01
 -2.2168067e-01
 -3.3124971e-01
  6.6689336e-01
  1.3495313e-01
  7.3903084e-02
  1.2029963e-02
  1.7939838e-02
 -4.5504570e-02
  6.4826407e-04
 -5.4292705e-02
  1.0586010e-01
  2.0529917e-02
  2.7860230e-02
 -1.1269263e-02
  2.7103245e-02
 -1.3153876e-02
 -1.7350307e-01
 -1.3975522e-01
  7.9927100e-03
  1.3294823e-02
  3.9899772e-01
  2.0209524e-01
 -4.7601152e-02
  3.2461300e-01
 -2.0948365e-01
  7.1978979e-02
 -8.1484854e-02
  6.5186238e-03
 -8.3554968e-02
 -2.1588889e-01
 -7.3780529e-02
 -1.3957833e-01
  4.0961155e-01
  1.5878917e-01
  2.8900787e-01
  1.2765184e-01
  1.2844346e-01
  4.8525494e-01
  1.4636873e-01
  1.1743890e-02
 -3.5184823e-02
 -9.6439071e-02
  7.4425548e-02
  5.3907074e-03
 -2.1315839e-02
  5.4050315e-02
  1.1535215e-01
  3.3579493e-01
 -2.5216654e-01
 -2.5610447e-02
  3.1197544e-03
 -1.4435668e-01
 -1.5134826e-01
  4.8410721e-02
  5.6891061e-02
  2.4323506e-02
 -4.5702521e-02
 -7.5657621e-02
 -6.0293600e-02
 -5.7146486e-02
  4.7750743e-03
  5.0872080e-02
 -2.0199092e-01
  2.4661166e-03
 -3.2233188e-01
 -9.7312689e-02
  1.6853121e-01
  1.8737290e-02
  7.4473754e-02
  2.9617613e-02
  2.5300229e-01
 -1.1241625e-01
  4.5331724e-02
 -7.0834118e-01
 -2.5942191e-01
 -1.2150863e-01
 -2.3698211e-01
  1.8111134e-02
 -1.3706110e-02
  7.7269644e-02
  2.1699423e-02
  1.8423194e-01
  1.1693834e-01
 -8.1208674e-03
  1.0780183e-02
  1.3651771e-02
  1.4307017e-02
  8.6904973e-02
 -4.2294018e-02
 -1.0688917e-01
 -1.1777525e-01
  6.6296086e-02
 -3.2972389e-01
 -7.8858450e-02
 -5.7750143e-02
  1.9267226e-02
  5.9058505e-01
  2.7108014e-02
 -7.1533606e-03
 -1.0307358e-01
 -2.7401438e-02
 -3.6183527e-01
  2.2066743e-03
 -1.0131861e-01
 -8.0473047e-01
 -1.6364831e-01
 -8.6002624e-01
 -3.7468836e-01
 -8.0345728e-02
  3.7162372e-01
  1.1608382e-01
  9.2701852e-02
 -2.1821907e-02
 -1.0395347e-01
  1.6434170e-01
  2.4562243e-02
 -9.7682759e-02
 -2.9800370e-01
 -1.1844275e-02
 -3.2079149e-02
 -1.0432429e-01
  4.8376641e-01
 -5.0213784e-02
  4.3171041e-02
  3.1718828e-02
 -3.8385261e-02
  1.4142682e-01
 -3.1501211e-02
 -1.0367259e-02
 -2.0204245e-03
  2.5689282e-02
 -2.1694125e-01
 -1.5814729e-01
 -4.8999380e-02
 -1.7936435e-01
  5.9856135e-02
 -2.4655341e-01
 -1.6146687e-01
 -1.6533960e-01
  6.1608523e-01
  2.2307095e-01
  1.8705392e-01
 -5.6378984e-01
 -2.7746779e-01
 -1.6160566e-01
 -4.5937929e-01
  7.0318781e-02
  1.1932786e-01
 -3.3936705e-02
  2.4870330e-02
  1.7887130e-01
  1.4764065e-01
  2.8477037e-01
  1.5807849e-01
  4.6558920e-01
  1.9035181e-01
 -7.2597459e-02
 -2.4742784e-02
 -1.7961958e-02
 -2.5407541e-01
 -4.6810288e-02
 -2.5488192e-01
  1.1701312e-01
 -3.9846692e-02
 -7.8373298e-02
 -7.0378633e-04
 -3.3900004e-02
  6.5383637e-01
 -3.3465075e-01
 -6.1351385e-02
  3.9182045e-02
 -2.1074559e-01
 -5.2844603e-02
  4.7215678e-02
  4.8415169e-02
  5.3259611e-01
 -4.1637947e-03
 -1.6154522e-01
  5.3396974e-02
 -1.1269692e-01
 -1.9388650e-01
  7.5181442e-01
  1.5012441e-02
 -4.2722821e-02
 -3.7247565e-01
  7.8293465e-02
 -1.5444468e-01
 -3.6264755e-02
  1.1501775e-02
 -3.6252481e-05
 -2.0993629e-02
 -2.2784637e-02
 -3.8712021e-02
 -1.7619199e-01
  1.8272457e-01
 -3.4838817e-01
 -1.4389092e-03
  1.2525894e-01
 -1.7230318e-01
  2.6448950e-01
  8.6779641e-03
 -2.5313947e-01
 -2.6157200e-01
  1.4108804e-04
  4.5169076e-01
 -1.3789168e-01
 -1.5328256e-02
  2.7596262e-01
 -6.2914374e-03
  2.4448827e-02
  7.1188681e-02
 -6.4089793e-01
  5.7946820e-02
 -4.3582922e-01
  1.1067534e-01
  3.8858868e-02
  2.1797833e-01
  1.0538942e+00
 -7.2460353e-01
  2.2071384e-02
 -5.0748114e-02
  3.3017959e-02
  1.1013948e-01
  5.1688965e-02
 -2.2625507e-01
  7.9087995e-02
 -2.3576400e-01
 -1.8886767e-01
  5.2414440e-02
 -1.8802337e-01
  2.2294627e-01
 -1.0215010e-01
 -3.7090615e-03
  7.7103581e-03
 -1.1461241e-01
  1.1662474e-01
 -1.1790213e-01
  9.8061152e-03
  2.2991201e-02
 -2.4026676e-01
 -5.5739429e-02
  3.1426340e-01
  2.1038151e-01
 -3.7777600e-01
  1.4016038e-01
 -1.8775901e-01
  7.2269933e-05
 -8.2640475e-01
  1.1709858e-01
 -2.4142423e-01
  9.6832067e-02
 -1.6574347e-01
  1.3214809e-02
 -5.0916946e-01
  1.8164997e-01
  5.2391768e-01
  2.0903227e-01
  1.2383914e-01
  1.2928720e-01
 -9.3796469e-02
 -6.6467561e-02
  2.4644821e-03
 -7.3056810e-02
  4.6943139e-02
 -2.8002672e-02
  4.5150620e-01
  1.7509712e-01
  9.6856683e-02
  4.3219119e-02
  7.8295767e-02
 -3.8824663e-02
  1.0580830e-01
 -1.4346556e-01
 -3.3258590e-01
  2.9432403e-02
  5.3379305e-02
 -4.1274524e-01
  4.7590667e-01
 -2.6979336e-01
 -4.6759252e-03
  3.7422966e-02
 -1.7243300e-01
  1.2536374e-01
  4.3610001e-01
 -4.3893474e-01
  9.7981833e-02
 -7.7443525e-02
 -3.1548050e-01
 -1.8802536e-01
 -1.6392940e-01
 -3.3371970e-02
 -3.3503842e-02
  1.1211377e-02
 -9.8389231e-02
  2.7878543e-03
  4.5469899e-02
  4.7183212e-02
  3.4899509e-01
  2.2902270e-01
  1.2627742e-01
 -2.4118608e-02
  5.5153299e-02
 -1.1455621e-01
 -5.6729097e-02
 -2.5270529e-02
  8.8838294e-02
 -2.8691307e-01
  1.5927997e-01
  2.6529140e-03
 -2.0258570e-02
 -1.6587424e-01
 -3.3492607e-01
  1.1550108e-01
 -3.5300381e-02
 -1.5110718e-03
 -1.3476561e-01
  1.3874982e-01
 -6.3511081e-02
 -2.3056990e-01
  4.2657247e-01
 -1.0572600e-01
 -3.0380532e-01
 -2.2814104e-01
 -3.8883671e-01
  2.3041129e-01
  4.5710966e-01
 -3.5872722e-01
  1.2641859e-01
  1.6106993e-01
 -1.2469707e-01
 -1.5191656e-02
  2.5511177e-02
 -5.6117930e-02
  1.8291980e-01
 -5.7759468e-02
  3.0163503e-01
 -5.5257738e-01
 -8.5895211e-02
 -2.1610776e-02
 -1.5915562e-01
 -6.2381532e-02
  1.0426003e-03
 -4.5128241e-02
 -1.2750448e-01
  1.2060035e-02
 -1.0330331e-01
 -1.8128814e-02
  8.5071839e-02
  1.2806867e-01
  1.3174671e-01
 -3.4768695e-01
 -2.4958436e-01
 -4.7022361e-02
 -1.2875262e-01
 -3.2600690e-02
 -1.5918829e-02
  9.4882011e-02
  2.0393694e-02
 -8.8065848e-02
 -7.4088204e-01
 -2.5060910e-01
  1.3292277e+00
 -1.4015568e+00
 -1.0452049e-01
 -5.1606911e-01
 -1.3296527e-01
 -2.6452193e-01
 -4.9672477e-02
  1.2037192e-01
  6.9592735e-03
 -1.6351190e-01
  8.5848682e-02
  4.5319055e-03
  7.3870942e-02
 -2.5278717e-01
 -2.4784957e-01
 -2.1311041e-02
 -2.8974408e-02
 -1.8467952e-02
 -1.6636916e-01
 -3.9277408e-02
 -1.0999390e-02
  3.8774687e-01
 -2.4951951e-01
 -2.5513649e-01
  4.2347182e-02
 -2.3478203e-01
  9.4965212e-03
  3.2494831e-01
  2.0769002e-01
  1.9321054e-01
 -3.0478454e-01
 -3.2499645e-02
  1.6292551e-01
  1.2721726e-01
  1.2914322e-01
  1.2362116e-01
 -1.7484630e+00
 -6.6896044e-02
 -2.4849622e-01
 -1.0293766e-02
  5.0380722e-02
  9.2661463e-02
  1.4181614e-01
  2.5006035e-02
  1.0733682e-01
 -2.0286262e-02
 -2.7396608e-02
 -5.8430985e-02
 -2.1868689e-02
 -1.6925703e-03
 -1.8673685e-01
 -1.1320825e-01
  5.0026583e-03
  6.8646826e-02
  6.8961598e-02
  3.8607534e-02
 -4.5080941e-02
 -2.0771001e-01
  6.9220766e-02
  1.4272626e-01
  1.0291662e+00
 -2.2952793e-02
 -1.5626952e-01
  1.6125941e-01
  1.9669268e-01
  5.0530219e-01
  5.9705687e-01
 -1.9965409e-01
 -7.2695255e-02
 -2.8503063e-04
  6.5809727e-02
 -4.5642728e-01
  4.1023815e-01
 -2.6872152e-01
 -1.5924805e-01
 -9.1850780e-02
  5.1046605e-03
 -1.3242315e-01
  4.3976107e-01
 -9.2127971e-02
 -5.7850480e-02
 -2.4963075e-02
 -2.0257033e-01
  3.3535279e-02
  5.4199528e-02
  2.1087489e-01
  6.3932516e-02
  7.5962171e-02
  1.3249971e-02
  3.0818660e-02
 -8.0284895e-03
 -4.5483563e-02
  1.0216440e-01
 -7.5640902e-02
 -5.8813155e-01
  8.1985071e-03
  2.0683573e-01
  3.5893779e-02
  2.2026384e-01
  6.6022955e-02
  1.0521167e-01
 -2.2909017e-01
 -6.0009646e-01
 -9.6350414e-01
 -7.0205414e-01
 -1.4279370e-01
 -8.5050565e-01
 -1.1035200e+00
  2.1927400e-01
  4.5464581e-01
  4.2263757e-02
  1.4460397e-02
  3.1923920e-02
  1.4235473e-01
  8.0716856e-02
  4.2148858e-02
 -7.8955842e-03
 -3.4958445e-02
 -1.5003785e-01
 -2.1396306e-01
 -2.0058172e-02
 -5.4640337e-03
 -9.4417445e-03
  7.9944171e-02
  4.3081034e-02
 -2.0883918e-02
 -1.8048686e-01
 -7.6065183e-02
  1.0850808e-02
  1.5992832e-01
  6.8063419e-03
  1.6057912e-01
 -2.5497708e-02
  1.5586583e-01
 -1.7957897e-01
  1.3386209e-01
  1.4757034e-02
 -2.1417734e-01
 -3.2350612e-01
  5.4151106e-01
  2.0897393e-01
  2.3994966e-01
  2.1093401e-01
  6.4724851e-01
 -4.4556159e-01
  7.2099656e-02
  1.2334774e-02
  3.2723033e-01
 -3.9658617e-02
 -9.3499385e-02
  3.5764471e-01
 -2.7928008e-02
  5.5847299e-01
  1.0285951e-01
 -4.9215779e-03
 -2.9189944e-01
  8.5264258e-02
 -2.2866859e-01
  6.3351944e-02
 -3.5433841e-01
